float w2[256][512] = {
{ -0.004318205,-0.1275138,0.02706924,0.16989835,-0.017644087,-0.13248211,-0.030673232,0.015431502,-0.0541235,-0.07728618,0.027189888,0.098087505,0.07928313,0.05172518,0.13312684,0.060939208,0.085623235,0.030284004,-0.08157999,0.086071394,-0.057922583,0.019124761,0.03237202,0.0061751916,0.059170466,0.004078922,0.09165835,0.08960931,-0.04194061,0.10395564,0.05990822,0.0068666707,-0.18176658,-0.19161016,0.033228565,-0.07543824,0.056567933,0.16408715,-0.045516606,0.07258551,-0.002470535,0.06547287,-0.083224855,0.10925625,-0.100221775,-0.062159497,0.0052768723,-0.022203853,-0.0031410153,-0.14241382,0.085049756,0.1152651,0.1676606,0.13568145,0.020301035,-0.015042911,0.034445405,-0.09915552,-0.16048242,-0.07708445,0.0066303564,-0.11115636,-0.04422335,-0.07438363,0.057308905,0.10516009,-0.008987021,-0.018217256,-0.1324624,0.029906925,0.15589915,0.039580658,0.039964616,0.09034686,0.14861135,0.21708763,0.01581452,0.18803222,-0.11312014,-0.1709562,-0.09021711,-0.18267019,0.12290458,0.041130617,0.08753956,-0.1586644,-0.027846271,0.059468318,0.07393932,-0.076004535,0.04617875,-0.14474215,-0.0382097,-0.15809324,-0.09047067,-0.1775333,0.015632305,-0.118631415,-0.034739904,0.09829925,-0.03059981,0.004809091,0.0050289105,-0.016414896,0.18651208,-0.033718284,0.03439841,-0.073006734,-0.03289536,-0.06828207,-0.122197434,0.0038379338,0.07578135,0.04647049,0.013684366,-0.011085443,-0.015226437,0.011387029,-0.059597854,-0.030165765,0.115376584,-0.05699125,0.016543658,-0.042584907,0.122497916,0.020978726,0.10534709,-0.040632825,0.011948817,0.19454332,0.067185625,-0.16174664,-0.053114526,0.17282327,0.04916645,-0.079514295,0.054950118,0.042812135,-0.05791909,0.07843767,-0.073152944,0.05237775,0.013199914,0.0618896,0.0083441455,0.0055206562,0.17962924,0.042881522,0.03773749,-0.016792001,0.116866186,-0.085886195,-0.074433275,-0.108520254,-0.007889252,0.071731515,0.036944397,0.08848215,-0.029222164,-0.02372195,0.003955264,-0.22423832,-0.026606709,0.037560545,-0.13982044,0.069818184,-0.05669494,0.0037901585,-0.14628674,0.03224764,-0.06911864,0.00051454944,-0.09258479,0.09509407,0.05603126,-0.06155581,0.09009032,0.040925786,-0.05528283,-0.08167602,-0.106815845,-0.06915367,0.08151544,-0.035170607,0.01978486,0.018447382,-0.025776742,0.03719495,-0.048540317,0.036583863,0.10425795,-0.056649193,-0.13376854,0.10655766,0.16378906,0.044679247,-0.13778085,-0.023437977,-0.06281064,0.15780118,0.19371106,0.16161057,-3.9806462e-05,0.0118541485,0.08820705,-0.07610648,0.018039493,0.09987291,-0.07156751,-0.17021199,-0.13038294,-0.07207633,0.026326168,0.0115487985,0.0217516,-0.04942192,0.06814296,-0.05629468,-0.095353,0.13778058,-0.13159938,0.11545486,0.034859344,-0.04640899,-0.036465067,-0.035005167,0.00016468829,-0.13008429,-0.10501489,-0.0011941962,0.014296474,-0.011112277,-0.033856224,0.11950926,-0.06235654,-0.03744491,0.15856133,-0.17700611,0.025796982,-0.037378345,-0.09242654,0.097068146,-0.04459423,0.112444066,-0.10284281,0.18797654,0.1981088,-0.0042631296,0.15506159,0.047322847,0.040141292,-0.07845123,0.01541145,-0.010554416,-0.030666146,0.18782388,-0.115428224,0.022977503,0.14819287,0.09367381,0.0972581,-0.13655484,-0.06442534,0.15541396,0.076207295,0.10061948,0.18114933,0.2102603,-0.1135047,0.0002474112,0.032514516,-0.07369689,-0.06358173,0.14299503,0.05310394,0.049406674,0.11340685,-0.05828813,-0.121350974,-0.010770854,-0.031876083,-0.06636317,-0.06594159,0.03025887,0.008472338,-0.053095944,-0.04500934,-0.1990832,0.025477825,0.17268997,0.11981947,-0.059966743,0.044790022,0.019832827,-0.027299363,-0.0648502,-0.011395216,-0.04499849,0.0027079892,-0.0076106344,0.00021955038,0.049186178,-0.07823077,-0.16206591,-0.061104655,0.072894715,-0.0027348748,0.054770213,0.15537263,-0.11930531,-0.03790927,0.037600152,-0.019145016,-0.079143934,0.014739306,-0.097351454,-0.12085816,-0.045682188,0.06635898,-0.067711785,0.046183586,0.040105946,-0.11532951,0.0021231475,0.02625753,-0.10443499,0.0132843135,-0.18709567,0.13605516,-0.07064783,-0.009860963,-0.11427621,0.00713197,-0.025492668,0.025849912,-0.007496279,-0.074059546,-0.024523506,0.03787264,-0.13767035,0.0026540877,0.06971142,-0.028538547,-0.01347294,-0.12059559,0.03343911,-0.007929856,0.052895486,0.050600372,-0.057484698,-0.15628712,0.1348799,-0.118957624,-0.08141276,-0.019606758,-0.0053727417,0.12972209,0.03749493,-0.017942365,0.21350674,-0.11174551,-0.08187836,-0.027434766,-0.037595674,-0.038867395,-0.06210136,-0.13593377,-0.0647646,0.13508973,-0.117614895,0.051759124,0.00499329,-0.034642283,-0.22335313,0.07099536,0.09109481,0.027874585,0.11488676,-0.03261633,-0.025964376,0.08118859,0.11386332,-0.1373367,0.048195135,-0.16998403,-0.05499847,-0.0034580706,-0.12348843,0.17235756,-0.17651434,-0.100039,-0.14411125,0.053840652,0.08185484,0.090098284,-0.030649751,0.08944966,-0.0032019934,0.17534041,-0.060341302,0.09595172,0.09868655,-0.10989194,-0.17894705,0.13177577,0.18664905,-0.014998136,-0.10984468,0.020976791,-0.039972432,0.00666304,-0.116799146,-0.049917974,-0.11703051,0.11905755,0.0252954,0.17748135,0.011757207,-0.054466378,0.08756042,-0.007953217,-0.1795472,0.13897863,-0.061261147,-0.092060804,-0.113730155,-0.12572362,-0.08489507,-0.037733056,0.0056570107,0.09282892,0.16164272,-0.016082235,-0.097442895,-0.021678606,0.05865363,0.005003428,0.083264075,-0.012865575,-0.051649567,-0.118296206,0.04568277,-0.060510647,-0.0565609,0.14794973,-0.15316775,0.16465612,-0.07834358,-0.094054036,-0.078841664,-0.16785254,-0.0024185956,-0.20322537,0.17105936,-0.079321064,-0.12106017,0.12088882,-0.024518523,0.013956012,-0.04412304,-0.047487345,0.13937026,-0.042273197,-0.088602684,-0.1319373,-0.0035181844,-0.109963275,0.11414585,0.0717552,0.1021121,-0.0071376655,0.12218309,0.024502987,-0.040040545,-0.04737878,-0.12470319,0.031221988,-0.12842909,0.16644062,0.0290266,-0.06265013,-0.08929809,0.07906161,0.02119845,-0.14210463,0.013491859,0.110117696,-0.068984576,0.041043386,0.087125875,-0.082271025,0.07707366,-0.024723504,0.03133921,0.14064252,0.009418935,0.14133959,-0.04556332,0.006868494,0.049441647,0.04760911,-0.08662199,0.08052671,0.09760496,-0.12857498,0.050042767,0.019191233,0.10846399,-0.023465248,-0.100558,-0.10391972,0.036639802},
{ -0.11292451,-0.07898729,0.15972503,0.034450937,-0.11297748,0.02146515,-0.034522552,-0.12660591,-0.08158153,0.073949054,-0.0006794108,0.02535149,0.05734218,-0.06135273,-0.09427197,-0.036470234,-0.009868472,-0.03185222,-0.066406205,-0.091830894,0.06231724,0.0038664497,-0.03135846,-0.16288583,0.040111706,-0.15534495,-0.12715897,-0.0043840106,0.026622066,-0.18146713,0.011188918,0.052437223,0.14129056,-0.01725653,0.03079659,-0.095505565,-0.114849806,0.15091543,0.07969037,0.032628052,-0.018530216,-0.06325859,-0.065432034,0.11166969,-0.03004621,0.028080579,0.057553306,0.10367827,-0.04258528,-0.028475728,-0.018868534,0.05600977,-0.027037699,0.098850116,0.017683662,-0.050985496,-0.0565061,0.059028856,0.054579526,0.126362,0.03808483,0.0338876,-0.022711964,0.10527924,0.0038558552,-0.015864098,0.047828533,0.046699442,0.016799834,-0.04702089,0.0037956703,-0.16170672,-0.07350901,-0.039879724,-0.1906292,-0.068103634,-0.07546071,-0.067887485,0.120939605,-0.010521692,-0.035250753,0.21185045,-0.024728958,-0.08397008,-0.11585017,-0.15211487,0.102108024,0.084222905,0.020641495,0.0373483,-0.14440268,0.07915545,-0.035260074,-0.012757576,0.02532788,0.15684496,7.2603616e-05,-0.14678624,0.0946105,-0.044056863,0.06796911,-0.08950429,-0.03139759,-0.18921107,-0.0008073975,-0.1558492,-0.050745565,0.0044249548,0.09307607,-0.08176524,0.12007344,-0.070783444,-0.06871211,0.1982692,0.114190154,-0.0011667899,0.19541945,0.143534,-0.11230637,-0.014405108,0.07887441,0.053392436,-0.10340719,0.119671814,-0.030705735,0.06814328,-0.041159097,0.107340336,0.035842042,0.1432607,0.09418306,0.07929393,-0.020224607,0.035788435,0.02101208,0.08213422,0.038675506,0.25007915,0.06641627,-0.07444942,0.060148425,-0.0661843,0.08819684,0.08736279,0.018540738,0.055131383,-0.061139822,0.1581574,-0.0036823899,0.005465586,-0.16445789,-0.12268235,-0.10303433,0.17055333,0.018824037,0.024966484,0.09485881,0.05104554,0.01397746,0.03572687,-0.011490251,-0.17528035,-0.089503124,0.038448934,0.0021674663,-0.060152132,-0.21339548,0.017622618,-0.047596253,0.041083947,-0.08052796,-0.008480642,-0.119604975,-0.10855047,-0.06897146,-0.17310914,0.102986224,-0.11626714,-0.062291075,0.022937892,-0.057723634,0.11507518,0.026387934,-0.06318389,-0.07212347,0.0627312,0.077478744,-0.090024665,-0.10881641,0.09172947,-0.030022757,-0.04958529,0.07246492,-0.08398813,-0.043143764,-0.08368539,-0.041631516,0.07665224,-0.040635623,0.004347094,-0.047204133,0.06365858,-0.0006837729,-0.11177331,-0.01193853,0.019620605,-0.09007394,0.06550811,-0.022341054,0.029894829,-0.1441809,-0.18968871,0.051564243,-0.020256812,-0.015070323,-0.100014,0.12425264,0.0722097,-0.07418728,0.031617522,0.037566677,-0.15314685,0.051427465,-0.0004993733,0.1410003,0.061336365,0.05139292,0.09349237,0.15392599,-0.087203816,0.045485854,-0.099922225,-0.09980643,0.09073224,5.89085e-05,0.064909205,-0.013562974,-0.01415438,-0.1885538,0.08809457,0.17652038,-0.0147043085,-0.015814967,0.049198,-0.09160537,-0.030434953,0.052160773,-0.13961174,-0.058882713,0.107814796,0.14934164,0.14110874,0.023451785,0.11769428,0.1178107,-0.03758478,-0.05746704,-0.024133576,-0.077747054,0.13463578,-0.010462886,0.20298813,0.019746618,-0.040863063,0.045247667,0.05312606,0.03220449,0.09779498,0.030902939,0.013349954,0.087900095,-0.13689925,0.082239814,0.08741078,0.17642747,0.049477167,-0.11063688,-0.056696184,0.111534074,-0.06537494,-0.04438538,0.16492908,0.09577769,-0.001664285,0.0034703691,-0.16347149,-0.0003128985,-0.016651787,-0.089877695,-0.063042,0.07529273,-0.064185426,0.0066005327,0.09466565,-0.02005088,0.1709411,0.074631035,0.05994665,0.09825457,-0.103434026,-0.068695106,0.17015715,0.073254295,-0.13323916,0.04204449,-0.01492445,0.06067174,-0.13030991,0.023052147,-0.0950371,-0.06651035,0.006227251,0.049667563,0.0038548012,0.06414626,0.085773595,-0.01752126,0.0693272,-0.026102385,-0.04710053,-0.047654886,-0.057323705,-0.08844968,0.009113444,0.017052656,0.18904802,-0.092598654,-0.06545073,-0.14220347,0.062598504,0.013818314,0.1282311,-0.031354427,-0.028890563,0.16296273,-0.20459276,0.015912494,0.22240269,0.08103925,0.038407333,0.040154174,-0.013117393,-0.020238463,0.0072185076,-0.15265098,-0.08830021,-0.09815221,-0.0015566048,0.07903136,-0.056223862,0.15589298,-0.0007160987,-0.023700094,0.025558513,0.105597556,-0.033234753,-0.20433378,-0.0783554,-0.021189116,-0.060297303,0.07557527,-0.12126792,-0.002928329,0.066521436,-0.058623325,-0.073084235,0.0032094035,-0.07649352,-0.16564508,0.009120485,0.08325726,0.08361453,0.10343787,-0.09982383,-0.06661384,0.094575025,-0.093433924,-0.0716555,0.007498784,0.001491595,0.078003734,0.0054322192,0.035208058,-0.07964043,-0.09273938,0.0077675073,0.09624775,-0.019773511,-0.032927226,-0.033990916,0.06792108,0.07864809,0.06581506,-0.01889673,-0.124690555,-0.042211384,-0.040653344,-0.11269835,-0.024652032,-0.029445495,-0.038443543,0.011937437,-0.027635302,-0.0033512162,0.018139277,-0.044109024,0.050173752,-0.070440866,-0.026037648,0.1464751,-0.13022067,0.03575157,0.031373624,0.06285299,0.05157662,0.12301494,-0.123894334,0.11425249,-0.03187455,0.102109164,0.025810203,-0.017678836,-0.0024918155,0.12548439,-0.15592445,0.039664358,-0.107482925,-0.12044385,0.028918855,-0.15974963,0.178744,0.13304755,0.08911219,0.037179194,0.0031625412,-0.0067505995,0.066585176,-0.014918027,0.07045135,-0.04704552,-0.00024385989,0.08212653,0.0358445,-0.00798906,0.027279546,0.004546879,0.030343395,0.017168637,-0.018434271,0.07715726,-0.079273626,-0.13542324,0.08805345,0.06203797,-0.15374129,-0.08261266,0.035168774,-0.08380526,0.11020777,-0.087995395,-0.18979332,-0.08781628,0.09072435,0.016808579,-0.045210257,-0.08360583,0.070342146,-0.10129349,-0.14909947,0.029372517,0.10273969,-0.06430317,0.19765146,-0.03214719,0.00095775945,0.04650821,0.035241205,-0.04392817,0.18767019,0.15446284,0.06683006,0.15233186,-0.047954444,-0.13034268,0.06578435,0.009472101,-0.06450857,-0.082542524,-0.057588592,-0.19560993,0.042508937,-0.064084984,-0.03335767,-0.18352352,-0.008052694,-0.22778401,0.09330695,-0.17815869,0.059727285,0.01254297,0.15355779,0.19469902,-0.089635745,0.008924513,0.03954145,-0.0081111435,0.026633289,0.14836742,-0.052739836,-0.13399981,-0.032471076,-0.045326807},
{ 0.027442673,0.057117738,-0.068974204,-0.05767421,0.046773564,-0.022704339,0.19194727,-0.039731678,0.00552956,-0.11216771,-0.14740999,0.06813077,-0.076818466,-0.025276031,0.17782794,0.06240193,-0.1162245,-0.12573111,0.0056056017,0.012022517,0.09437379,-0.00458276,0.06072453,0.020263858,0.089037016,-0.0049293595,-0.10193839,0.04206501,0.16020674,0.1635244,0.028837439,-0.09146827,-0.0014747964,-0.18316834,0.034786254,-0.0063523217,-0.061034597,0.08363061,0.11281251,-0.039246395,0.06417392,-0.010989756,0.0061051226,-0.052539967,0.12801692,-0.029871745,-0.041257303,-0.011843405,0.052412327,0.014947965,0.0324049,0.099800825,-0.02010863,0.19401523,-0.035261184,0.1296921,-0.033482645,0.11007245,0.010423293,0.05603169,-0.026771892,0.09729753,-0.021008257,-0.03147988,0.116707385,-0.055945404,-0.01639554,0.12522325,0.10014615,0.062513575,-0.007330759,0.12026265,-0.08954181,0.03461157,0.015014161,0.017009942,0.007953052,-0.014113877,0.08890917,-0.066950195,-0.08019514,0.1711432,0.050642163,-0.055491496,0.0142536415,-0.07094505,-0.014416599,0.022235673,-0.096034326,0.14547113,-0.05402466,0.011533496,0.0632119,-0.02946105,-0.04687927,0.07624987,0.14864627,-0.14217697,-0.022567475,-0.0517566,0.09834074,0.00075428846,-0.027558435,-0.13937418,-0.054974277,-0.06391912,-0.17501244,-0.1374401,-0.06347368,-0.10289031,-0.033465143,0.1571467,-0.039829288,-0.07073399,0.114709586,-0.20567597,-0.10850921,0.0063305483,-0.090452895,-0.10727754,0.08815218,0.085694045,0.08442615,0.020831935,-0.0074675847,-0.11523854,0.047162473,-0.009336109,0.07912597,0.0060070716,0.055872843,-0.03983489,-0.19672409,0.05435453,0.041714758,0.04324231,0.027549831,-0.047681853,-0.13001545,0.019759873,0.13432588,0.003292497,-0.032906853,0.1262797,0.008209317,0.22218913,-0.08106563,-0.16998355,0.049202733,-0.017120857,0.09452915,0.07303925,-0.1561852,-0.085432984,0.14004095,0.15846969,0.01826214,0.04818062,0.070490085,-0.15825246,0.045472383,0.16150856,-0.12245408,-0.0034259812,-0.06906541,0.031011004,0.1758444,0.05944539,0.08399562,-0.028513568,0.14651532,0.0646958,0.14919196,0.09902555,-0.024652148,-0.044656288,0.17943215,0.03790176,0.12827846,-0.052124515,0.09764615,0.07233622,0.03124157,0.02605016,-0.13084391,0.10431916,-0.15930197,-0.1345568,-0.13058761,-0.05557377,-0.016321402,0.08531654,-0.07417536,-0.12231743,-0.03625471,0.06851611,0.035659492,0.085822076,0.04794484,0.082261965,-0.043339547,-0.046469968,-0.12768933,0.031945743,-0.12614977,-0.060358547,0.023916624,0.054154616,-0.1460196,-0.1453626,0.03017516,-0.17191103,0.20860985,0.014103582,0.19009973,0.0943206,-0.035846055,-0.064074084,0.13770026,-0.10646147,0.030730681,-0.014307852,0.19291253,0.08806494,0.0894439,-0.048927654,0.02976002,0.007298227,0.080325864,-0.012791643,-0.12314222,-0.16969408,-0.07402872,-0.0017689771,-0.020384833,-0.021737495,-0.081467874,0.025074681,0.14301437,-0.16884707,-0.07388058,0.11475217,-0.05439485,0.0022036047,-0.013928554,-0.06657843,-0.06423921,-0.20646743,-0.10545189,0.113590136,-0.12349207,0.05438762,0.013840722,-0.0014976683,0.07157447,0.10388559,0.11603372,0.117312424,-0.03568287,0.023737898,-0.09242551,-0.03108275,0.047532137,-0.028555153,-0.028435422,-0.007509172,-0.033449728,-0.035968944,0.21300417,0.03917947,-0.033410024,-0.038333096,-0.18771133,0.10803466,0.036502343,0.20000233,0.066213764,-0.028061755,0.06950062,-0.0057619796,0.003435009,-0.13746925,0.0014709383,-0.0051877857,-0.08887816,0.114238255,0.019327337,0.068631135,0.120351985,0.092507906,0.04319076,0.07280747,-0.10920479,-0.08869373,-0.13146977,0.00068034825,0.014973249,-0.038233124,-0.11130355,-0.04428208,-0.029975303,0.05478316,-0.08007028,0.09377631,0.108482316,-0.16245367,-0.068819776,-0.049616124,0.15057977,-0.07757087,0.013133121,0.043205205,-0.09770454,-0.0711293,-0.022243442,-0.008078443,0.06396536,-0.14832495,0.050423514,-0.14055091,-0.01969471,-0.043253627,-0.05867455,-0.029661115,0.055380568,0.028770009,-0.14575565,-0.03534777,-0.018765606,0.055167425,0.03415494,0.015766792,-0.20339155,0.06388857,-0.044225417,-0.038061038,-0.05800307,0.041722625,-0.086088866,0.029713072,0.10864092,0.03688044,0.035586204,-0.029650576,-0.06653946,0.14371754,-0.0040666885,-0.05479011,-0.012639348,0.033540696,-0.028414441,-0.0705474,-0.071403824,-0.0441608,0.020076245,-0.13636069,-0.0053619905,-0.07288223,-0.055052005,-0.050093018,-0.014623621,0.1996398,-0.08740117,-0.0074734692,-0.08092544,-0.054122817,0.18595225,-0.07565134,-0.06573952,0.055956375,0.100948095,0.061468966,0.20369671,-0.09076491,-0.015120821,0.008237809,-0.14307795,0.108016215,-0.028563691,-0.08913793,0.02006987,-0.08086342,0.07562613,-0.07360279,0.03596601,0.052490577,-0.18294053,0.011584742,0.11651867,0.02629318,0.020757226,0.03548081,0.0900004,-0.044754297,-0.019571792,-0.06884106,0.106199585,0.10729909,0.12672472,0.01708875,-0.02668153,0.04936835,-0.018720783,0.09603739,0.18740056,0.03854965,-0.03155795,0.068384744,0.044593044,-0.05635673,-0.016621882,0.08236734,-0.045013085,0.048834458,0.11750613,-0.17629747,0.04606504,0.11730094,-0.07749091,0.02634591,-0.050649576,-0.089961894,0.057939816,-0.052816432,0.16791083,-0.1123252,0.056811724,-0.118468076,0.06150293,0.01196823,-0.0019216265,-0.107064486,-0.026212005,0.031715624,0.04439278,0.0009181008,0.05595635,0.017352954,0.02144589,0.07609682,0.20821024,0.12410805,-0.0352302,0.09752471,0.07877107,0.08710399,0.15709546,-0.032916468,-0.048895136,-0.019431937,-0.08791908,0.07496649,-0.124410085,-0.015295131,-0.011831217,-0.13130169,-0.16261657,-0.032646567,-0.014819861,-0.095421955,-0.0067609292,0.17908655,0.14038478,-0.06344764,-0.04888421,-0.15879625,-0.03346772,0.028689656,0.11945478,0.10587433,-0.17471494,-0.044853646,0.073171176,-0.088514596,0.12120638,-0.12352658,-0.03885987,0.13761586,-0.06885283,0.0085991,-0.025240839,0.029377528,0.10077013,0.09483366,0.02684085,-0.01023136,-0.029846756,0.027357666,0.15831341,-0.09416787,0.11346608,-0.043280475,0.06542763,0.014546502,-0.0029220514,-0.12659554,-0.049258184,-0.0607189,0.028599517,0.12248016,-0.018984918,0.052334357,0.12538756,0.17987567,-0.032099213,-0.016934259,-0.029027583,0.03732299,0.05795896,0.21315755,-0.002903379,-0.033503287},
{ -0.010669533,0.12622783,-0.006194492,-0.04981328,-0.018095346,-0.028090455,0.12994532,0.1134527,0.06933298,0.00078327244,-0.071337655,0.09908388,0.054704845,0.105001085,0.06981325,0.043717366,0.013491358,-0.11322501,0.20263176,0.014722006,-0.014727766,-0.079109736,-0.009689623,0.097450666,0.04173369,-0.044145174,0.026151463,0.061740838,0.11357659,0.11078798,-0.04499351,0.09881927,0.035565827,-0.047959924,-0.06057575,0.106059685,0.08853391,0.20947838,0.13780622,-0.11930618,0.024341507,-0.1445709,-0.06348407,-0.163286,-0.023140064,-0.10334867,0.046567753,0.013358089,-0.13248374,-0.08151038,-0.032988407,0.10197017,0.09061657,0.110118285,0.059888035,-0.031410366,0.10044483,0.064083844,-0.055090602,-0.16135374,-0.01930594,-0.13522655,0.09565234,0.11269035,0.07631813,0.035835024,0.21376476,-0.092749,-0.021284176,-0.05106965,-0.048070557,0.13394462,0.08578507,0.06911007,0.06269682,0.15017384,0.08893373,0.06494461,-0.006072119,0.1005803,-0.004988565,0.057829328,0.019650621,-0.11151241,0.026491921,0.10585493,0.10064017,-0.025751185,0.18357244,0.023372553,0.05994647,0.015297588,0.14993392,0.12867928,-0.080352545,-0.12611796,-0.14186901,-0.040712606,-0.10155739,0.043787416,-0.07952273,0.11354945,-0.05672265,-0.003689475,0.10534354,-0.049999792,-0.018038096,-0.0947168,0.014314427,0.0050663403,0.009430011,-0.10715288,-0.024152193,-0.039370306,0.030752875,-0.055727392,0.02524777,-0.17898819,0.16897443,-0.10516062,-0.030481415,-0.013029825,-0.021012917,0.12568913,0.0068804594,0.005384549,0.11364887,-0.14142485,0.1169941,-0.06741988,-0.2295248,0.026258383,0.05664013,-0.01571296,-0.024188532,-0.15430428,-0.05461303,0.035605844,0.04779071,0.09451279,0.09437734,-0.1385389,-0.103102684,-0.08927716,-0.1646609,-0.025376694,-0.0032626458,-0.02460146,-0.047721125,0.14841504,0.053459648,0.02546754,0.062302664,0.07726498,-0.17746729,0.086202905,-0.10835912,-0.0802578,0.05107355,-0.0059097568,0.03399139,0.15427166,0.017368194,0.055643547,-0.09180095,0.039994273,-0.038897835,0.065788634,-0.0779249,-0.10485091,-0.014687748,0.07876838,0.041711807,-0.07459336,-0.10091698,-0.07449175,-0.18323943,0.044764936,-0.026485562,-0.05598049,-0.06334458,0.043800723,0.027078971,-0.110794134,-0.038659934,0.055230383,0.07810269,0.07478989,0.055906933,-0.19193968,-0.039031886,-0.20290342,0.027253207,0.06368421,0.08179762,-0.0024563414,-0.067022465,0.04738707,-0.07041884,-0.004658742,0.11836043,0.17077199,0.0658168,-0.10120837,-0.11050279,0.045160856,-0.082495555,0.104712844,-0.033448998,-0.013858155,0.07156943,-0.104816005,-0.03853843,-0.015754662,0.13351083,0.027724303,-0.063505955,0.028778361,-0.002866443,-0.13809432,0.025733763,-0.013198253,-0.1310952,0.087793,-0.030274924,0.004540496,-0.0123194745,0.12635402,0.07560629,-0.024421185,-0.09078258,0.13184969,-0.009615806,-0.084737055,-0.03406976,0.096964985,-0.052463647,0.050233018,-0.057772506,0.019839078,-0.108848,0.15009835,0.13683553,0.12164043,-0.030686986,0.04937749,0.12341613,-0.03967082,0.0071936096,-0.0021911825,0.057961356,-0.10286503,-0.029893896,0.1642197,-0.094308876,0.041043952,0.18290748,-0.1396485,-0.1294505,-0.029798172,0.13783334,0.022038223,0.11130514,0.013184489,-0.06688716,-0.17730536,-0.12956272,-0.02097237,0.011743213,-0.024704337,-0.084756434,0.031404674,-0.12941124,0.01313701,-0.04106502,-0.19235353,0.009043803,-0.12306676,-0.047516543,0.1235238,-0.06737847,0.021495437,-0.10537037,0.06716621,-0.03550292,-0.09561717,-0.019979842,-0.040685475,-0.09176351,-0.040393576,0.08311491,-0.025152681,-0.08674305,-0.12748942,0.07622292,-0.06786406,-0.05793805,-0.05272508,-0.089761205,0.042172037,0.10216875,0.117325686,-0.12597525,-0.12684713,-0.11646676,-0.09085184,0.08235798,0.0034358634,-0.02921602,0.008080451,-0.0025204464,0.0314627,0.19089308,0.15589173,0.039649073,0.008621409,0.07203686,-0.16489683,-0.08571072,-0.13880958,-0.059355676,-0.043705113,0.0066545825,0.08808053,-0.05439746,0.10919146,0.06770695,-0.14350729,0.049562212,-0.07813523,0.026215384,-0.007430021,-0.06516004,-0.045696434,0.050165147,-0.12291713,-0.17167151,0.048331972,0.17405836,0.13237579,-0.012279122,0.1560273,-0.093094185,0.009599264,-0.027749361,0.12804109,-0.01796811,0.021152852,-0.03760362,0.0229992,0.19539614,0.119271874,-0.23008475,0.06632455,-0.04283107,0.036174394,-0.08169834,-0.0144247385,-0.08595314,0.09816357,-0.0031619328,-0.04644135,0.020051269,0.02178997,-0.081496894,0.13222519,-0.0044104876,-0.18133599,-0.11553617,0.047794953,0.1193235,0.1891036,0.08114572,-0.016647823,-0.0032109283,-0.06111374,0.14034528,0.047172595,-0.053188518,0.025279643,-0.032780096,-0.15254408,-0.03435844,0.004234767,-0.018236224,0.137485,0.06169932,-0.074054144,-0.056180447,0.0760013,0.030150926,-0.06318974,-0.08661915,0.053256657,0.10332153,-0.006942967,0.08337704,-0.109274305,0.061886422,0.08016156,0.009121387,-0.07615751,-0.13601352,0.07997964,0.066963166,-0.06038353,0.030704731,0.027397083,0.12603396,-0.104042225,0.047619995,0.061396368,0.020771641,0.038825747,-0.06838648,-0.1716858,0.14625981,-0.071886614,0.059212666,-0.12606162,0.09327437,-0.14810006,0.0291203,-0.06507465,0.062864564,-0.15228488,0.11936156,0.060784187,-0.13594818,0.025046946,-0.17628911,-0.17228065,-0.08962592,0.017067583,0.059266355,0.04566553,-0.05640516,-0.0548088,0.0400476,-0.13613376,0.010257589,-0.13473867,0.06853966,-0.21852712,0.10340157,-0.033460394,0.079133354,0.12300326,0.1245904,-0.060698815,0.17352366,-0.008506147,0.04095997,-0.17176366,-0.08941775,-0.07766125,-0.0031639745,-0.060885157,0.021387909,0.04640874,0.015707415,0.13592921,-0.059065104,0.040661987,-0.075288214,0.055357255,-0.1491098,0.1032672,0.06357377,-0.16007785,0.060509656,-0.08896691,-0.16324948,0.13361822,0.16995727,0.03405717,0.028903965,-0.11791234,-0.07300429,-0.015149677,-0.07451601,-0.029089466,0.1377363,0.03166805,-0.0029870924,0.020532101,0.008946856,-0.09328576,0.023422312,-0.089679115,-0.065337874,-0.18781385,-0.012439029,0.059236992,0.087071806,-0.011959674,-0.19001758,-0.06971256,0.11014039,-0.026116354,0.16180946,0.118986465,-0.08415944,0.11528971,0.0370146,0.07882886,0.02029598,0.11795175,0.043551676,-0.020283269,0.13228388,-0.03682246},
{ 0.006429693,0.11958199,-0.023009578,-0.036207464,0.15829352,-0.007546616,0.0960049,-0.04456369,-0.15422633,0.012869232,-0.12810633,-0.049204208,0.041411597,0.0017037634,0.065972574,0.20085542,-0.013162887,0.13550074,0.11508919,-0.03834455,0.007493314,-0.13123786,0.083077595,0.08755266,0.14620468,-0.16648142,0.17168996,0.026275493,0.18874498,0.0824129,-0.15455967,0.015583245,-0.037527163,-0.021133957,0.040876556,-0.024161002,-0.014197458,-0.07026479,0.1561795,-0.12895122,-0.023200558,-0.15933512,-0.087726705,0.1067286,0.081109025,0.07914439,-0.1173256,-0.18255158,0.22538514,-0.036062874,-0.0209149,0.110228874,-0.02011596,0.20604481,0.09414192,0.05933293,-0.02573969,0.04291847,-0.19854873,0.059039775,0.14970161,-0.15773857,-0.12543474,0.036906302,-0.028253797,0.16743019,-0.06942113,0.10622194,0.07800843,-0.05170919,-0.029880445,-0.02962118,-0.059880737,-0.039573867,-0.02381876,0.021261666,0.03188068,-0.13183966,-0.02219696,-0.039569885,-0.09135617,0.03260843,0.115017354,-0.024693979,0.09981087,-0.12193479,0.10798366,0.03214293,0.12798272,0.119366,0.06298179,-0.11426696,0.00042375142,-0.12376444,-0.011445629,0.1934611,-0.01863527,0.07959423,-0.06491182,0.04275135,-0.0072899647,-0.13150644,-0.030483466,0.11813204,-0.06966754,-0.0019988583,-0.15040837,0.020890713,-0.10981065,0.07321992,-0.15432355,-0.06425728,0.09239087,0.19038746,-0.0011126632,-0.06096073,0.05854426,0.05416141,0.1586711,-0.040712826,0.1388382,0.03340073,0.05252167,-0.019993054,0.17994733,0.16448377,0.03571567,-0.05551222,0.039081372,0.051887445,-0.19138543,0.123483606,-0.05850651,0.0921815,0.13867258,-0.0056664855,-0.101777785,-0.16011734,-0.19911155,-0.060345165,0.019204343,0.17710419,-0.08788536,-0.041042842,-0.088694304,0.060900033,0.016316904,0.07008493,-0.044678036,-0.022619482,-0.009024625,-0.04680248,-0.188157,-0.098414116,0.09164506,0.13021229,-0.032038745,-0.11709588,-0.025363963,-0.09624415,0.11374167,0.23290747,0.08939054,-0.08130096,0.0491065,-0.09209488,-0.08823417,0.11150775,-0.061527807,0.10769369,0.051520675,-0.013112469,0.0048150895,-0.10995363,-0.024599435,0.10450661,0.009106391,-0.055976942,0.04479468,0.10498402,0.041966733,0.12699799,-0.026597181,-0.1960247,0.10641891,0.069687314,-0.09200073,-0.1378453,-0.013824248,-0.14319901,0.10680349,-0.06980488,0.02863083,-0.1666652,-0.018560722,-0.117681615,-0.03440305,-0.08254529,0.11039582,-0.047785003,-0.0059893876,-0.024390064,-0.10001265,0.00897961,0.03740397,-0.1705816,0.015252773,-0.1242199,-0.004924105,-0.16950223,0.042652074,-0.005451395,0.044173572,0.065745324,0.09771556,-0.08720294,0.036270335,-0.152789,0.059359446,0.013538006,-0.005219468,0.107050925,0.03499438,0.07831352,0.007057039,0.0034230019,0.022114845,-0.056843106,-0.10239117,0.095206425,-0.08161352,-0.011119972,0.19946977,-0.07552231,-0.12959316,-0.1504842,-0.15770316,0.02209918,0.11200236,0.04564858,0.07621131,0.08649396,0.044216406,0.15490955,0.14406654,-0.112112015,0.1649569,0.0037564225,0.028420826,-0.11739122,-0.15688682,-0.13757885,0.115043744,0.048414934,-0.15219393,0.16243441,0.11150784,-0.024905164,0.082228296,-0.083252564,0.1441796,0.075420834,0.078970715,0.07352763,0.031139914,0.009130903,-0.088811725,-0.00947404,0.14365835,0.12529449,-0.027174432,-0.06842337,-0.017269047,0.08444984,-0.10189371,-0.06863322,-0.10402026,-0.110007435,0.15024273,0.1017261,-0.10234507,0.054719828,-0.003089287,0.16336945,0.09451038,-0.13800365,0.029213453,0.098812364,0.062042855,0.017674273,0.1531399,-0.090448335,-0.0012907756,0.05242552,-0.073791154,0.17331928,-0.04664786,0.04971741,0.18420787,-0.036047008,-0.02810923,-0.09645494,-0.018992774,-0.004360895,-0.09950135,-0.078824945,-0.08367856,-0.021374568,-0.007870696,0.11430126,-0.071010225,0.06928095,-0.0103605045,0.1641259,0.11679269,0.121719025,-0.057462238,-0.11041029,0.11173692,-0.13280632,-0.18749337,0.17834401,-0.02062698,-0.006223801,-0.07147442,0.17376524,0.11542572,-0.022533208,-0.061091907,0.059627194,0.07179513,-0.12974173,-0.04472343,0.06524821,-0.025498582,0.10794658,-0.015607314,0.040258914,0.054536454,0.008788159,0.04005862,0.0923831,0.0015152944,0.06262981,0.031651378,0.08800582,-0.08565388,-0.05752243,-0.15738729,0.035726685,0.0682409,0.070985794,0.15182449,0.109511204,0.015858404,0.09221593,0.036031492,0.13888225,-0.00508101,-0.017726166,-0.15060194,0.19407709,0.14969678,0.043934323,-0.15987876,-0.0050499495,0.055339415,-0.05770537,-0.060693923,0.073357426,0.01783636,0.049155794,-0.11242513,0.054178018,-0.11124576,0.055942945,0.0464801,-0.029944472,-0.09309423,-0.037417144,-0.080576874,0.17350443,0.09359926,0.035727274,-0.09685847,-0.026564011,0.055565886,0.07665161,0.022682788,0.064104885,-0.16507381,0.010254773,0.0023917207,-0.101163454,0.07422768,-0.02936146,0.15220374,-0.047589503,-0.066008046,-0.012848188,-0.18948595,-0.15219551,-0.095211014,-0.05776653,0.13857836,-0.0002922621,0.11046025,-0.056024045,0.12648293,-0.055590853,-0.04640135,0.10341513,0.015850961,-0.03865193,0.11363581,-0.07649509,0.010863526,0.09128593,-0.009717772,-0.06471033,0.010942239,-0.04190792,0.040160246,-0.12178148,0.0645139,0.03701625,-0.08235368,0.07742128,-0.18009065,0.047573417,0.029323572,-0.0046176934,-0.016192725,-0.063827336,-0.029927276,-0.006537895,0.21613523,0.065845616,-0.058886822,-0.0070135077,-0.015877414,0.14900266,0.11152519,-0.06289016,-0.0097079305,0.075857684,0.17421025,0.044518825,-0.08812867,-0.020427242,-0.085551895,0.13498935,-0.024199858,-0.027988965,-0.04609235,0.02474439,-9.823783e-05,0.08474766,0.025412457,0.055327736,0.13396952,-0.08418037,-0.08029474,-0.075361,-0.018781248,0.054971907,-0.1449152,0.10914833,-0.07607804,-0.08080087,0.011458105,0.15177271,0.05592268,0.11758116,0.12889953,-0.03471405,-0.018120466,-0.08040055,-0.023893872,-0.12056286,0.17828535,-0.15816928,0.098415844,-0.0335193,-0.041286703,-0.052090794,0.0043303166,0.049833804,0.06089428,0.050539993,-0.08547339,-0.09142594,0.15131906,0.13570057,-0.038493525,0.11832431,-0.09459154,-0.025676733,0.045722574,0.01873575,-0.059881084,0.07098944,0.08271899,0.06724588,0.13446815,-0.09225235,-0.026062468,-0.096313186,-0.07970466,0.19571742,0.013096566,-0.13380651},
{ 0.03152617,0.018879632,0.0671701,0.1414504,0.04842726,0.033259317,0.03306124,0.07294789,-0.10044557,0.054523434,0.034926128,-0.039753366,0.039939612,0.11162039,-0.11265892,0.1392221,0.04122315,-0.110447586,0.002760055,-0.051939424,-0.011451556,-0.020811306,-0.109476,0.0006089836,-0.15903014,0.14968859,-0.09394673,0.04613745,-0.012442842,-0.026140092,0.0015823899,-0.06464618,-0.015436092,0.0070909983,0.06706778,-0.09367193,0.014181161,0.08999659,-0.10127141,-0.03810603,0.06896488,-0.14758083,0.008597341,0.16332701,0.017366108,-0.025841068,-0.11845468,0.045562822,-0.0666546,-0.03071863,0.12996726,0.14273044,-0.10815016,0.008143115,0.031419203,-0.06821102,-0.005989016,0.060185086,0.020647611,-0.11467793,-0.06552709,0.059044357,-0.10074072,-0.077854425,-0.025975646,0.07651607,0.025217026,0.04465243,-0.06560454,0.18296514,-0.21404734,0.0480689,-0.027445748,-0.055121012,0.009700763,-0.046912294,0.06167152,-0.16145732,0.02709625,0.06518719,-0.11274129,-0.0029334764,0.046702012,-0.16538368,0.068186544,0.0570424,-0.05281026,-0.104327284,-0.03921482,-0.15126762,-0.18334982,0.08588599,-0.086676106,0.048190195,0.07623599,0.0010990914,0.11732976,0.16432133,-0.046842806,-0.031274274,0.061099347,-0.006248741,0.061770074,-0.02823913,-0.06557513,-0.08796804,-0.07167073,0.077983856,-0.1358287,-0.024339357,0.04034055,-0.046292365,-0.013571706,0.16795994,0.10657877,-0.08520145,0.0071204496,0.044370137,-0.090434186,0.005013932,0.097947955,0.009839929,0.03851821,0.0009389031,-0.1325626,0.031507995,0.013223444,0.12043451,-0.0111557245,-0.08669496,0.04211375,-0.078957535,-0.05949296,0.044162184,-0.11373885,-0.051407725,-0.13961217,0.07248699,0.08983577,0.05288825,0.023579312,-0.1713406,0.041747686,0.046287373,0.07989874,0.031752612,-0.13044101,0.103202626,-0.01330031,0.043421585,-0.0053900527,-0.06548587,0.08606,0.06508672,-0.11108833,-0.13025051,0.033445843,0.061920214,0.15217987,-0.099356435,-0.118208736,-0.08365259,-0.09694902,0.009493372,-0.0049738316,-0.11586652,-0.05792549,0.034116402,0.07026425,0.016950464,0.0528003,0.17052338,-0.20718111,-0.08644738,-0.14622363,-0.00858143,-0.016062487,0.01805149,-0.05236011,0.015535433,0.086569265,-0.05219503,-0.02721585,0.057317693,0.04566856,-0.039731435,-0.05064826,-0.0862462,-0.06122683,-0.06646842,0.09378642,-0.16527613,0.056167036,-0.11612406,0.020317743,-0.04857359,0.1252612,-0.056037858,0.019905508,0.049041532,0.07637159,0.07425865,0.14139868,-0.170341,0.12219517,0.05746348,-0.14520954,-0.12107783,0.023612093,-0.08139518,-0.04778072,-0.10843499,0.023650141,-0.17594227,0.06238047,-0.021519199,0.18152086,-0.05512705,0.0019324895,0.16264124,0.01331533,-0.015332592,-0.099648684,0.0015337248,0.014269416,-0.03132788,-0.03910839,0.15967828,0.06559019,0.16941364,0.17149128,-0.010118583,-0.045491133,0.02997357,0.10992971,-0.14069961,-0.02919601,0.030516358,0.02862412,-0.05283653,0.0053898846,-0.1397402,-0.08388675,0.16175085,0.16005562,0.11382411,0.060974896,-0.13197176,-0.0195793,-0.18189353,0.06782266,0.032580093,-0.1407294,0.07919855,-0.009512944,0.0007595826,0.06981058,0.052657966,-0.07662119,-0.06255185,-0.08376963,-0.071735606,-0.15294318,-0.027063118,0.14124668,0.023163855,-0.061166927,-0.03712543,0.10620732,-0.06703839,0.035828218,0.04405479,-0.09090913,-0.079306535,0.12851515,0.0005548361,0.015735874,-0.019262087,0.081816815,-0.069941744,-0.018622475,-0.008051972,-0.082203,-0.022719758,0.015676884,-0.10308075,-0.1278909,0.043470506,0.08027175,0.06185167,-0.08808112,0.018637411,-0.021685872,-0.05094659,-0.10658347,0.09658729,-0.046303775,-0.022830976,0.124905415,0.124114946,-0.030148325,0.056721706,0.08821694,0.15170223,-0.036634088,0.030136969,0.089653365,-0.17208108,0.19094002,-0.084759854,-0.023765886,0.18071207,-0.10390628,0.11397553,0.11062853,-0.06533367,0.10752322,0.13154884,0.046388518,0.09138973,0.05527494,-0.12769838,0.0803988,0.01583149,0.12957811,-0.091136225,-0.057439502,0.07831256,0.1737375,-0.03588942,-0.040763017,0.040353037,-0.024704833,-0.036720723,0.012230025,-0.13289797,-0.1505596,-0.06640712,-0.022758368,-0.018486412,-0.024406169,-0.14728329,0.09871903,-0.123469494,0.21455923,-0.150245,0.16855946,0.060654268,-0.07087477,0.050167814,-0.12391511,-0.09452753,0.030412117,0.09637904,0.09413318,-0.015855536,0.039848853,-0.09948369,-0.03813094,0.035935596,0.10664648,0.070604205,0.04877913,-0.20434543,-0.01754654,0.059500165,0.0016780284,0.1894666,0.0118060885,0.07097148,0.048690345,0.09384685,-0.12759598,0.016986484,0.017805,-0.043467764,-0.027472131,0.06187839,-0.15253222,-0.21277793,-0.16271864,0.017442696,-0.20210916,-0.08045827,0.05175546,0.046383087,0.061323296,-0.0044715973,-0.04291398,-0.22149242,-0.10462084,0.11739088,0.02013863,-0.08804529,-0.18765873,0.029355703,0.17763805,-0.0587657,-0.1375534,-0.01193635,0.11245763,0.073256135,0.012078428,0.017078964,-0.055166826,-0.015168391,-0.06981141,-0.019550363,-0.10019199,0.055324115,-0.06499433,0.05874168,0.075921744,0.0006243386,-0.027320791,-0.012407115,-0.19035019,-0.15581955,-0.087502286,-0.09492487,-0.053112905,-0.02813794,-0.09822164,-0.0653685,-0.05707486,0.15901427,0.15210782,0.009937978,0.011955133,-0.093118474,0.18590601,-0.012160783,0.06318092,0.048837893,-0.2102975,-0.12068779,-0.06754998,0.03391741,0.14118572,-0.17558357,-0.08788843,-0.043124344,-0.054355107,0.1766932,-0.12044474,0.035619356,0.047666304,0.019142576,0.0026733386,-0.17177527,0.033943765,-0.14015903,-0.007715754,0.011132325,0.1832796,0.004325632,0.13672554,0.026343293,0.1610005,-0.20283115,-0.18796872,-0.17109662,0.14003696,-0.05441873,0.0439757,0.034530185,0.059331644,0.014999277,-0.086311474,-0.08729971,0.011711974,0.027982328,0.11003009,-0.17278501,-0.036492717,-0.0001365052,0.0016405475,0.09058034,-0.024416264,0.09596265,-0.117161736,0.025759561,-0.02826707,-0.06665664,-0.09281157,0.08659735,0.007614536,-0.0597556,-0.15296657,-0.002685601,-0.1668072,-0.12597461,-0.014842787,-0.02742431,-0.011242555,-0.13371496,0.04124827,-0.012576196,-0.00044991722,0.050659943,0.04578014,-0.026847295,-0.12496636,0.070681915,0.057082992,-0.015193609,0.00045085247,-0.029588975,0.0318243,0.1792507,-0.08280428,-0.16705108},
{ 0.010700461,0.05523251,-0.013540312,0.009439825,0.019018447,-0.028678987,0.061552033,-0.14871056,-0.0072597954,-0.1830577,0.16993849,0.07230821,0.049612276,0.0804154,0.04978985,0.059040323,-0.041253373,0.004535275,-0.029313449,-0.124996096,-0.002298806,-0.1379137,0.08781705,0.037262294,-0.14342244,0.06911137,0.036631737,-0.030845512,0.0026295371,0.023906574,0.063617885,-0.04402775,0.06942997,-0.1771402,0.06785629,-0.17736714,-0.035472933,0.0992479,0.03669996,0.087420486,0.052445758,-0.06528145,0.10362663,0.10092204,-0.14700927,-0.13924627,0.07484994,0.021863481,-0.13980159,0.061988056,0.09035573,-0.0363755,-0.103358336,-0.0039403317,0.13479704,0.15363607,0.0600946,0.044859357,-0.052383818,-0.071709864,0.054384228,0.017375138,-0.09632802,-0.06945372,-0.06931551,0.19046813,0.020847397,0.07013583,-0.015911259,0.012621689,-0.09197655,0.085932255,-0.13431352,0.16549885,-0.07857697,0.0034246321,-0.025151419,0.092030376,-0.008829695,-0.1287652,0.04971476,0.14473763,-0.03390589,0.0024763057,-0.13355318,-0.112473115,-0.10213231,-0.03492583,-0.038614064,-0.031208437,0.057668373,-0.09011447,0.019912329,-0.10487842,0.03750008,0.19658884,-0.15261962,0.05892662,0.010011334,-0.10360772,-0.003855616,0.05223382,0.12730476,-0.08305265,-0.017047143,-0.06343468,0.16754319,0.09519549,0.07913565,-0.022908984,0.019196276,-0.12217183,0.03826353,0.024620164,0.007383074,0.10054957,0.10587511,-0.076580025,0.011319563,0.22190702,-0.16031635,0.08208419,-0.025849765,-0.13032596,-0.08859553,-0.032318648,-0.19572742,-0.015038742,-0.088754475,0.020632204,0.0074928934,0.16983254,0.05220871,0.0855,0.03783137,0.106637836,0.117374755,-0.024887433,-0.018688174,-0.08856696,0.038609482,0.052773748,0.09244226,0.10364052,-0.106808916,0.07407858,-0.07700746,0.058102876,-0.11623494,0.21978948,-0.08892067,0.05705247,-0.04261258,0.025896296,-0.16416721,0.07698354,-0.11808219,0.011249635,0.025330404,0.009485516,0.033444896,-0.063544564,-0.060731374,0.14633912,0.12854336,0.03288778,0.18814908,-0.011543479,-0.018258678,-0.050752655,-0.01670393,-0.051443454,0.18504193,0.04063095,0.067527056,0.02226329,-0.030802937,0.10822078,-0.03446943,-0.06711314,0.07534369,-0.040804148,-0.01210317,0.058874752,0.04681932,-0.017842075,0.10521264,-0.17599712,0.024697758,0.020766657,0.03307454,-0.028646624,-0.09871908,-0.059914712,-0.004455683,-0.06483832,0.0018573246,0.09358227,-0.0873618,-0.03726105,-0.016404198,-0.06535007,0.08638828,-0.07082047,-0.017390598,0.018312758,-0.007284613,-0.015593159,0.14511105,-0.07286833,0.03265726,-0.10669086,-0.14876872,-0.087745614,0.06048091,-0.12397286,-0.064848185,0.014406295,0.16319057,0.054241583,0.029575044,-0.098713465,0.054301366,-0.011981644,0.059978217,0.029541723,0.08469545,0.0774913,0.14669278,0.016979905,-0.011943126,-0.08799233,0.09742708,-0.09851973,-0.1089679,0.045595836,-0.04994231,-0.16551088,0.14015743,0.06847194,0.059393954,-0.029525012,-0.07015089,0.17342117,-0.16109875,0.001738717,0.090397425,-0.013572733,0.07433069,0.06555134,-0.046341147,0.01220215,-0.055962957,0.049443655,0.019372279,0.08394858,-0.038929768,0.0066946936,0.07982184,0.0010691003,0.090165876,0.168772,-0.0002807671,0.1513195,0.07908382,-0.16302213,0.013742206,-0.08142771,0.049126342,-0.016780972,-0.080482416,0.07811441,-0.18146004,-0.0049783844,0.1766181,0.10369046,0.01811477,0.015128124,-0.043076467,-0.16197413,0.10230703,-0.08522872,-0.05510598,0.036038958,0.13305846,-0.08679441,-0.058264315,-0.04530568,-0.007547473,0.027389374,-0.05798596,-0.094013534,-0.13189672,0.032414973,-0.15430747,0.006604851,-0.05430251,0.17540461,0.08861315,0.07886848,0.005293939,-0.05150178,-0.019944267,0.02659836,0.027140038,0.11583378,-0.03041843,-0.042143967,-0.0648342,0.011202691,0.0020573083,-0.042826228,-0.030905776,0.11548088,0.011264879,0.06615464,-0.21506974,0.09461064,-0.11645517,-0.06876735,-0.06892074,0.17002185,0.01739083,0.061791576,-0.008240488,-0.019324481,0.019726587,0.12722512,0.024418442,6.741265e-05,-0.05779061,-0.058884364,-0.1255335,0.16186377,-0.064191446,-0.022238895,-0.024899213,-0.02460447,-0.1392527,-0.00032647053,-0.10973292,-0.012932605,0.101077445,0.05968586,-0.06319807,0.07007573,-0.04276822,0.1115331,-0.11032945,0.056115307,-0.05721026,0.012144219,-0.039520066,-0.047804732,0.16324937,0.0036422538,-0.08929693,0.089844,0.14311817,-0.15305796,0.0595344,0.04366922,0.08528996,-0.1226378,0.1456573,-0.08997914,0.015405747,0.06915638,-0.12551114,-0.065279335,0.054562815,-0.1559339,-0.0015581016,-0.18307957,0.060934942,0.014962372,0.039374717,0.036578022,0.05324782,-0.006805587,0.08473696,0.1374123,0.004148249,-0.069095105,0.00016221948,-0.10939238,0.21432534,-0.0073416857,0.042671636,-0.16750365,0.20217364,0.043331105,-0.048934434,-0.17754237,0.15278251,-0.08352726,-0.02658742,0.01634774,0.045587298,0.08960493,0.004542139,-0.09299886,0.05543473,-0.008103483,0.07048632,-0.0010973267,-0.10686795,-0.0036346128,-0.122077234,0.016343985,0.069703855,0.0531638,0.05459721,-0.04861615,-0.10040055,-0.19673386,-0.08507971,-0.119133815,0.005722197,0.17543204,-0.058488153,-0.023635536,0.012587862,0.013926348,-0.10949779,0.16305245,-0.1578098,0.015957233,-0.1198957,0.16099884,0.016614981,-0.14254668,0.13719387,-0.039444245,0.1745748,0.15084536,-0.06294559,-0.13348086,0.065816164,0.05557742,-0.06480711,-0.10424313,-0.013948319,-0.13725588,0.04703991,-0.042446647,0.09658123,-0.059337884,-0.18809079,0.11515581,-0.13529442,-0.05463583,0.086159825,0.10130899,0.107562274,0.040172998,-0.101605296,0.053444427,-0.028953932,0.0043520057,0.0039177546,-0.076334275,-0.030245699,0.0106652165,0.063415565,-0.016498063,-0.07822151,0.013493329,0.07745829,0.0046525085,-0.14468904,-0.13565733,0.0983694,0.020205995,0.172147,-0.09340951,-0.11124518,-0.08396309,-0.11713587,0.049088616,-0.04087917,-0.012386662,-0.0044117975,0.00916228,0.08233143,0.20792785,-0.0634179,-0.048526023,-0.023669925,-0.044246588,-0.0032293599,0.15799294,-0.045157943,-0.009970455,0.09075809,-0.044254925,-0.043995116,-0.082308404,0.12362229,-0.0026506798,0.11715132,0.004606997,-0.16628182,0.07623369,-0.050465014,0.126171,0.050266035,0.029756209,0.081249245,0.006232171,0.016603038,-0.07097822},
{ -0.0964526,0.049484275,-0.048689805,-0.029195376,-0.17537111,0.07562422,0.037382048,-0.013331745,-0.11400353,-0.21027099,0.16047682,0.030051269,0.15271068,-0.004029767,0.13559625,0.053679362,0.05442683,-0.062972926,0.085031755,0.15636508,-0.11896942,0.20290036,-0.02053908,0.0621893,-0.16538316,0.06654018,0.09697692,-0.052726794,0.02455138,-0.095933914,0.017076256,-0.12917516,-0.11375829,0.037931956,-0.104745604,-0.047524437,0.06334206,-0.0027750114,0.00063748716,0.039136656,0.1427257,0.07741186,0.0038626385,-0.16569784,0.007961946,-0.015658647,0.0077029043,0.017518722,0.13492677,0.072580114,0.17743595,-0.16942926,-0.0884944,0.028306682,0.10515539,-0.11350815,-0.17528482,-0.07776251,-0.08275009,0.12520473,-0.0249044,-0.029997714,-0.17802797,0.048977315,-0.0059042405,0.1511398,-0.05971006,0.06936961,0.10936663,-0.080281526,0.002265104,-0.1969918,-0.15706176,0.005566555,-0.064698085,0.1070625,-0.177418,0.081189945,-0.106078975,-0.12804404,-0.054785214,-0.09517581,-0.09582875,0.011687456,0.1381793,-0.026238399,0.0774563,0.017085291,0.003925586,-0.102660164,0.06839426,0.058284573,0.122100316,-0.005837737,-0.036153093,-0.013757343,0.07087107,0.06772075,0.08824157,0.10828402,0.05889286,0.09543169,0.0643903,-7.232151e-05,0.049057964,0.085904814,-0.034495994,0.064344354,0.022092322,0.010624284,-0.05286821,-0.114736974,-0.19770485,-0.047530193,0.024268594,0.11762141,0.045375086,0.13042636,0.19462408,-0.014345499,-0.06481696,-0.08094971,0.012733179,-0.12742604,-0.104394384,0.0929825,-0.036871754,-0.083491065,-0.117300555,-0.025649868,0.04356633,0.011430254,-0.023020046,-0.090327814,-0.0905072,-0.04225717,0.13483627,-0.10444224,-0.14995514,0.024616808,0.07913407,0.0031566622,-0.034888323,0.08089436,0.09147424,-0.05010624,-0.07911236,-0.01936264,0.1739515,-0.02785484,0.035815127,0.15719219,-0.05477971,0.19054227,0.01131378,-0.17982891,0.03956721,0.03369107,-0.15327245,-0.12144063,0.028676968,-0.02997378,0.02955382,0.0042427247,0.083623454,0.08947833,-0.06265084,-0.052293345,0.0062932684,0.07435393,-0.11869624,0.024257565,-0.10577297,0.027734144,-0.08486972,-0.045078997,0.0038604208,-0.10691733,0.096595004,-0.063161746,-0.04480927,-0.07143457,-0.13361086,-0.18353562,-0.09946914,0.06618892,0.11729504,0.17755146,-0.014740792,-0.054729678,0.12510034,-0.08898927,-0.07142985,0.0058162576,0.10568692,-0.12509596,0.030022303,0.036608238,0.03557807,-0.17654069,0.08902765,0.004844539,0.06200431,0.024554562,-0.07768415,-0.0214418,0.02221263,0.069200784,0.0019010077,0.112986125,-0.09863648,0.023073237,-0.022513371,-0.1565542,-0.081245504,-0.051548976,0.03975729,-0.06792315,-0.028866025,-0.0036260837,-0.037317015,-0.022906208,0.02539036,0.04115069,0.10449659,0.023996977,-0.030431574,0.06920084,-0.1195404,-0.06141337,-0.16109268,0.07924355,-0.0013233072,0.097230546,0.028183483,0.06353934,-0.031256866,0.004241828,0.08858097,-0.019500675,0.019115614,-0.028705534,-0.1277794,0.022835344,-0.002436151,0.078194395,-0.06353987,0.070486374,-0.07725977,-0.11391326,0.08983233,0.1669387,0.016684202,-0.11175174,-0.10134562,-0.022127777,0.037973512,0.08341201,-0.11470872,-0.11709149,-0.031708114,0.06495785,0.117320396,-0.10636416,0.067739785,-0.12367423,-0.020620791,0.090498015,0.0011665713,0.120236784,0.10933704,-0.0666915,0.18222377,0.15302427,0.07885567,0.20018965,-0.004392192,0.09824674,0.023514755,0.01919086,-0.107790105,0.043958604,-0.15496285,0.03662367,-0.041566335,0.05852281,-0.067797355,0.075014636,-0.1438585,-0.06473498,-0.11203696,0.11206318,0.10858906,-0.1482035,0.114581816,-0.14191262,0.0511291,0.00094810326,0.17621139,-0.062521584,-0.03523724,0.06656404,0.13859612,0.01960833,0.039517425,-0.046681594,-0.10989486,-0.121055074,-0.047930405,-0.100830704,0.05615344,0.008822496,-0.025064232,0.06912857,-0.20915706,-0.03879859,0.020563709,-0.022899086,0.081542276,0.041962873,-0.17689852,0.00071011775,-0.09093636,-0.10418323,-0.04604294,0.05629114,-0.06259582,-0.12022875,-0.018674383,0.09826504,-0.053023804,0.06429329,0.20371951,0.03786476,-0.15587002,-0.14882092,-0.16373616,0.0036935252,0.0763249,0.009340109,0.026464397,0.051369965,-0.18409568,0.059251595,0.01717342,-0.15281627,-0.07487314,0.11589994,-0.015699226,0.0023662967,0.11643704,0.0142419655,-0.1770739,-0.019839402,-0.07650218,0.15302035,-0.14730734,-0.103308596,0.06741365,0.022747539,-0.12854385,0.06883015,-0.03808845,0.03655136,0.010588531,0.111544415,0.13522984,-0.12916616,-0.004436354,0.09822855,0.1395042,0.09096892,0.036281236,-0.04323851,-0.071800396,-0.17934012,-0.06493436,-0.08304717,0.00308681,-0.108484186,0.17385691,-0.09735479,0.07257783,0.01329005,-0.032679174,-0.013095889,0.11858007,-0.19508344,0.025051393,0.030332763,-0.0560293,-0.11535997,-0.05973605,-0.14931302,-0.10714471,-0.1575629,0.083149366,0.10612662,-0.011158107,0.0016454206,0.033559635,-0.10838988,0.06974108,0.05334826,-0.011451138,0.06423077,-0.026018467,0.049219675,-0.07019311,-0.08283538,0.0056057298,0.14009927,-0.14508447,0.035815883,-0.010612546,0.13946246,-0.124092944,-0.18166365,-0.19244294,0.012463135,0.05487614,0.116582885,-0.1443142,-0.035668932,0.09869471,0.07429044,-0.045029685,0.1639436,-0.024986127,-0.0054315943,0.037794985,0.017914994,0.17044312,0.016192937,-0.044282466,0.054920617,-0.016248802,-0.020311976,-0.11089625,-0.075438194,-0.17231475,-0.05131599,0.014182007,0.01690925,0.091563515,-0.09944687,-0.12134571,0.14148201,0.08619574,0.056190792,-0.028339613,-0.17840642,-0.07552709,0.07367513,-0.042676814,-0.042558793,-0.04708743,0.042433284,-0.11529031,-0.013491958,0.06384614,-0.06833559,0.045897495,-0.0044642864,0.14687902,-0.05484302,0.1483973,0.1378653,0.03605119,-0.17509194,0.17781404,0.14521976,-0.096171565,0.068983965,0.063189164,0.13390747,0.018945968,0.06495665,-0.044626717,-0.14820865,0.023570284,-0.051529296,-0.08186107,0.026884794,0.08245748,-0.12245089,-0.16643064,0.06001304,-0.109185815,0.08818007,0.040696025,0.05590137,-0.034692362,0.056544073,-0.013964627,-0.056819227,0.015962344,-0.09161496,-0.10273415,-0.11714356,0.0063432576,-0.06239458,-0.01759093,-0.05249288,-0.006889944,-0.17635101,0.14152037,-0.04880678,-0.15646823,-0.026861945,-0.16560836,-0.14483857},
{ -0.013429278,0.025692273,-0.12801445,-0.06714197,-0.06455639,0.01510222,-0.16695204,-0.06112801,-0.013373572,-0.019207409,0.039031427,0.1744327,-0.01665374,-0.11362581,-0.04274428,-0.037220817,0.087493725,-0.16557781,0.0021644235,0.16149196,0.18199843,0.03955931,0.038382653,-0.06431688,-0.021249339,0.05826874,0.10625721,0.093061484,-0.08429889,-0.07679551,0.015167172,0.034245614,0.009667688,0.053634826,-0.010213435,-0.10089559,0.016659759,0.10733048,0.04309675,-0.08857416,-0.2461357,0.10370456,-0.089066334,-0.018934993,0.050117277,0.07512178,0.17953698,0.047425438,0.18255003,-0.1004964,-0.1639269,0.043067254,0.060074013,-0.11318269,0.08731539,-0.12785313,-0.037761398,-0.10642381,-0.16031832,0.0046912255,-0.07440635,-0.05269029,0.10789069,0.07204347,0.058935385,-0.1369789,0.01094502,0.01907871,0.12799995,-0.015460491,-0.006507519,0.047342937,0.07330098,0.03604109,-0.072616704,-0.21399151,0.07869066,0.03402142,-0.05842787,0.041149896,0.05483643,0.037363943,-0.16907349,-0.05524291,-0.023389855,0.13452454,0.039900374,0.16120742,0.09843125,-0.109336995,0.018956888,0.041812725,-0.020669375,0.066448756,0.0154074095,-0.0109176375,0.04053542,0.12582533,0.01007216,0.1709819,0.030851591,-0.13817891,0.17460878,0.006373883,-0.08536937,-0.08118111,0.13645515,-0.003446566,-0.06489466,-0.11443242,-0.011209311,-0.08791489,0.19009058,-0.12784609,0.04020596,-0.08252622,0.0978924,-0.07256042,0.043680258,0.17173734,0.124514416,-0.090590626,0.0857335,0.061997294,0.00093335606,-0.0888043,-0.07472073,-0.002467535,-0.00691012,0.118844636,0.04298547,0.09993702,0.08805257,0.09567505,-0.013303216,-0.055355735,0.1596438,-0.029964939,0.07611747,-0.007118323,0.030497,0.083913796,0.10683957,0.016802888,-0.07456529,0.11083691,-0.07079389,0.042054504,0.1761246,0.19376595,0.072845146,-0.19066389,-0.09470072,0.05524435,-0.15212344,0.09966067,0.013367644,-0.021619493,0.04477688,-0.1305361,-0.025160063,0.008655025,-0.08153026,0.007377134,-0.11606103,-0.023884092,-0.02430851,0.09930244,0.002988058,-0.010182364,0.0064725913,-0.1266374,0.16483758,0.1745524,0.060095396,0.056764636,-0.10825615,0.063512586,0.01575244,-0.015811995,-0.21317156,-0.09324328,-0.19344121,0.07162326,-0.18644005,-0.04310355,0.00778983,-0.15908544,0.076594815,0.031935636,-0.05841719,0.03422932,-0.16785058,0.083640546,-0.12805481,-0.05854586,0.02119765,0.042637445,0.036368735,-0.00239931,0.001648174,0.053577002,-0.054660026,-0.052732445,0.015239523,-0.117071144,-0.029931331,-2.4004537e-05,0.16540314,0.030136062,-0.06909143,-0.02588793,0.0047067497,-0.09704805,0.09841269,-0.091732934,0.0548069,0.12098921,0.08678118,-0.06364754,0.07987982,-0.0058268625,-0.08421466,-0.02691924,0.11659455,-0.17588323,-0.0031887577,0.09713027,-0.057461783,-0.13725717,-0.13269599,0.086074695,0.04976138,-0.0048892978,-0.056188088,0.00021146708,-0.02735916,-0.005419466,0.054058794,0.038583532,0.06877052,0.042953357,-0.1029858,0.0670487,0.08638639,-0.05317698,0.08240559,-0.14762339,0.21805745,0.009504061,-0.035357848,0.093891434,0.02269372,0.17349295,0.02070287,0.15220432,-0.06784425,0.101244085,0.015344978,-0.0030394536,0.032565296,0.08556804,0.046744537,-0.14297938,-0.0074476106,-0.07675906,0.034767415,0.069668666,0.18207747,-0.12312587,-0.13458808,-0.08906714,0.1695952,0.008240237,-0.0119512025,0.020533992,0.13466959,0.058010723,-0.0021280665,-0.1078237,0.08571473,-0.049142033,0.1913394,-0.050150096,0.09498916,0.19500344,-0.087493755,-0.023488758,0.010946472,0.05912838,0.009155687,0.10971647,0.07836074,-0.042899396,0.17418586,-0.08091603,0.09667173,0.019392485,0.056184832,0.13953452,-0.08397756,0.033600725,-0.074093446,-0.16391478,0.018215641,0.10767518,0.101822875,-0.07845745,-0.06157304,0.005067482,-0.19716151,0.066188924,0.15232387,0.19813375,-0.07547564,-0.05206512,-0.1689466,-0.022207886,0.12134618,-0.04391288,-0.17646836,0.04017443,0.005777957,0.04979783,0.11202409,0.011262505,-0.0048792665,0.060515136,0.022183456,-0.12938593,0.13732512,-0.007231466,-0.0056902636,0.11065103,0.002796795,-0.049888194,0.14567022,0.023746457,-0.01677729,-0.08567742,-0.04357404,-0.10822924,0.077489406,0.14736606,0.032679204,-0.16729854,0.0803253,-0.1120989,-0.12722474,0.079179704,0.17276938,0.001920559,0.06663329,-0.11851834,-0.07691004,-0.016730025,-0.068928085,-0.03059255,0.092460714,-0.01764478,0.046861757,0.06403895,0.13440044,-0.14455172,0.13356508,0.11907351,-0.0029195722,0.21736336,0.063317865,-0.066231884,-0.14406191,-0.0035101585,-0.06072841,0.006707034,-0.10199397,-0.07015876,0.0343716,0.12631465,0.004806458,0.06277501,-0.011543675,0.13942665,0.02093401,-0.15420114,-0.11537656,0.17927235,0.07889543,0.022982743,0.024887983,0.030303402,0.16081405,0.07379974,0.109413065,-0.07831764,0.07882998,-0.025492769,-0.06639604,0.021718303,-0.09966717,-0.14112186,0.14653414,0.09949171,0.10988147,-0.13758726,-0.01772358,0.10336695,-0.12247161,-0.023148645,0.14323159,0.016065322,0.047407024,-0.12433499,-0.13412909,-0.009879418,-0.14559132,-0.048843093,-0.05786029,-0.08238962,0.033512034,-0.07774469,0.11427406,-0.06415248,0.039084837,0.16623415,-0.17130081,-0.0033458753,0.050946794,-0.066276334,-0.14339219,0.073426925,0.15178347,0.14440729,-0.07595627,-0.035829354,0.16136463,-0.010053456,0.05750713,0.14894333,-0.04601389,0.22067413,0.11010984,0.040001445,0.032587428,0.16263245,-0.07452365,0.18601006,0.04624825,0.020653779,0.07713695,-0.10113886,-0.055479847,-0.09467401,0.11234189,0.0070878523,0.13387515,-0.016565697,0.10121615,0.015785396,-0.15614773,0.15440986,-0.12688679,-0.04054089,0.16135728,0.03155501,0.047440156,0.024555065,0.029752044,-0.16974731,-0.1610803,-0.050240073,0.040308658,-0.12787074,0.10695983,-0.19827326,0.14195572,0.07035395,0.062487394,-0.08480257,0.10356438,0.21553819,0.028041523,0.05699598,0.11739622,-0.11460387,0.05478788,-0.028959194,0.016365703,-0.1588719,-0.0417219,0.11821422,-0.07206077,0.037524734,-0.016408695,0.105590686,-0.031379446,0.12977594,0.10015005,-0.0019184813,-0.14491357,0.012418554,-0.021089185,-0.08146607,-0.07923482,-0.04407936,-0.109270275,-0.06409596,-0.07875916,0.13978551,-0.119751886,-0.14141335,-0.06432997,0.14612015},
{ 0.082644336,0.17354757,0.06649652,0.006686917,-0.056213155,0.005978224,-0.020207815,0.15703128,-0.08367816,0.16487268,0.056027643,-0.09978712,-0.045071535,0.033937354,-0.016532762,-0.044723846,0.005593463,-0.13172524,-0.14376147,0.02456564,-0.03751991,0.0051742303,-0.15750743,-0.10822341,0.1767051,0.121707045,0.117494784,0.079625085,0.11038002,0.10886397,-0.009654565,-0.031418327,-0.118824475,-0.15821862,0.049436357,-0.037476357,0.018676892,-0.1164583,0.054171868,-0.1498598,0.07119836,0.05691016,0.029765991,0.031202843,-0.09706327,-0.009410272,-0.047420137,-0.031403154,0.121739656,0.076486595,0.007124669,-0.13874818,-0.005750899,-0.028788429,0.091920756,-0.09396395,-0.072218746,0.010222921,0.13432603,-0.084558934,0.24358839,-0.0720542,0.10096465,-0.1576388,0.1032861,0.18198113,0.16252874,0.13390717,-0.16725466,-0.00023521825,-0.1646008,0.16415288,-0.08631053,0.16992599,0.027126933,-0.123552926,0.039975554,-0.07910027,0.15003003,0.05501259,-0.11336087,-0.003000186,0.1800804,0.022993425,0.06410651,0.07047703,0.08728007,0.010037415,-0.07378165,0.11238392,0.03420162,0.12004895,-0.07530228,-0.01196824,0.028480338,0.1719716,0.051247142,-0.040245157,0.14264247,-0.10640846,0.04222518,0.107193954,0.024848882,0.056189563,-0.0814843,-0.03181391,0.062000077,-0.045251492,0.0556225,-0.011686463,0.08527122,0.019447964,-0.18200856,0.0019117091,-0.15681483,0.12731834,0.10130409,0.0056102118,-0.07814745,-0.010091318,0.10987025,-0.0925368,0.13349982,0.1669017,0.03998976,0.03759325,-0.018193675,-0.13066643,-0.082827084,0.0028374624,0.10758891,-0.060485493,0.15843022,0.052056096,-0.08089045,0.13198616,-0.14535016,0.07741337,0.13318804,0.15843122,-0.036004912,0.044215944,-0.005488373,0.054855794,-0.028084053,-0.17321198,0.10363031,0.12744701,0.17020866,0.06809289,-0.1735599,-0.109545656,0.110724315,-0.04752893,0.076488204,0.016492046,0.032539807,-0.12328824,0.04578008,-0.10514709,0.10214357,0.15768692,-0.034935612,-0.13326018,-0.11451315,0.21258737,0.05894678,0.19625412,0.10121331,-0.09344065,0.07496683,-0.102768585,-0.15134752,0.0899293,0.022223061,0.0419023,0.124575794,0.049000468,0.07747207,-0.05427743,0.20405738,-0.07159675,0.12763707,0.08850283,0.18845223,0.08153393,-0.0391047,0.021855745,-0.1530237,0.015329108,0.14369774,-0.04715036,-0.029003061,0.039540607,-0.07188097,-0.013091302,0.075091496,0.054922003,-0.011957244,-0.02721511,0.15758877,0.044365674,-0.15201068,-0.05622291,0.011273636,0.1419527,0.14694509,-0.10405212,-0.021819923,0.11557824,0.06500783,0.015376718,-0.13611108,0.059456345,0.17170316,-0.043617193,0.15682997,0.0701923,-0.05561641,0.11278203,0.04217427,0.012824787,-0.01455757,-0.09210048,0.03140317,-0.006697207,0.07198435,-0.14730282,0.099376686,-0.15030555,0.1178568,-0.06595132,0.05466787,0.014647087,-0.057973877,0.04017312,0.08040981,0.032121178,0.027857076,-0.1568788,0.11701061,0.14020011,-0.16325396,0.01616906,0.1706032,0.020188203,0.023789478,0.016186344,-0.019357486,0.07685709,-0.040611412,-0.027689343,0.021776335,-0.12868148,0.048769392,-0.1772296,-0.06253568,0.10493964,0.06358491,-0.115737624,0.10695954,-0.09141257,0.0038990157,-0.050104536,-0.0030728616,0.09755254,0.009229495,-0.051884435,0.08273917,0.06560899,-0.106808476,-0.09844252,-0.12219294,-0.08706025,0.03700404,0.053867877,-0.10039979,0.21856634,0.10099072,-0.10062518,-0.007428939,0.08158256,-0.11799617,0.07975705,-0.066705935,-0.00699703,-0.05814999,-0.12709416,-0.08608909,-0.14000192,0.12897626,-0.0078061274,-0.048792332,0.11041082,0.013086009,-0.05552805,-0.039319944,-0.10351043,0.060925543,-0.11021164,-0.02083271,-0.103744626,0.14439087,-0.05418398,0.03514125,-0.026207902,0.01959438,0.14083044,0.16891171,-0.12280189,-0.092930265,0.15434313,0.057093397,-0.009359287,0.037407655,-0.053322695,-0.08990401,-0.031471018,0.11995789,-0.04898634,0.075616725,0.17864794,-0.0635964,-0.11928406,-0.028850917,-0.096529976,0.121682554,-0.0026791294,-0.09734411,0.03689886,-0.014721133,-0.037465744,0.16277717,-0.15106736,-0.014597951,-0.093732536,-0.041547354,0.082982406,0.001724258,0.025546586,-0.11162502,-0.16933458,-0.15116413,-0.0077814246,0.009268867,-0.007968741,0.084253095,0.033827126,0.015043285,0.08145035,0.040731084,-0.033076275,-0.054897714,0.0531635,0.07118888,0.059464876,-0.11127619,0.11743418,0.011642726,-0.048601452,-0.12626272,0.07270492,0.008785873,-0.046421494,0.12077539,0.17331775,-0.042547595,0.036313105,-0.025076697,0.16837382,-0.072415754,-0.08473737,-0.21467619,0.02815005,-0.003746312,0.10872258,-0.028181525,0.17862943,0.16332288,0.039596584,0.118819475,0.0073378086,0.035426546,0.12596571,-0.035067104,-0.024905033,-0.085684665,0.08662266,0.03699422,-0.08384106,0.017106516,0.08891003,-0.040979546,0.098903656,-0.04988176,0.07913391,0.051968556,-0.16549297,0.123967506,-0.07334165,-0.072640605,-0.043403283,0.03353489,0.056609258,0.061578225,-0.0241113,-0.13134398,0.018216437,0.034253146,0.025410399,0.028821755,0.04550189,0.09057514,-0.014478076,-0.0032074002,-0.17019333,0.15849267,0.017239038,0.03709877,0.16331948,0.00434002,-0.11894873,0.103121206,-0.032165837,0.018441502,0.06812654,0.038750585,0.10355238,0.06240759,0.042259734,-0.12832835,-0.15759097,0.001138951,0.13769865,0.03904135,-0.006622022,-0.056324776,-0.055054117,-0.16901436,-0.11350558,0.14189436,-0.061203472,-0.16994315,-0.013642051,0.035398927,0.046692457,-0.113743655,0.106351055,-0.005691106,-0.06592315,-0.06256961,0.11619417,0.18169183,0.035607316,0.04742405,0.094715714,0.16216114,-0.13503115,0.010992569,0.030635517,-0.14219637,0.039096013,0.018005813,0.004170495,-0.10836863,0.040052637,-0.13595587,-0.13290498,-0.07222004,-0.05501741,-0.09927953,-0.050276093,0.0015296462,0.07869123,0.05918262,0.116438076,-0.036285058,0.14034231,-0.015244833,-0.15350382,0.08340209,-0.15028775,0.109366514,-0.09411608,-0.022824882,0.032045808,-0.08321499,-0.15678471,-0.07781516,0.061037842,0.123711154,0.10646026,-0.0073335255,0.13379203,-0.031036757,0.1393748,-0.031564903,-0.007395063,0.06571997,0.12880534,0.0911746,0.025005706,-0.05180336,-0.079217404,-0.13776317,-0.061396945,-0.051981606,0.14746493,-0.0010259103,-0.1048043,0.025229694,0.10381577},
{ -0.11663082,-0.085106365,-0.05529444,-0.1477039,0.011240613,-0.0016339794,-0.026977692,0.03059586,-0.13994873,0.015043813,0.03378211,-0.011415961,0.054651782,0.1407311,0.14936668,-0.06547261,0.06855499,-0.007738216,-0.034550503,-0.012605022,-0.03389698,0.110973224,0.036320265,-0.05038284,-0.03273096,0.011264485,0.1381833,0.05175169,0.08193749,0.07280454,0.0105875945,0.16644238,0.04097952,-0.1775836,0.040166106,-0.16007638,-0.08949637,0.18849193,-0.071421735,-0.059083816,0.12632504,0.18450308,0.17376158,-0.0154712945,0.08260749,0.11956531,-0.12390969,0.008947266,0.05724479,0.109129146,0.07592954,0.036117002,0.10452449,-0.012712096,-0.021061737,0.09827688,0.090008475,0.16555488,0.1543487,0.03592828,0.0003479492,0.062237393,0.028610218,0.03359647,-0.15287143,0.04237511,0.09315931,-0.013960558,-0.11218422,0.16625813,-0.13991128,-0.075897634,0.040900398,0.19224678,0.034289308,-0.05610879,-0.03279874,-0.09077613,-0.12903097,-0.019709531,0.11039294,-0.15374966,-0.010912075,-0.0011913858,-0.14518005,0.011581322,-0.07191045,-0.11549387,0.20982076,0.15174595,0.18557392,0.012355152,-0.05343316,0.05721499,0.011366762,0.007479833,-0.044763364,0.062398303,-0.08005578,-0.074729666,0.13194269,-0.06879466,0.02841833,0.118394956,-0.009312557,-0.062786266,-0.037056554,0.054027203,-0.1952231,-0.1169563,0.09611749,-0.02984989,0.14363883,-0.12571768,0.025812445,0.14180534,0.15114479,-0.08452552,-0.013022219,-0.17626476,0.043877948,0.21618876,-0.10069403,-0.12536544,-0.055913065,0.043366462,-0.071309455,-0.07390885,-0.12745343,0.0973619,0.115277484,-0.03551573,0.19203472,0.07473411,0.06934967,0.15577853,0.057349145,0.036675144,0.03325429,-0.062243193,0.031161483,-0.06879536,0.10195443,-0.015803328,-0.04737655,-0.015600368,-0.07161039,0.029537547,-0.02011741,-0.11510311,0.0705069,-0.037974484,-0.08697872,0.07156579,0.058478218,-0.015570871,0.04455313,-0.0516458,0.14031462,-0.0020043286,-0.050645836,-0.16531225,-0.038162794,-0.057119783,-0.018603493,-0.050846584,-0.012333369,-0.000106000996,0.02494428,0.118823566,-0.009745426,-0.1196064,-0.16263853,-0.21118712,-0.11412652,0.029109081,-0.04563785,0.10881916,-0.060707778,0.00401213,0.17723197,0.07716542,0.114686646,-0.047149707,-0.005486472,0.122342125,0.05885521,-0.138308,0.034095977,-0.121535234,0.15758163,0.13330394,-0.07777229,0.026444776,-0.12735812,-0.080971874,0.034318794,-0.05963537,0.10457202,0.019439217,-0.05912376,-0.054636873,0.08157968,0.17781004,0.06114233,0.058758214,-0.07042838,-0.14220686,-0.055831436,-0.12827925,-0.07678745,0.08010241,0.060611777,0.08288575,-0.051712956,-0.002779982,0.20618013,0.16455863,-0.004571984,0.0045558806,-0.042048007,0.046221353,-0.050048903,0.015392313,0.08612795,0.1796291,0.206246,0.07431706,-0.088959284,0.047061186,-0.035260815,0.11680112,0.17307962,0.031409405,-0.07236528,0.06992036,0.06821435,0.0745949,0.07184351,0.02405247,0.12721336,0.13644326,0.07764709,0.0023948632,-0.027016828,0.16562124,0.07414573,-0.08502416,0.04075204,-0.1238441,-0.05516492,-0.1109091,-0.006033749,-0.087883376,0.06647441,-0.06568364,0.04821024,-0.14120635,-0.042050328,0.12321317,0.1370375,-0.044093568,-0.111221686,0.010475093,-0.054956406,-0.09521776,0.050411943,-0.12629615,-0.047828633,-0.014762671,0.21646516,0.16375038,0.12679446,0.00341016,0.0730053,-0.08807957,-0.12904239,0.0507993,0.06206051,-0.07414071,0.018558541,-0.01983819,0.06678777,0.038250934,-0.10121611,0.028980609,-0.027447144,0.1097956,0.029091083,-0.14817737,0.120689794,-0.053180516,-0.13457185,-0.1346166,0.03887808,0.14739388,0.094142124,-0.08587411,-0.08978441,0.045187432,0.12641594,-0.06538878,0.0032644218,-0.06900741,0.017404694,0.08942403,0.06374614,-0.012793785,0.11484862,0.0917959,0.05023296,-0.10518066,-0.11851194,0.12034341,-0.16839112,-0.13890971,-0.104803324,0.084741846,-0.11842295,0.07827459,0.057029426,-0.14512531,-0.0573426,0.07125835,-0.18806204,-0.043718025,-0.114491165,-0.03799444,-0.0055583213,0.042843208,-0.14547084,0.08274113,0.04202187,-0.03880847,0.10058621,0.17810696,-0.103818305,0.046136208,0.025953738,0.101792365,0.01497865,-0.1137261,0.026528483,0.11762105,0.08747725,0.06762755,-0.006983464,-0.13383368,-0.060393516,0.03278097,-0.009114781,-0.038729496,-0.06226543,0.014630823,-0.069738515,0.05163181,-0.044469282,0.15915792,0.042816073,-0.10419967,0.096098244,-0.055730056,-0.13624616,-0.024927283,-0.15967044,-0.12310571,-0.028157407,0.08887107,-0.10775022,0.18130243,-0.02571271,-0.10398378,-0.0018630465,-0.07491615,0.032100745,-0.0051802755,-0.015100507,0.21539572,-0.17788474,-0.0534609,-0.15535043,-0.026384227,0.00825283,0.116291076,0.14941227,0.051479865,0.1653797,0.0010346494,0.008793288,0.015622711,0.0626562,-0.012132524,0.20471218,-0.10362731,-0.03727449,-0.1024214,0.037119053,0.012048205,-0.13758935,0.0662655,-0.070564546,-0.08974837,-0.07953455,0.0004240016,-0.098716445,0.15863346,-0.052230056,-0.050781183,-0.17699236,0.15331237,0.08785997,0.19131412,0.04374313,0.089685455,0.12259919,-0.09518036,-0.07265648,-0.16800964,-0.11191857,0.08059262,0.023798872,-0.029439094,0.06147337,-0.0006356423,-0.036026523,-0.009652554,0.17617366,-0.04666681,-0.061887924,-0.06849934,-0.082558386,0.12518553,-0.12807775,0.2053234,0.00087852776,0.050840065,0.057331637,0.024586704,0.08002655,0.15332504,-0.11508476,-0.15844946,-0.01886173,-0.016701462,-0.11222403,-0.08534664,0.05446978,0.09990045,-0.034563772,0.0059977835,-0.006888124,-0.055939686,-0.05508726,0.020963874,-0.0010963168,-0.10851592,0.06134815,0.04273383,0.079200126,-0.15767643,0.15833485,0.13365771,-0.003740381,-0.10331568,-0.08585856,-0.16979428,0.15827191,0.019379735,0.16286339,0.034540806,-0.094131485,0.012477788,0.10560211,0.20478047,-0.060690142,-0.031361546,0.11476679,0.1506582,0.005933064,0.040180434,0.0035926758,0.009935571,0.14932048,-0.050852466,-0.00350034,-0.084195636,0.074213475,0.1459789,-0.030626364,0.12065522,-0.08037534,0.041314885,-0.08629592,0.021239549,-0.10690632,-0.0048553944,-0.07445382,0.1139644,-0.03155812,0.07817245,-0.000105351115,-0.007322971,-0.10726812,-0.16226561,0.07010036,0.04102963,0.008277666,0.1491835,0.04448999,-0.014062478,-0.03628091,-0.024865706},
{ -0.077259034,0.112164676,-0.12008175,0.16416322,0.08116467,-0.17982906,0.08202821,0.04114266,-0.07981994,0.13946597,0.14952311,0.07978672,-0.06274608,-0.06342261,-0.028151676,0.039062068,0.010543008,-0.09130655,-0.16496041,0.068626516,-0.034608558,-0.005957874,-0.09871776,-0.0378764,-0.09628748,0.07871406,-0.15158236,0.012671681,0.06596602,0.0003341263,0.08331069,-0.18252775,-0.06915466,-0.053270455,-0.056993145,0.20877379,-0.087373495,-0.0011585256,-0.047344953,0.16481848,-0.15855093,-0.11738225,-0.037629858,-0.03619626,-0.026284674,0.07546535,-0.15033351,0.052525546,0.05272128,-0.036555935,0.14484815,0.002484898,0.08322658,0.01656053,0.038897168,0.2007255,0.07819771,-0.14396866,-0.11216048,0.060753673,0.15150903,0.074599504,0.09143033,-0.14974281,0.0015523568,-0.04417886,0.15708202,-0.01948077,-0.09020468,0.047673456,0.08711461,-0.07094334,0.028775288,-0.0949484,0.035208013,-0.02832818,0.07574174,0.11849079,0.02713277,0.085990846,-0.055435866,-0.03759272,-0.06053331,0.10480683,0.037589107,-0.12481429,0.09991788,0.008879604,-0.051914867,-0.14226553,-0.13536575,-0.050716456,-0.0181912,0.09161666,0.058537234,-0.23122078,0.00478235,-0.060694087,0.03768551,-0.084145345,-0.03351305,-0.05712371,-0.056849495,0.08739757,0.00013808582,-0.15613517,-0.05883703,0.0075125243,-0.027524225,0.032443933,0.04452554,0.09286206,0.09233579,-0.16829607,-0.15790944,-0.1818159,0.04314072,0.094134115,0.110228,0.027059374,0.050310567,-0.12236946,0.028842166,-0.09099559,0.09004221,0.13177282,0.04611563,0.07000411,0.04050181,0.042768564,0.037265297,-0.1086032,0.07977974,0.18209808,-0.025562624,0.09528492,-0.003944101,-0.05886515,0.13760525,-0.03190429,0.08913204,-0.09856091,0.06451199,0.041360993,0.06716598,0.0065214257,-0.037857927,-0.009270209,-0.04592612,0.005075898,-0.118048474,-0.13374618,-0.031535517,0.018811762,-0.118905105,-0.17434613,-0.13631831,-0.08157484,0.20206736,-0.057627883,-0.07687171,0.05753322,0.060765125,0.1963993,0.087816924,0.057691213,0.097051665,0.107619666,0.06588361,-0.063521996,-0.0036105637,0.13314794,0.024229161,0.21614859,-0.13048166,0.082355924,-0.016533544,-0.037228994,0.06896054,-0.009559572,-0.15317336,-0.09720683,0.1758284,0.071770586,-0.18282802,-0.17461172,-0.047213707,0.02539909,-0.20181476,-0.12668893,-0.12958403,-0.014765206,-0.0142339775,0.0027354618,-0.097548984,-0.026271408,-0.06917177,0.064855516,-0.00429794,0.11391466,0.080581255,-0.07981573,0.11325176,-0.18763012,5.379298e-05,0.013513455,0.17958781,0.08359627,-0.15092652,-0.07639169,-0.07052471,0.20575957,-0.12812786,0.11421322,0.1968388,-0.12856008,-0.0132623995,0.087482005,-0.012546547,0.09011914,0.05691808,0.048005067,-0.1718359,-0.042064905,-0.12823163,0.04102205,0.02900148,-0.065072514,0.04509794,-0.08187537,-0.017627085,0.07861956,0.117470056,0.12881051,0.18043812,-0.037392225,0.13519883,-0.14785723,0.046555407,0.105122425,-0.009931118,0.0081990445,0.050263897,0.06344776,-0.13326405,0.10089738,0.04371822,-0.13021189,0.007587661,-0.109969825,0.04942398,-0.1045751,-0.032465514,0.1046023,-0.007820655,0.10333535,-0.2079419,-0.06582751,-0.009388718,0.06407894,-0.004272294,0.0373575,0.0698121,0.15143974,0.0670954,0.107159,-0.054313313,0.15765129,-0.04212226,-0.09087981,0.12922014,0.015375533,0.056559227,-0.11206764,-0.075545825,0.09698621,-0.17379387,0.10591842,-0.0048351837,-0.02517193,0.09498374,0.093837574,-0.07416204,0.06117517,-0.025945686,0.029409174,-0.18434398,0.05549099,0.12611075,0.08938701,-0.026687825,-0.013155859,-0.025278663,-0.061397836,0.05193371,0.14190993,-0.003374796,-0.15365075,-0.022831654,-0.050825566,-0.19396634,0.04886927,-0.111651905,0.15837541,0.04187841,0.077711165,0.031084392,-0.015097705,0.054661207,-0.0464202,0.07649661,0.0751917,-0.1131211,0.049503196,-0.129634,0.04469765,0.12648116,-0.00013803277,0.020109039,0.10012105,0.14868878,0.059373938,0.16068937,0.110130854,0.003745582,-0.07313841,-0.022994054,0.023787882,-0.04897441,0.0028736375,0.04802102,-0.028954513,-0.010587389,-0.027679833,-0.072594434,0.09848727,-0.04811387,0.085761875,-0.06780976,0.083085135,0.21933335,-0.009735596,0.038020942,0.15100068,-0.13308801,0.120949246,0.09203723,0.110958174,0.05746386,0.07720436,-0.004442845,0.05442114,0.18082662,-0.027032152,0.004565565,-0.055386648,0.0026654408,0.12358444,0.016593877,-0.21230915,0.018716192,-0.0796751,0.057809792,0.12435159,0.11264959,0.12696935,-0.07085441,0.0033782257,-0.017769173,0.03851379,-0.11116373,-0.010814884,-0.005733546,-0.009847269,0.12085844,0.052355275,-0.098875,0.0039381217,0.028514892,0.024944147,0.056913354,0.09408652,-0.13242678,-0.004141408,-0.09463316,0.09941252,-0.026418569,-0.040657192,0.056901384,-0.053034086,0.0009191095,0.1074803,0.16700058,-0.06486339,0.03525494,-0.06975195,-0.05879877,-0.14536586,-0.16623288,-0.08726137,0.15209806,0.123416744,0.11101582,0.06780865,-0.057496604,0.020260774,-0.11226333,0.031866796,0.09075457,-0.057975348,-0.047784653,0.0026956107,0.13947257,0.0034489548,0.12958573,0.07176945,0.099851035,-0.098931596,0.09891321,-0.033582363,-0.028040107,-0.07106287,0.016828002,-0.016033247,-0.013946474,0.13676964,-0.058995638,-0.13056242,0.22112824,0.1542567,-0.015962526,0.17177808,-0.087137885,0.13189813,-0.031537995,-0.063866705,0.064335465,0.062318947,-0.025198746,0.1315268,0.021210276,0.017661607,-0.15429612,-0.14009728,-0.022637803,-0.151127,0.06286972,0.0063411933,0.11200027,-0.026152013,0.09168683,0.045485586,-0.057815477,0.15409255,0.016658625,0.051494,-0.037217118,-0.18755554,-0.012290835,0.11779517,-0.11084181,0.109064735,0.19615121,0.1698714,0.03257939,-0.018386679,0.09232663,-0.061552335,0.05027676,0.06210443,0.085011415,-0.08315195,-0.09265217,-0.008031737,0.08778889,-0.051541097,-0.057369772,0.15120581,0.099316195,-0.14630961,-0.11456638,-0.056965575,-0.11718782,0.050752673,0.0028750957,-0.16373228,0.11781427,-0.12250916,0.04979995,-0.08447577,-0.0106196,0.10533023,-0.031221364,0.15292881,0.13379608,0.026124308,-0.1237122,0.12813513,0.15916882,-0.031131856,-0.13387063,-0.032152366,0.10071981,0.12677604,0.013251083,-0.0090974,0.1642971,0.14729278,0.17157605,-0.09818202,-0.09833515,0.071148664},
{ 0.12717007,0.15789649,0.122983366,0.16765857,0.043885715,0.08748854,0.02485234,-0.0011405764,0.05350327,0.0006483733,-0.13501437,-0.14782088,0.18271118,0.04107444,0.033167265,-0.07379015,-0.08518617,0.03149156,0.08216952,0.018705726,-0.15146197,0.061921407,-0.13402113,-0.19640966,0.032645237,-0.13053562,0.0034224628,-0.12465033,0.03595196,-0.052694257,0.12582621,-0.046358664,-0.037304107,-0.03153455,-0.16734709,0.043337096,0.090537734,-0.17376806,0.044577472,0.16014887,-0.077100754,-0.16353439,-0.06317737,-0.059030667,0.14785597,-0.14555548,-0.06890547,-0.047817342,-0.15233397,-0.031738475,0.15238841,0.022410862,0.06417639,0.11328363,-0.07580598,-0.036943775,-0.059154335,0.007500549,-0.0261636,0.11417427,-0.0146991,0.11803157,-0.023694111,-0.21654207,-0.09637853,-0.07755204,-0.010982187,0.07742011,-0.015576342,-0.22118491,-0.041418985,0.120334685,0.06870265,0.039276935,0.1967767,0.07936411,0.041658606,0.051866673,0.0026212737,0.04091411,0.18731157,-0.079882234,-0.0019613712,0.09829675,-0.14017993,0.026273271,0.061963964,-0.070587,0.0658298,0.036373343,-0.085455194,-0.011947127,0.1457623,-0.025853258,-0.012872449,-0.09391978,-0.0350648,-0.032933265,0.13970372,-0.04620475,-0.00094147446,-0.031029666,0.05669196,-0.19438833,0.05264793,0.012961068,-0.03333027,-0.07806694,0.088199295,-0.02937687,0.023837717,0.0734226,-0.023887934,0.05802469,0.058672693,0.14098907,-0.0937658,-0.09716347,0.030248009,0.14368163,-0.0535043,-0.058361337,0.0023945337,-0.08404937,0.053220022,-0.01468052,0.084685385,-0.006670816,0.09672004,-0.0387974,-0.13515817,0.10598229,-0.0014041178,0.010322406,-0.055841956,-0.07338294,-0.1708685,-0.030359522,-0.17924075,0.05623024,-0.16590135,-0.010458701,-0.010090511,-0.031626295,-0.057944573,-0.14566861,-0.023358665,-0.07149945,0.010235644,-0.1396136,-0.10419287,0.043866985,0.034391638,-0.013352014,0.079349525,0.08135568,0.03745416,0.023730658,-0.09153542,0.072535306,0.10623614,0.020042649,-0.15835233,-0.07000944,-0.03790391,0.085736044,0.11742671,-0.15336232,-0.068844736,-0.19900422,0.0059564137,0.09674922,-0.14909306,-0.025256345,0.045575075,-0.033375513,-0.0017147659,0.022088211,-0.09881178,-0.10455943,-0.14105217,-0.04310644,0.09837385,-0.043549024,0.04708197,-0.116774544,-0.037097063,0.05912298,-0.06880113,-0.02433172,-0.042185035,0.14466235,0.07820512,0.06801794,0.0023012338,-0.14126551,0.1415226,0.027130831,-0.16945747,-0.11994626,-0.041340414,0.054282613,0.17534633,-0.05997086,-0.028376622,0.14502767,0.09389284,-0.035080966,0.08177383,-0.023654783,0.01606377,0.19057147,0.094127186,0.070961766,0.038749892,0.014911013,0.047773886,0.04695341,0.06261808,-0.15750246,0.078021094,0.016409459,-0.113932766,-0.053849943,-0.0044968426,-0.057536535,-0.12646265,-0.09737629,0.06195614,-0.01834232,-0.068557,-0.03319031,-0.16321106,-0.02599327,0.10177022,0.046789426,0.05509291,0.18833174,-0.10598599,0.008569593,0.035132635,0.07986698,-0.08986341,0.087349184,0.03767558,-0.10270806,-0.12362725,0.1271764,-0.06771068,0.20698252,0.17504333,-0.02337403,0.14580876,0.13546297,0.022004446,0.1343045,0.05838569,-0.023627162,-0.12723006,0.07523773,-0.10249367,-0.021440296,0.08561179,-0.03712244,-0.00220144,0.061656017,-0.093307845,0.09104034,-0.01974464,-0.09821507,-0.046649244,-0.20366848,-0.1209187,0.18006381,-0.098143145,-0.038831852,0.022028206,-0.036989924,-0.062336024,-0.023592504,0.044435773,-0.19845615,-0.0455313,-0.07805419,-0.021804178,0.1421082,0.06002918,0.07205637,0.01867325,-0.10035445,-0.14695103,-0.0570853,-0.15766391,0.1906469,-0.069023125,0.04347073,-0.08354835,0.11815106,-0.041593615,0.18586057,-0.0028463902,0.1742929,0.14748986,0.12198523,0.016266732,-0.121039174,0.057669595,-0.06807963,0.12487154,-0.08625298,-0.13447805,0.17336197,-0.07626205,0.0240717,-0.002722839,-0.18801092,-0.13104507,0.103059374,-0.059556104,0.16350304,-0.023447553,0.15120517,-0.038774643,0.032568652,0.124216795,-0.02326236,-0.030034132,0.0005497602,-0.11721761,0.15712479,-0.0070403037,0.09385429,0.16681312,-0.061759386,0.011292642,0.13188839,0.14023666,-0.11781942,0.14711864,0.034817114,0.07472322,0.08099315,-0.13767798,-0.042052463,0.06612239,0.03306844,-0.021868367,-0.07718476,-0.1782243,-0.17153941,0.009903377,0.06252359,0.01985949,-0.0082245255,-0.009314839,0.08180972,-0.025197417,0.14367726,-0.040460933,0.008005203,-0.002934497,-0.21323323,0.10223935,0.1489167,0.17618479,0.086252,0.0209191,-0.08304984,0.057553504,-0.03890746,-0.07069633,0.11585551,-0.06949252,-0.1298676,-0.058151,0.02059646,-0.070356585,-0.02365285,-0.051873453,0.103418514,0.03346852,0.052069772,0.13694593,0.13109808,-0.050213914,0.051512145,0.037271116,0.02061731,-0.13318054,-0.050572783,0.07588352,-0.10624358,-0.049556572,0.026049955,0.10952105,0.04555765,-0.049725063,-0.018287573,0.1990037,-0.0022601094,0.08620312,-0.07440519,-0.018858267,-0.033799347,0.04159161,0.010238762,-0.04270224,-0.054844774,0.0014392412,-0.089305714,-0.14820774,-0.04988456,-0.051559005,0.15145485,0.017497618,0.05165478,0.120302685,-0.07071816,0.069536634,0.028692773,0.14839199,-0.08901473,-0.074215025,-0.21426019,0.0014279408,-0.05805781,-0.06683634,-0.09206034,0.0068991305,0.05399452,0.18188523,0.028708193,-0.02697259,0.0007509375,0.121201366,-0.016185375,0.08161782,-0.032349955,0.050486624,-0.0383722,0.040666703,0.18298489,-0.025532609,-0.07318276,0.046288617,-0.16157958,0.19134195,-0.033881977,0.024585024,0.19531155,-0.054211874,0.050307937,0.027368473,-0.072239906,-0.03169647,0.14542428,-0.12933162,0.049533617,-0.18446691,-0.14980133,0.012217172,-0.0292548,0.1665412,-0.04185965,0.12920901,0.053057,-0.028737195,0.12094335,-0.1153988,-0.017397577,-0.035711236,0.09628435,0.052183356,0.17972374,-0.115620926,-0.11103721,0.014928338,-0.102744035,-0.052983433,0.06625721,-0.11969694,-0.09306244,-0.02023558,0.07053352,-0.13891019,-0.04526873,-0.1148349,0.15155599,0.14795278,-0.039725125,-0.07646509,-0.032749705,-0.18864976,0.0531038,0.04290821,0.015082476,-0.15466346,0.027391715,-0.19455102,-0.043579098,0.075717844,0.012369171,0.06369813,0.0746864,0.1567744,-0.02084891,0.12407448,-0.032048322,-0.016227787,0.08490985,-0.060883217,0.13489835},
{ -0.12051253,-0.09808814,0.11450828,-0.15321723,0.092787795,0.008458339,0.004751031,0.14857988,0.036172763,-0.060617622,-0.042115062,-0.022535516,-0.07001556,0.042932376,0.06756733,-0.104403004,-0.17902283,-0.048885126,0.0055769035,0.1935074,-0.018132135,0.0031172067,-0.08092494,-0.05529769,0.038980056,0.06031019,-0.12701632,0.079436935,0.13557504,-0.11183514,-0.075136185,-0.005053013,0.022969497,0.07116845,0.05942872,-0.10743962,-0.0662552,-0.067157626,0.17106526,-0.07471934,-0.15882966,-0.08082384,0.017512804,0.20039882,0.08219393,0.08102067,-0.06956501,0.03687116,-0.14825106,-0.03275439,-0.05223263,-0.03428796,-0.033904113,0.074014954,0.076203704,-0.08202476,-0.07367463,0.17477733,-0.010389311,0.047014896,-0.11896974,-0.009644037,-0.043081343,0.13723855,0.13186084,0.16782583,-0.048326302,0.18069027,0.09389668,0.124054864,-0.027962415,-0.17411043,-0.051451653,0.059826817,0.04183374,0.1667273,-0.03415549,0.03626647,0.12985653,0.08364995,-0.054908272,-0.027807953,0.03992996,0.054496355,-0.066363476,-0.008417407,-0.030963775,-0.11967822,0.19060843,-0.028811567,0.121126726,0.111695796,-0.18741931,0.05689117,0.06332993,-0.048372183,-0.027412696,0.20280117,-0.041935492,-0.14879784,-0.10927296,0.08632812,-0.08550757,0.10647378,-0.09796503,-0.00073181686,0.13431717,0.045502488,-0.02001264,0.1918823,0.21151362,0.20766507,-0.03424939,0.14302337,0.12855093,-0.019053731,0.061079353,0.04524204,0.0107797785,0.02833195,-0.17106305,-0.07887212,-0.030209266,-0.14973967,0.0015635372,-0.046353575,0.012759555,0.0015578623,-0.10896755,0.038779866,0.08216646,-0.05296535,-0.03755643,-0.11144019,0.099893495,-0.06767504,0.0731366,0.016777698,-0.102042764,-0.04434783,0.1551559,0.031446762,0.01681697,0.11083279,0.121067144,-0.012442299,-0.038993414,-0.04362017,0.00076765835,0.051155664,-0.0895648,-0.045645297,-0.012115417,0.0017875612,-0.16695961,-0.0851231,0.048110723,-0.04066148,0.033162605,0.0053942557,0.061740648,0.084781446,-0.07363463,0.11812877,-0.011569135,0.043985035,-0.027207939,0.13073309,0.025612552,-0.04255771,0.007614105,-0.022452539,-0.020114617,0.13547105,-0.16245013,0.18199016,0.07304842,0.18868537,0.01785235,0.024239533,0.12278222,0.11422006,-0.09390936,0.035385035,0.0014385349,-0.03900543,0.04981185,0.037646435,0.004491856,0.119933054,0.0138781825,0.0035422638,-0.09001827,0.028506638,-0.108197175,-0.0185526,-0.021444554,0.07892886,-0.08959675,-0.0738229,0.0873173,0.08155922,-0.17159498,-0.0033457,-0.037666485,0.022431986,0.051401302,0.016703878,0.051919546,-0.023932697,-0.13169982,0.014098972,0.064399995,0.10015067,0.17704998,-0.1211681,-0.07958873,0.0048335055,-0.0511696,-0.10951091,0.08702058,-0.036132023,0.059694186,0.029628119,0.20713854,0.014575842,-0.1674682,0.16567199,0.028626435,0.039867137,0.14821365,0.09831308,-0.1044912,0.062779486,0.087880954,0.010540791,0.03990258,-0.074874096,-0.1511569,0.05248564,-0.08650304,-0.0109856315,-0.115496546,0.1844917,0.10709925,-0.016196698,-0.1392576,0.05653231,0.08495162,-0.010593534,0.028155053,-0.09716394,-0.05309305,-0.10791557,0.01847517,-0.009334776,-0.045834597,0.02005169,0.027030118,0.051245183,0.009901187,-0.06229233,-0.019493919,0.100971974,0.015436645,0.06268123,0.011866839,-0.04547966,-0.13824242,-0.05013793,0.116032,-0.056216326,0.19051851,-0.060184374,0.0028834676,0.04743968,0.09267832,-0.050189286,-0.030790843,0.021765145,-0.059970196,-0.032408487,-0.054479055,-0.018278928,0.02018158,-0.09211958,0.17028366,0.09700657,-0.10295673,0.12166249,-0.17184886,0.0014986745,0.05003492,-0.0728461,-0.017460655,0.10579077,-0.030277614,0.0064863604,0.004679916,0.035947725,0.022801023,-0.033370186,-0.041893493,0.01517428,0.07167652,-0.046262324,0.09016801,0.12932342,0.20310812,0.13424438,0.031501435,-0.05693148,-0.0346175,0.20845962,-0.03412693,0.12930067,-0.06579777,0.15314889,-0.011303496,-0.1640653,0.049839467,-0.07432549,-0.07167411,0.13502677,-0.028793758,0.04241389,0.015461423,-0.08527069,-0.026789958,-0.117519274,-0.04767105,0.016782077,0.016360203,-0.059851434,0.004278067,0.015067585,-0.062158782,0.06086227,-0.068485335,-0.020709941,0.007974393,0.09358796,0.024159638,-0.13140628,-0.15020609,-0.06583198,-0.105979554,-0.085625544,-0.1998196,-0.0003662924,-0.08637583,0.07914959,-0.005237349,-0.003912629,-0.11030944,-0.009245417,-0.060012326,0.004804676,0.045421958,0.10220487,-0.08655267,0.12961125,-0.02636865,-0.11551805,0.046408456,-0.11123854,-0.121344395,-0.06889915,0.12651582,-0.10963365,0.03826092,-0.14339614,-0.021543663,0.015123706,-0.008782934,-0.19399549,0.062938295,0.06469134,0.065084346,0.033118546,0.09670449,0.08602252,0.0190226,0.012752297,0.10624506,-0.020121396,0.0809831,-0.11100096,-0.11676061,0.07761976,-0.04377004,0.02030008,-0.01734613,0.017027788,-0.06804959,-0.064637385,-0.064160556,0.023229325,-0.11838964,-0.013894304,0.1941795,-0.05806534,0.026307222,0.16075315,0.06395944,-0.011206937,-0.07398151,0.002730902,0.09910271,-0.018517416,-0.026560823,-0.08785957,-0.064430684,-0.051039457,0.17790914,0.15880273,-0.014105127,0.018883672,0.0038477606,0.06944074,-0.016508225,-0.019544391,0.051147196,0.054182246,0.02326023,-0.0563921,-0.061194398,0.038033575,-0.015190658,0.038618285,0.03653338,0.040574223,-0.07466916,0.03506377,0.08177955,-0.16159107,-0.073039636,-0.0464404,-0.1434044,-0.079588264,-0.018824158,-0.1508063,-0.03582218,0.12135126,0.09258487,0.17170581,-0.048363753,-0.08948868,0.023745146,0.091357134,0.0117695015,-0.13264444,0.12273391,-0.13712025,-0.078034125,-0.030768095,-0.028165614,0.11252128,0.04128959,-0.0019180197,-0.023101304,0.1524567,0.048183154,-0.011764435,0.0996829,-0.13688456,0.010854223,-0.010013001,-0.12879363,0.15649438,-0.076182194,-0.017382981,0.084143594,0.02671645,0.03684526,0.045770735,0.13046393,-0.15728052,-0.015544283,-0.18168476,-0.07757973,0.12800583,0.0022106122,0.03583012,0.052923955,-0.046879914,-0.020195061,0.038301855,-0.04026337,-0.16260646,0.005113171,-0.1145409,0.05730463,-0.1153382,0.18143521,-0.07789453,-0.07811055,-0.008645989,0.03272296,0.06879197,0.001357947,0.20052446,0.20447926,-0.05136966,0.13309945,-0.037089746,-0.14263786,0.013347022,0.1553122,-0.13562506,-0.05916144,-0.02877989},
{ 0.04686701,0.06839453,0.017197445,-0.051099423,-0.06218604,-0.04729792,0.0812042,-0.1289311,0.09520322,0.15036319,0.045032144,-0.105973706,0.04345344,-0.012408307,0.032364298,0.200172,-0.058000367,0.17801273,0.003195018,0.012449335,-0.14812115,0.011020589,0.11232426,-0.098884456,-0.059819303,-0.16471669,-0.18589567,0.010440222,0.09881598,0.10071512,0.03454537,-0.011194656,-0.09978079,0.05298898,-0.06461727,-0.038327713,-0.048456617,0.004735193,0.0069653597,0.037856907,0.116876915,0.15777108,-0.10762663,0.023545645,0.15679927,0.019199932,0.15178366,-0.15982407,-0.122414924,0.1398694,0.0013556101,-0.12233259,0.0024238278,0.09572219,0.011195238,0.18686938,0.08320179,0.20026106,-0.17200099,-0.10220518,-0.003373997,0.022321204,0.027542723,-0.0944726,0.08111332,0.037146326,0.12962164,-0.015996728,-0.104551695,-0.0012975732,0.010260028,0.03788558,0.09143704,-0.08101712,-0.030927602,0.15949279,0.106487095,0.13556927,-0.0871468,0.12461309,-0.10931023,-0.17407887,0.074233055,-0.13839301,0.07762296,0.10428564,-0.028794838,-0.09322519,0.03974691,0.0058562537,-0.13332084,0.11837678,0.077371754,0.011638038,-0.007018685,0.13252667,0.06426649,-0.11090689,-0.1076231,0.1402123,0.15310968,0.14854828,-0.020569196,-0.04143536,-0.014869098,0.031216728,-0.056953695,-0.061337724,-0.0019607265,-0.0021731523,-0.18210368,0.04677275,0.15064044,0.085256994,-0.014247385,-0.08838361,0.1593623,0.074063025,-0.09404862,0.012088482,-0.08037416,0.09547543,0.02684451,-0.028967006,-0.12587743,-0.118835874,0.038985103,0.094530106,-0.11680449,-0.10922977,0.07710871,0.012449293,0.110742025,-0.061232906,-0.023510342,0.11955078,-0.03609924,0.11696833,-0.020432102,-0.04767053,-0.02106294,0.0263609,0.006771284,-0.15835771,-0.11445929,-0.16332206,0.112054445,0.02098093,-0.18581977,0.028184876,-0.08385748,-0.13662836,0.19270632,0.025926942,0.15464783,0.14908743,-0.07349033,-0.09705968,-0.06068155,0.009533537,0.023664875,-0.014327957,0.068115234,-0.01213835,0.07868824,-0.08028442,-0.015470192,0.11888261,0.10473462,0.08659561,0.0011944147,-0.11715049,0.17109026,-0.049340356,-0.11818405,0.0019915912,0.067752086,-0.034350988,-0.09218905,-0.053348925,-0.10529012,-0.17768307,-0.046512075,0.08258763,-0.0032455307,-0.0050213477,-0.04139365,-0.019150013,-0.04920446,-0.037725233,0.08114783,0.026669493,-0.031538073,-0.058303464,-0.03906564,0.17869693,0.03783903,0.07738772,-0.21416311,0.12669627,-0.0783405,-0.06533986,0.10646698,0.025521547,0.044877246,0.11960422,-0.07138397,0.08429293,0.11371772,-0.026583502,-0.107553996,0.13065794,-0.090291165,0.13206917,0.048357338,0.024769751,-0.023512285,-0.031110236,0.11329584,-0.14425756,-0.03240188,-0.006724695,-0.047144655,0.09817879,-0.03457078,-0.05208843,0.06064656,0.0007478439,0.084603064,0.033428133,0.11128137,0.018564638,-0.060224295,0.13042238,-0.032111924,0.05377186,-0.114574544,-0.017103001,0.14764726,-0.15725619,0.16567029,0.0912975,-0.19358234,0.050346877,-0.013462486,0.10555148,-0.06366095,0.024823591,0.044588458,0.13417436,-0.1041808,-0.067656,0.008314528,-0.05597773,0.00935975,-0.17041798,0.09290049,0.0035936583,0.01794561,0.041419398,0.031128662,0.002825239,-0.062444355,-0.0738002,-0.071769334,0.049306847,-0.019756975,0.049089376,-0.028907575,-0.07845242,0.0657004,-0.13772826,0.07885742,0.009653389,-0.0612258,0.06334073,0.074098505,0.03789205,-0.051407035,-0.0014445266,-0.06349304,-0.02320298,-0.089593954,-0.003976429,-0.030153649,-0.024446571,-0.005877185,0.071927056,0.107643,-0.007318091,-0.10248948,-0.038233154,0.03246397,0.07131456,-0.07441548,0.08182563,-0.017340045,0.086560056,-0.06174977,0.01941551,0.022521812,-0.11363041,-0.004355748,0.004069502,0.17398193,-0.057813536,-0.022921838,-0.024376262,-0.14301682,-0.017623268,-0.0017695805,-0.09114361,0.07044553,-0.18306965,0.084710605,0.028977882,0.071047604,-0.11384284,0.035222962,0.030302066,-0.16156217,0.031468224,-0.041813068,0.007334019,-0.09633208,-0.0067057335,-0.0588408,0.0077805878,-0.06435684,0.043594044,-0.03585163,-0.14015871,0.14881885,-0.0023674276,-0.019773401,0.0012921529,0.006910494,0.16111611,0.006743851,-0.001265817,-0.13924891,0.064568445,0.08908918,-0.054785535,0.007588303,0.012981992,-0.08742815,0.016638918,0.03678899,-0.0020088006,-0.077419266,-0.07240987,-0.020548036,0.099444605,0.0077884886,-0.023137588,-0.13246812,-0.015548379,-0.09992733,0.08551119,0.07879527,-0.11380181,0.17460121,0.07770009,0.07716834,0.014665059,-0.09488724,0.08577676,-0.0037066564,0.10655187,-0.047229633,0.09147453,-0.08307295,0.09315507,0.113225944,-0.009187443,0.03477267,0.025231203,-0.08431086,0.009541696,0.02600238,-0.047040913,0.09253134,0.01418751,-0.039196033,0.109122686,0.19111101,-0.09953161,0.09175145,-0.14099994,0.16871838,0.039911788,-0.12609152,0.063238285,0.2054565,-0.15321188,-0.03690663,-0.008807127,0.11729085,0.09783798,-0.049900107,0.1512542,0.054471985,-0.1522632,-0.057182703,0.08074501,0.083072774,-0.0685256,-0.12900954,0.1009068,0.12963533,-0.08930304,0.039361183,0.008235687,0.06757519,-0.105485804,0.0006301435,-0.090558745,0.13019133,-0.0673266,-0.068916,-0.18097895,0.0847868,-0.08873472,0.120170295,-0.011439248,-0.06523899,0.0840027,-0.06333502,-0.019757958,-0.17696556,-0.084801406,0.105050385,0.018173635,0.023443779,0.08340476,0.063111566,-0.033351004,-0.053139392,-0.114876,0.06986062,-0.11687937,0.052967157,0.025900006,-0.018472783,-0.089949116,-0.024722012,0.041633375,0.057382286,-0.028961068,0.022228032,0.017326577,-0.028700892,0.048549153,-0.004103159,-0.00033457234,0.09362489,-0.15519951,-0.00632466,-0.020597124,-0.10186088,-0.17981394,0.09109745,-0.009857132,-0.0013319254,0.037149716,-0.049503133,0.15164766,-0.12197514,-0.026442654,0.047717173,0.07525155,-0.046155825,0.1511657,0.12341452,-0.06883856,-0.087494716,0.09559944,-0.097183935,-0.042868227,0.067655064,0.09804644,-0.05451696,-0.22130227,0.11480357,0.048311684,0.034577616,0.0780143,0.1053996,0.039063014,0.061800975,-0.007816058,0.087693155,-0.0090351775,0.047240153,-0.0531592,0.13088284,0.1924194,-0.023539053,-0.019582443,0.13270438,-0.06767406,0.15953615,0.09119447,0.034805458,-0.13504723,0.04391255,0.058576196,-0.039347645,-0.02826215,-0.15876532,-0.046185732},
{ -0.07083922,0.016167518,0.08019295,-0.090074934,0.06629754,0.12672101,-0.104462445,-0.0270498,0.04450647,0.12268217,0.20019159,-0.034536548,0.012895019,0.12068579,-0.045374986,-0.04307538,0.122431144,0.12797204,0.040934674,-0.054164123,-0.05939926,-0.060246225,0.15331662,-0.1351023,0.05343681,0.120989084,-0.07221272,-0.13701263,0.11302818,0.11040312,0.07941267,-0.07814396,0.15633853,-0.043809872,-0.07548083,-0.17517824,-0.019435346,-0.15632695,-0.06313686,-0.10461094,0.2356408,0.027727254,-0.07826992,0.027304599,-0.020846747,-0.12855445,-0.065450825,-0.06482397,0.046669178,0.009534239,0.16307174,0.062872715,-0.07090055,-0.019174693,0.104774505,-0.06974579,-0.07289497,0.120267555,0.02426645,-0.061484057,-0.097561836,0.0716909,0.023607291,0.04436509,-0.09048322,-0.17159118,0.08413407,0.13896446,0.14165097,-0.14465372,0.05209944,0.09840018,0.072854176,-0.033313505,-0.07250702,-0.17252862,-0.025098898,0.026771698,0.048546497,-0.0065418845,0.1802282,-0.1661932,-0.04930388,0.058719873,-0.16858941,0.15346724,0.12692094,0.047109287,0.010142303,-0.008345361,0.08002567,0.016876573,0.058583826,-0.03055435,-0.09907053,0.06659065,0.08324248,0.03328007,0.049327735,0.10066243,0.13906316,-0.0040068603,0.029249795,0.018370612,-0.07404078,-0.039960418,-0.07310594,-0.019867834,0.005842752,0.16117083,-0.06664863,0.030049235,0.15433565,-0.20747165,-0.0639522,-0.062329795,0.05948903,0.085793085,-0.024150439,0.100065984,0.047282968,-0.022832006,0.15033813,-0.056279603,0.17054068,0.049859677,-0.033938274,-0.032278907,0.022166759,0.12372372,0.02931156,-0.067303285,-0.007218914,0.02747709,-0.096507296,0.18302244,0.049418923,-0.13340302,0.010905786,0.1129593,-0.018837491,0.022362294,0.13369694,-0.1150399,-0.19115232,0.025805982,-0.015193477,-0.10233716,0.01286413,0.0942264,-0.09975918,0.07351526,0.068805546,0.13391046,0.043997157,-0.054636385,-0.006463891,-0.09297757,-0.15817119,0.094705775,0.020821078,0.0614826,0.071659446,0.101846695,0.001742828,-0.15266371,-0.06474634,-7.9031706e-05,-0.020651983,-0.010458533,0.035292562,0.09949312,-0.04624603,-0.0041880365,-0.086652815,0.015906652,-0.09119926,-0.09502897,-0.13482869,0.006220855,-0.13552944,0.0070874384,-0.094317,0.0154624125,-0.023005432,-0.005633542,0.07270772,0.013979962,0.16964522,0.115934744,0.02596776,0.10518117,-0.080189735,0.10514274,-0.16779335,0.10928047,0.2031571,0.045901585,0.026301464,-0.19043711,0.021068491,0.08013478,0.091237,-0.016055757,-0.057299618,0.04903066,-0.11834382,0.014755211,-0.06271346,0.01575613,0.01394869,0.1189574,0.0058774725,-0.14471117,0.14075428,-0.16187985,0.006756627,0.029255796,0.12184695,0.0075075165,0.12185063,-0.037323248,0.16262212,0.070526,-0.008684089,0.20355096,0.035659745,0.11759935,0.09746432,-0.06576712,-0.17548607,-0.0328492,0.07757897,0.15641636,0.055857327,0.13593672,0.039652117,-0.063652374,-0.057041172,0.02210323,-0.10973835,0.11602467,-0.03872556,0.09617143,0.16350378,0.084355325,-0.07300993,-0.0075139413,0.078586966,0.06496639,0.14793779,-0.027605964,-0.04792498,-0.045767214,0.0344071,0.10088387,0.17771898,-0.06487921,-0.06147631,-0.006756444,-0.091490574,-0.03733079,0.016476572,0.08127493,-0.023121422,0.062035255,0.0887153,-0.0027304813,-0.047989793,-0.1486145,-0.088294655,0.0694687,0.025969604,0.06307859,0.0015866351,-0.15681686,-0.008476671,0.014688874,0.11677065,-0.072298884,-0.06396802,-0.007032036,0.1396047,-0.00617484,-0.041916978,-0.12754577,-0.18564878,-0.07681716,0.030702135,-0.07245572,0.109954745,0.17826335,0.033691164,-0.028269105,-0.02828719,0.009414845,-0.014768578,-0.1545634,-0.039484266,0.04374433,-0.063696325,-0.11505249,0.042322256,0.14163269,0.12684952,0.0027438733,0.1275792,0.017067429,-0.10990085,0.011184765,-0.07226324,-0.11225368,0.025915239,0.02544908,0.15383102,-0.0053792433,0.099074766,-0.00050476665,-0.154207,0.17185172,-0.118044555,0.0834059,-0.057612445,0.06132155,0.06612819,-0.02816216,0.024180742,-0.15643342,0.011053235,-0.11990611,-0.18303658,-0.13479102,0.0036906153,0.04373615,-0.017205987,0.038460467,0.010560232,-0.0052805496,0.096644804,-0.10105161,-0.061281577,0.14063357,0.13887404,-0.13151377,-0.13330644,0.045232132,0.018671706,-0.011655121,0.024050945,-0.07840413,0.052774124,-0.038160965,-0.12656549,0.07306766,0.09748748,-0.13677648,0.12936378,0.13357745,0.15235649,0.093308136,0.033056736,-0.1531842,0.029456504,-0.07814886,-0.03097657,0.019362552,0.07833048,0.04348048,-0.018011963,-0.068894446,-0.00073763507,0.07188777,0.034423586,-0.03154601,0.06753259,-0.1263745,-0.008730964,-0.017738687,-0.032296017,-0.17765799,-0.056592826,-0.059301578,0.042257875,0.03474231,0.019486263,0.017145015,0.0694201,0.1305135,-0.0194693,0.10162923,0.12216089,-0.015333009,0.11578403,-0.06531866,0.18364914,-0.058840763,0.031992324,0.0026028699,-0.043107484,-0.00011797266,-0.022266617,-0.10905539,0.14896582,-0.08501587,0.14793944,-0.046045344,-0.05601691,0.04849775,0.021218738,-0.109365836,0.040528174,0.101510145,-0.0934908,0.07068631,0.15778075,-0.13329066,-0.14448488,0.008302259,-0.034479767,-0.06934407,0.046671744,0.15798241,0.0055167694,-0.1303239,0.0506474,-0.055157915,-0.09857173,0.1436846,-0.04924065,-0.003808726,0.038384754,0.0005060007,-0.028786011,0.04101024,-0.036901742,0.04449776,0.14067794,0.092509724,-0.0693125,0.02325954,-0.023409642,-0.012335351,0.094271414,0.0010024187,-0.060070034,0.029352598,0.0873275,-0.14517486,-0.08148989,0.044916783,0.022420904,0.120163985,-0.019870097,0.08341462,-0.10567453,-0.038725846,0.02247329,-0.06828569,-0.028477328,0.09137102,0.050434407,0.07087082,0.05353388,0.07045018,-0.12758365,0.1422705,0.06382564,0.15909272,0.17719197,0.05717471,0.014480766,0.1944796,0.030361217,0.028394947,0.011062888,-0.17168885,0.02393039,-0.09267557,0.12715375,-0.069067925,-0.099355474,0.16510156,0.01650362,0.07229395,0.15467754,0.0370016,-0.029802639,0.063432306,-0.06135076,-0.043430075,-0.067877635,-0.13194726,0.01790704,0.026043013,0.12245875,0.22075906,-0.035886317,0.06718498,0.05561849,0.0048088427,0.040355884,-0.08190678,0.08244557,-0.07444866,-0.060025595,-0.08037842,0.12203664,0.0748008,0.1283848,-0.12010595,-0.119569436,0.044898123},
