const double* L2_w[10,512] = {
{ -0.15098223,0.04673252,-0.5380469,0.09427986,-0.18539971,-0.023675488,-0.17352182,-0.06969356,0.12822,0.04407117,-0.16621464,-0.5848837,-0.2626422,-0.07845292,-0.26792112,-0.008970511,0.0050030937,-0.37116754,0.05161714,0.004878547,0.22359745,0.13327615,-0.31217766,-0.34363735,0.036491483,-0.46022865,0.13455682,0.1586134,-0.16039696,-0.14841416,-0.13164149,-0.45721155,-0.09144346,0.00257195,0.03292131,0.016666211,-0.20637022,-0.020574657,-0.08443355,0.018763486,0.18263319,0.15722023,0.12318528,-0.03450778,-0.11228025,0.09007548,0.0763033,0.08759807,-0.20910135,-0.5022946,-0.040613234,0.07540576,-0.108993836,-0.15076008,0.051790472,0.25926793,-0.6585525,-0.2729882,0.06287952,0.20768532,0.06335471,-0.3457874,0.032256976,-0.358532,-0.34983635,0.09074141,-0.1626585,0.065861106,-0.6873787,-0.3753767,-0.30467182,-0.3795696,0.1475027,0.059317116,0.06654257,-0.68664217,0.1548722,0.17826591,-0.05850519,0.007532773,0.0077821743,-0.18770622,-0.0688645,-0.26288712,-0.35004988,-0.023480818,-0.18031067,-0.51282257,0.29729223,0.14294991,-0.06466103,-0.39875486,0.016869955,0.020560507,-0.003239041,0.23747635,0.25782916,0.025810236,-0.24606486,0.1931077,0.19486995,0.12578435,0.10968967,-0.13179107,-0.21709237,-0.004551581,0.06185007,0.19194402,0.13354129,0.38101524,-0.08175586,0.124176346,0.017347293,0.037356205,0.19426113,-0.265869,-0.1764712,-0.34293282,0.06267168,-0.11823082,-0.025054127,0.07365509,0.08996899,0.08758541,0.06781158,-0.34575635,0.22722186,-0.28942963,0.1469902,-0.5055781,0.04461409,-0.12716602,-0.07818268,-0.2526392,-0.049532853,0.1089863,-0.07481989,0.26161033,-0.2184451,0.2327563,0.13314138,0.09147192,0.15951702,0.1894419,0.13536733,0.257643,-0.12643085,-0.68248,-0.34587833,-0.008635732,0.08167598,-0.35624322,-0.39857224,0.13449882,0.0072042933,0.13452485,-0.65743804,-0.27780372,-0.44861937,0.10143557,-0.24258888,-0.33887362,0.03467229,0.19849063,0.025951022,-0.045560684,0.20279677,-0.49771455,0.10687402,-0.15403202,-0.3013309,-0.2830663,-0.3982777,-0.035115305,0.09788045,-0.2857162,-0.3083285,-0.2692421,0.02738406,-0.22328335,-0.3145844,-0.32301885,-0.31276992,-0.11224771,-0.081688546,-0.38046914,-0.29965112,-0.3062018,0.07086835,-0.1663687,-0.2401119,0.04293097,-0.44250256,0.06600771,0.080110855,0.21941762,0.124336444,0.31177896,-0.05218,-0.03935283,-0.05723625,0.12472304,-0.24630995,-0.27264562,-0.070916034,0.017583147,0.08739132,0.13948931,-0.0073555373,-0.0680468,0.26676586,0.12291449,-0.13418835,0.18547562,0.13506182,0.16209055,-0.13564394,0.06330105,0.21256942,-0.35359716,0.045604985,-0.10559686,0.09360859,0.095428064,0.06331517,-0.13749968,-0.32018587,-0.24355423,0.047066513,-0.19915524,-0.2567174,-0.2709142,-0.14828008,-0.02966668,-0.003977728,-0.43903852,-0.19601734,-0.39595816,-0.3823749,-0.21541563,-0.11172808,-0.14556399,-0.25891384,0.0046751536,-0.39257365,-0.03507061,-0.15436201,0.16058251,-0.42160577,0.022793502,-0.080457434,0.20388222,0.23511226,-0.14940996,-0.15806584,-0.22425438,-0.35822704,0.16894868,-0.3116679,-0.2979104,-0.06075171,-0.1901928,-0.15068382,-0.14955716,0.061710086,0.01809597,-0.4485596,-0.011761142,-0.07293911,-0.11912029,-0.321044,-0.15846175,0.3524387,-0.17462717,0.19319099,-0.3159118,0.09432588,-0.494626,0.22658783,-0.22854574,-0.07251233,0.17316183,0.15837416,0.05341057,0.1292004,0.12742041,-0.1579073,0.18257923,-0.39394647,-0.2389906,0.04837168,0.011078165,0.005858701,-0.12666784,-0.30067557,-0.03824429,0.00027024787,0.052479375,-0.114530414,-0.32199416,0.074640304,-0.07387369,0.07716876,0.11080567,0.032817878,-0.48881888,0.0095116105,-0.2884305,0.1467524,-0.5106921,-0.07301959,-0.24457298,0.4056585,0.18940035,-0.15514284,-0.092639305,0.1499066,0.09048529,-0.2665791,0.12573788,0.07052851,0.17903632,-0.027572732,0.13443771,-0.262061,0.15375553,0.23168947,-0.4887969,0.0469455,-0.1286045,-0.15839228,0.052991405,0.123982325,-0.2058567,-0.02379765,-0.013748462,0.09900622,-0.17000756,-0.234484,-0.14864556,-0.090489134,0.087014444,-0.2446114,-0.054536417,-0.096105374,-0.0038376201,0.16442423,-0.02846784,0.15934256,0.14553784,-0.13905099,-0.036222547,0.13666084,-0.19182445,0.0785132,0.1406675,0.2232692,-0.021432325,-0.09881846,-0.032123677,-0.2667556,-0.026845291,0.11106328,0.09510414,0.08075657,0.01578274,-0.1679995,-0.38849908,-0.41204086,0.17348084,-0.3178214,-0.12460575,-0.19298902,-0.13298965,-0.049985386,0.02572301,0.08966499,0.17219277,0.0714684,0.02163376,-0.34614247,0.10237515,0.13971913,0.23194286,0.041767374,-0.030907318,-0.17761713,-0.19447255,-0.2383748,-0.38583246,0.16726151,-0.36696884,0.045685615,0.049957186,-0.2019547,-0.25441384,-0.16714443,0.05731526,0.06437307,0.148962,0.03009245,0.08548819,-0.010354237,-0.0030768858,-0.18002023,0.2242924,0.10748142,-0.0076784007,-0.13336578,-0.05596105,-0.37483883,-0.045752566,-0.4217022,0.06265047,-0.098709434,-0.0074795596,0.012225375,0.0001352107,0.16037212,0.09599336,0.015117744,-0.13987432,-0.13271275,-0.053559676,-0.1935111,-0.1984554,-0.13436891,-0.5285813,0.09559599,0.18770175,0.39887848,0.16378969,0.08104713,0.074988924,-0.23268597,-0.047900673,-0.0783083,0.2800392,0.19909808,0.11775171,0.22076969,0.13670547,-0.029518599,-0.25804895,-0.14899914,-0.3277803,-0.24065317,-0.021667395,-0.46542913,-0.07568071,-0.15073867,0.07236012,-0.046337906,0.24678214,-0.5049689,0.0557336,-0.1235902,0.15410696,0.21422203,-0.262596,0.15988968,0.10607887,-0.20394145,0.13140851,-0.120126516,0.1647963,0.122286186,0.12055992,0.011676875,-0.5955519,-0.2508157,0.24024859,-0.026188292,-0.2636028,-0.34306207,-0.18265107,0.08600679,0.14392287,-0.28116152,-0.19531958,0.062134452,-0.062819846,0.104926676,-0.30122796,-0.5796761,0.41740605,-0.033758737,0.1281295,0.051419746,0.322904,-0.30524105,0.033030685,-0.21048836,-0.53972805,0.030511651,0.20112555,-0.21553388,0.13389628,-0.086534835,-0.31879365,-0.567051,-0.42410126,-0.17176259,-0.09927261,-0.30637452,-0.035432015,-0.055358782,-0.016396286,-0.097440355,0.014714313,-0.058781847,0.037260495},
{ -0.038890637,0.06464073,-0.4654525,0.21332066,-0.15532115,-0.050452236,-0.074008785,-0.05721068,-0.059098247,-0.120906085,0.055321347,-0.3050682,0.0669998,0.09473745,0.14839803,0.15891425,0.12581554,-0.006455083,-0.023917297,0.1091342,0.12539822,0.054960646,0.23139985,-0.08795457,-0.060154095,0.14205393,-0.12426761,-0.1871157,-0.18346374,-0.5002095,0.13190001,-0.34262666,-0.002799338,-0.49062052,0.19955692,-0.049025863,-0.23006135,-0.1612648,-0.034720164,-0.36824128,-0.14236397,-0.31246346,-0.033597328,-0.36625054,0.18813726,-0.09627985,-0.31899622,-0.009506651,0.12390891,0.18257613,-0.24637434,-0.07859876,0.3429156,0.06275991,-0.13015231,0.2920222,-0.08695077,0.11921697,-0.5134462,-0.4756637,-0.08208459,0.0036905627,-0.35502848,-0.14344035,-0.22200187,-0.04462268,0.13457504,0.006841057,-0.34401584,0.25274044,-0.18899056,0.1062532,-0.14216942,0.113822185,-0.14744548,0.018823197,0.059551485,-0.08939609,-0.024042247,0.23054886,0.07033747,0.013419099,-0.0854628,0.27607313,-0.034318384,-0.14160617,0.04179614,-0.16548726,0.0717754,-0.20276628,-0.3866936,0.4674932,-0.15467249,0.056083784,-0.1833584,0.029127866,0.10374785,0.22540061,-0.20927802,-0.5085998,0.15736735,0.07962499,-0.32819864,-0.08350908,-0.041101675,0.05825941,-0.3346669,-0.011340643,0.08353482,0.020771772,0.23366208,0.02471643,0.2857408,-0.3211739,-0.26405194,0.069069706,0.02140987,0.08083772,0.035670843,-0.0010593688,0.07980205,0.0021990412,-0.22529106,-0.3046219,-0.15341231,0.015417597,-0.18209867,-0.2523627,-0.07242596,0.20155342,0.14010438,-0.29682764,-0.18078412,-0.092844896,-0.03646928,0.06167499,-0.08643711,-0.04600022,-0.18006526,0.20377836,-0.35511616,-0.5444484,-0.16217507,-0.11821259,-0.22302341,-0.31503904,0.0889869,-0.21125792,-0.19266906,-0.48864013,-0.0026331686,-0.706888,0.04181786,0.14436671,-0.13386175,-0.58746827,-0.37052247,0.15722387,-0.44891638,-0.26097846,-0.41159496,0.19748865,0.17375337,-0.035384733,-0.03482343,-0.2400052,0.10403242,0.3739813,-0.28422812,-0.05718419,0.092973135,0.510127,-0.4090848,-0.31270072,-0.063459404,-0.17114091,0.16308111,-0.19594891,-0.0150946,0.0928662,0.12101349,0.0067276563,0.020469995,0.22769676,-0.31743568,-0.18358664,0.12631151,-0.037936535,-0.1534192,0.065344125,-0.09059078,0.057660148,-0.008607421,-0.1805546,-0.020609297,0.12383294,-0.04688962,-0.44771314,-0.08448131,0.038733795,-0.4270172,-0.083436884,0.048241653,0.26620552,0.18231475,0.007522233,0.077451535,0.029834151,-0.26796257,0.16603594,-0.41380537,-0.3461815,0.06924284,-0.09269219,-0.27367368,-0.042452484,0.18951565,-0.0055212905,-0.17337891,0.114558324,-0.11555583,0.028357232,-0.10541122,-0.46730494,-0.1990387,0.011415318,-0.004352497,0.2772205,0.05902273,-0.0104458295,0.29753307,0.2370322,-0.2836994,-0.15601061,-0.30056417,-0.11778662,0.11876943,-0.36603132,-0.24023624,0.13264266,-0.04528922,-0.03847921,0.069363676,-0.04144748,0.040616747,0.020915536,0.05371102,-0.26905072,0.21008454,-0.016346259,-0.15872397,0.30039334,0.1618308,0.030012008,0.1125762,-0.44939935,0.29368144,0.15203929,0.19172768,0.10102277,-0.104966976,0.06816595,0.19753152,0.1038874,0.0775616,0.40784225,-0.020790579,-0.07640554,0.028824214,0.0036762503,0.054244455,-0.25592852,0.08824128,-0.2705961,0.35910445,-0.23819175,0.092192926,0.13003604,0.21808466,0.0524094,0.044634044,-0.12036256,0.08330008,-0.21921715,-0.5723446,0.084276035,0.17896593,0.041328203,-0.38220567,0.028432284,-0.03739488,-0.0031995224,0.019665517,0.040224366,0.2831493,0.014504481,-0.16713542,0.13221008,0.40174976,-0.3472589,-0.29033434,-0.03977583,-0.08803909,-0.7210322,-0.14923635,-0.36079788,0.059851866,0.22196093,0.091232434,-0.16054706,-0.15813148,0.18683623,0.1804564,-0.35898253,-0.084439665,0.01597389,-0.41883874,-0.13235089,-0.34363794,0.11746685,0.016160682,0.21301654,0.007050815,0.24520317,0.070630744,0.0876511,0.09071147,0.10798244,-0.10561402,0.37200758,-0.29548308,-0.11345106,-0.39424896,0.11076694,0.05410275,0.0968181,0.03956889,-0.07870958,-0.055449106,-0.005661721,-0.22588725,0.110990636,-0.43365678,0.13510244,0.038764663,-0.5469845,0.4796836,0.08062701,0.0039627133,0.056931686,-0.063917235,-0.07613474,0.20158055,-0.14072824,-0.22379927,-0.2327661,-0.19363467,0.046949852,0.099858746,-0.056721747,-0.19567065,0.022552678,-0.06760078,0.015910674,0.12622233,0.28703588,0.071100675,-0.04942998,-0.028329946,-0.31132436,0.1346305,-0.107634015,0.014403143,0.20419829,0.031444464,-0.12844881,0.031392757,-0.38462776,-0.18696718,0.18951528,0.087409265,-0.18985876,-0.19861361,-0.2145798,-0.3116899,-0.20937063,0.13284202,-0.12389124,-0.08210296,0.16867955,-0.38695407,-0.28118992,0.089450754,0.012849003,-0.40260544,0.023394817,-0.01562522,0.12181563,-0.100218676,-0.2797638,0.11238705,0.3122192,0.23665428,-0.38837844,-0.5520598,0.2540976,-0.1809601,0.28859538,-0.15378599,-0.021174664,-0.056008358,-0.104957506,0.23182872,-0.011090502,0.22750172,-0.10844228,-0.039507717,0.010374142,0.11148407,-0.17721136,0.1163299,0.11148716,-0.074158706,-0.09480964,-0.44864646,0.21836498,-0.3575053,-0.12168683,0.011651521,0.09653154,-0.07979459,-0.27867252,-0.10616211,-0.43319654,-0.058407713,-0.25167978,-0.09777197,-0.22904254,-0.6215016,-0.029567638,-0.54554,0.2719597,0.09898077,-0.21102612,0.097267635,-0.01169367,0.23607588,0.43999043,-0.02285526,-0.07760321,-0.07854014,-0.08465197,0.0914917,-0.091476835,-0.3227839,0.023294566,-0.029989606,-0.053262625,-0.08567591,0.1920927,0.023093516,0.028028453,-0.20613107,0.32866085,0.046953313,-0.33006272,-0.077213146,0.374502,0.29323328,0.18807948,-0.06340651,-0.0690223,-0.37879702,-0.21951766,0.24420124,-0.25998905,-0.25501654,-0.20603281,-0.402194,-0.029532332,-0.046154503,0.6045214,0.19517866,-0.026790168,0.1387706,-0.1579364,-0.38573897,0.13849065,-0.09802274,0.023994938,-0.36459503,-0.06754865,-0.4150691,0.14202699,-0.12199767,-0.25909135,-0.14956501,0.010561179,0.02766336,0.20624892,-0.014158175,-0.18206498,0.24505247,-0.3766346,0.01729885,0.0058537647,0.24776585,0.09738016,-0.0756455,0.17851782,0.01673224,-0.0027845823},
{ 0.17996426,-0.12667812,-0.12983403,0.074627966,0.15895721,-0.18458982,-0.085921265,0.09371036,-0.5120135,0.076597095,-0.21245755,-0.29550153,0.033287227,0.09860184,-0.16061033,-0.20929122,0.09436325,-0.16740039,-0.35458148,0.018142236,0.21699762,0.05214016,0.11640517,0.07036676,-0.020821622,-0.1974778,0.10269633,-0.08127727,-0.03171844,0.27156797,0.2703711,-0.45248413,0.092657104,0.057928514,0.20743151,0.3121557,0.39122546,-0.08040201,-0.046877977,0.058443062,-0.36656755,0.17753053,-0.12515016,0.028385228,0.061463565,-0.07291854,-0.29159284,0.055478875,-0.5445556,-0.028479796,-0.06301216,0.037163142,-0.24845779,0.15278499,0.20394723,0.09317955,0.35309035,0.05924946,-0.24116744,0.004278562,-0.029060343,-0.2944308,0.18472145,-0.19717315,0.16265061,-0.15404771,0.060922492,0.0494528,-0.31790859,-0.08609141,-0.10667517,0.15497413,0.035169765,-0.12390609,-0.24431008,0.051384322,0.108524986,0.13461001,-0.11919428,0.03933994,0.14150137,0.22826901,0.10537599,-0.01339835,0.106196664,-0.05431416,-0.007320889,0.082742296,0.24576679,0.090208076,-0.6223273,-0.16607079,-0.36743945,0.03249109,-0.119336985,0.12835929,0.15698868,0.045188643,-0.12593761,0.113082625,0.092959516,-0.06904667,-0.036500342,-0.057085223,-0.42225388,-0.48831692,-0.040812317,0.120105855,-0.026233424,0.29955038,-0.46025616,-0.11067092,0.3027994,-0.024202826,-0.13312645,0.05393256,0.36277673,0.1662967,-0.05064986,0.11593935,-0.4393066,0.013313096,-0.3901739,-0.064783484,0.17137253,-0.008729612,-0.05916391,0.18734467,0.081679754,0.08206144,0.082605846,-0.17920297,0.27862412,0.17220165,-0.10821578,0.19167253,0.02501001,-0.22458708,0.24835531,-0.49943072,0.04522599,-0.14133823,0.043937366,0.029237946,0.047051765,0.20776728,-0.27153543,0.0019594082,0.2426216,-0.19285081,0.13685766,-0.23557942,0.10968511,0.23582876,0.17057045,0.23345192,-0.42978665,-0.53747785,-0.5314517,-0.012038221,-0.08619216,-0.41693297,0.24986917,0.10538618,0.21833466,-0.42968377,-0.28712156,-0.22298099,-0.09900288,0.07287579,-0.012529416,-0.54980385,-0.38621166,0.11358203,0.096640974,-0.13283351,-0.1205893,0.032464176,-0.3772441,-0.026020579,0.04119005,-0.7252613,0.13384606,-0.29555225,-0.090322636,-0.2789255,0.11337561,-0.1806522,0.069783464,0.11992231,0.008707089,0.037555426,-0.060806323,-0.1923248,-0.25765413,-0.00581724,0.044290867,-0.03843526,-0.06781877,0.21424484,-0.5215865,0.05993955,-0.038464833,0.10606113,-0.25691438,-0.02080596,0.21583468,0.09105166,0.0430856,-0.1312484,0.19355996,-0.15555312,0.22936764,0.0013425822,0.06599281,0.05960493,-0.022630109,-0.050206576,0.0830244,-0.23709638,-0.023207026,-0.10359737,-0.22127287,-0.028245142,0.13411424,-0.18147913,-0.20988333,0.3303277,-0.17703047,-0.3126224,-0.2628227,0.05076133,-0.069639154,0.21047068,0.0016077281,-0.1750461,0.010284401,0.13822293,-0.07309458,0.14133607,0.006756057,0.06967669,-0.5570778,0.10967452,0.007016863,0.01135683,0.007827155,0.14160487,0.13026366,-0.42737535,-0.12340052,0.18611352,0.17198102,-0.18108888,0.23793744,-0.002745811,0.09761581,-0.33126777,-0.07503406,0.12478316,-0.033115212,-0.05222597,-0.071947426,0.26201612,0.012780071,-0.24510731,0.20851463,0.09167292,-0.21490166,-0.17907842,-0.0115444865,0.23016317,0.17805669,0.07518915,-0.18401103,0.23151974,0.15707229,-0.29729244,-0.010142779,0.05241916,0.18192269,-0.069685474,-0.003553469,0.27931604,-0.27201807,0.104797885,0.005407838,0.0779026,-0.33993393,0.09794106,0.12034962,-0.25518394,0.009764477,-0.36448842,-0.3077884,-0.0780284,0.004826172,-0.12399827,-0.3598943,-0.03008574,-0.11908841,-0.43349853,-0.07785467,-0.039110772,0.10406005,-0.554454,0.06367331,0.044516634,-0.25665534,0.010304922,-0.23959307,0.09062629,0.42207438,0.08090245,-0.103974946,-0.044557787,-0.07486028,0.07638387,0.07952117,-0.19435616,0.051139973,0.20059165,-0.18395577,0.25581717,-0.199558,-0.043699183,-0.35558316,0.21577977,-0.01741293,-0.7234166,-0.3107455,-0.13861297,-0.6716163,0.09935911,-0.09671093,-0.06457296,0.02704808,0.2253822,0.24777398,0.25581342,-0.13306245,-0.146878,0.20673537,0.12045704,0.07029271,-0.07123214,-0.353997,-0.3084432,-0.08178884,0.10372604,-0.018444609,-0.15167141,-0.28873223,0.057604257,0.03940344,-0.1741605,0.12957196,0.097157724,-0.3029077,0.003290005,-0.0012505561,-0.049245663,0.051617805,0.04735033,0.11836815,0.13313484,0.023265803,-0.17401642,0.10492116,0.34087116,0.1879243,0.13670889,0.027213795,0.04524956,-0.16439554,-0.053434357,-0.24532285,0.12253837,-0.016044611,0.090396956,0.06531752,0.08995458,0.08902797,0.06774769,-0.23991749,0.0032963767,0.21854657,-0.4510221,-0.1785653,0.27175403,-0.18842877,-0.39191294,0.09929314,0.0030740409,-0.100569725,0.31318712,-0.07519154,0.1215613,0.078686796,-0.5084974,0.26335254,-0.0033496232,-0.23278688,0.21350963,-0.08980319,-0.3018061,0.06542504,-0.18049346,-0.18373601,-0.010218968,0.19067778,-0.012870237,0.0025080158,0.20447788,0.1581875,-0.0427569,0.04172735,0.12021387,0.006887315,-0.08160406,0.17650084,-0.024040705,-0.012339892,0.046447262,0.061060544,0.042988975,0.14185998,0.10331952,0.1116044,-0.442984,0.19610903,-0.10011437,0.14601114,-0.42246655,0.25195658,-0.017015168,-0.4831835,-0.41790515,0.1662029,0.2914975,0.14663896,0.18885173,0.13111004,-0.06794492,0.05893115,0.122902595,-0.45604077,-0.25936213,0.14223158,0.050162833,0.00010191115,0.32863775,0.00806521,-0.40728748,-0.38519472,-0.15115872,-0.025158238,0.07641962,-0.019704256,-0.05456836,-0.36298472,0.07543134,-0.3132982,0.18671899,0.12475047,-0.07126973,-0.07116507,0.11003977,-0.1494189,-0.111925684,-0.0052972278,-0.34031463,0.21973617,0.12912308,-0.17688097,-0.20916325,-0.1705453,0.00018321077,-0.020496793,0.06918559,-0.18916413,0.06232239,-0.018165056,0.002527482,0.17593592,0.11202742,-0.12488753,0.12170089,-0.4211014,0.13316163,0.013695714,0.057732396,0.26676154,0.26828316,-0.31157765,0.09830329,0.15014017,0.17822462,0.11934049,-0.15847349,-0.08326803,0.22942436,-0.018706707,-0.029406011,-0.088760115,-0.15196037,0.002595734,0.1293631,-0.04642185,-0.11686588,0.037048515,-0.00030661066},
{ -0.33087796,0.041790977,0.23002456,0.006752349,-0.110008955,-0.07014298,-0.17254777,-0.114515096,0.14576441,-0.03856054,0.09267482,0.07009883,0.09315786,0.054263584,0.17745334,-0.3664563,0.06933865,0.11367141,-0.43146312,-0.10402911,-0.12295274,0.15020154,-0.16987182,0.078589655,0.07717737,-0.05316343,-0.11273106,0.09495447,-0.20722851,-0.111063935,-0.19975266,0.072081104,0.3465285,-0.06915998,0.52993655,0.22415604,0.22638664,0.1154171,-0.15025869,-0.113092005,-0.17396787,-0.44025594,-0.013081234,0.030275723,-0.121540576,0.11311711,-0.040771917,-0.24808306,-0.3938427,-0.055654876,-0.159978,-0.081375085,-0.10049358,0.15397538,0.13866748,-0.21569395,0.05719844,0.36656722,-0.03463677,-0.07872347,0.07000232,0.12612581,0.25247195,-0.07674549,0.37556162,-0.4853237,0.22243035,0.16170332,-0.01573018,0.025254564,-0.0110534355,0.11500483,0.027983695,-0.043395005,0.15766269,0.035170063,0.015888756,0.010362119,-0.023478433,-0.038957387,-0.30455846,0.27574944,-0.4514245,0.20630066,-0.015771125,-0.1709494,0.13984026,0.01673603,-0.19255571,0.0219597,-0.21808742,0.46033195,-0.23150548,-0.2440623,0.05344375,-0.23582314,0.0025881678,0.0604229,0.08545024,-0.4748327,-0.017624242,0.035041075,0.04259694,0.049766563,-0.03800165,-0.07036732,-0.012828187,0.26799798,-0.3369309,0.07996455,-0.37230018,0.05863252,-0.047308806,0.105000526,0.06388129,-0.24358693,0.012743397,0.33555225,-0.02199224,-0.068474546,0.18126732,0.03638811,-0.42232606,0.17831942,-0.038966432,0.14962801,-0.23350058,0.114890024,0.091468535,-0.26628095,-0.037892304,0.46043363,-0.12943122,0.16079582,0.118011445,-0.35598037,0.06758513,0.029192965,-0.1942967,-0.2711779,-0.05412723,-0.48615146,-0.20970617,-0.3535882,-0.040810976,-0.28935677,-0.60599154,0.18941812,0.3154973,0.27490023,0.039295238,0.37091565,0.04171525,0.1065995,0.024748867,-0.4274259,0.15441753,0.1021408,-0.4419907,0.108106315,-0.1775409,0.16933857,0.0046713385,0.10467701,-0.29860938,-0.054853145,-0.17822273,0.023790035,0.22035605,-0.18510829,0.10778673,-0.20510131,-0.19990966,-0.32047525,-0.066223696,-0.12002232,-0.15923908,0.025794482,0.2912901,-0.5027717,0.034596775,0.20689048,-0.20018531,-0.26257262,-0.12127615,-0.013125563,0.062474363,-0.4139298,-0.1292918,0.18412407,-0.18051353,0.055513702,0.30397108,0.19264323,-0.17828591,-0.09323062,-0.021459527,-0.19575648,-0.036092695,-0.25295526,0.32608134,0.047998372,0.26515046,-0.32472712,0.10052473,-0.032363784,-0.26156828,0.08459459,-0.14485691,-0.010948684,0.00051526324,-0.14475746,0.12110124,-0.039746586,-0.11174869,0.08097119,-0.64807904,0.08879255,0.0017201188,-0.6214309,0.10794705,-0.018927786,-0.35858554,-0.0625836,0.09156957,0.0909998,0.15942548,-0.34004936,-0.061054934,0.21094258,0.17432952,-0.033941433,0.26278967,-0.046790116,-0.5151586,0.10822636,-0.21748142,0.6002486,0.5874437,-0.14520752,-0.07149655,0.15390448,-0.39882973,-0.06966505,-0.20186196,-0.0027268962,-0.3042046,0.0072477465,-0.014956871,-0.13441621,-0.14126624,-0.18010873,-0.26995638,-0.0772315,0.06920348,-0.13074332,-0.12483034,0.17212912,0.12431185,0.23837447,0.10765594,-0.5187937,-0.57279694,-0.27550155,0.08274495,-0.22141974,0.2231491,0.14418781,-0.1819335,0.06318793,0.07551815,0.013120017,0.026478333,0.17144643,0.20354909,-0.025801083,0.09563589,0.13361692,-0.41760826,0.040175736,-0.17026378,-0.19466652,-0.05432027,0.18371315,0.1621044,0.2777348,-0.0043985685,-0.30534434,-0.25559333,-0.16530213,0.0757989,0.37141946,0.08941743,0.0727481,-0.3895476,-0.025597261,0.10102028,-0.40099558,-0.04700763,0.19691367,-0.13239014,0.10733208,0.033560544,0.059922542,0.07629162,0.19463187,0.037777264,-0.20208624,-0.25405315,0.14043294,-0.07810937,0.022607775,-0.11450584,-0.10797748,-0.41610175,0.04425417,-0.18930565,-0.016016962,0.08716923,0.32075876,0.04945217,-0.5015568,-0.4781332,-0.51551306,0.20644896,-0.2946382,-0.2590458,-0.26508954,-0.025373084,-0.4248083,-0.01071946,0.06546844,-0.06100031,-0.43630922,-0.021060241,-0.07559159,-0.13208139,0.082916126,-0.087156184,-0.24487342,-0.017998112,-0.12413601,0.04822078,-0.08090481,0.020793501,0.24622758,-0.2988583,-0.05414842,0.06462983,-0.01589975,0.22435673,0.2661104,0.18509309,-0.17161198,-0.3427932,0.042254858,0.20221718,-0.15761408,0.059822857,0.06831831,-0.1991032,0.05414875,-0.020695474,0.02582694,0.13716494,0.21507996,0.2984665,0.27934536,-0.08274893,-0.15591764,-0.47009355,-0.01907846,0.026679622,0.0811479,0.07484659,0.42422593,-0.07426728,0.12989745,-0.07955722,0.035726923,0.038189705,0.03294481,-0.04002277,-0.25986603,0.04883048,-0.11420738,0.0624297,-0.35297343,0.21246625,-0.03801535,0.07505959,0.49781904,0.08400042,0.044402026,0.064616606,-0.17100872,0.16635855,0.07528754,-0.000793633,-0.2906031,-0.072587505,-0.45582747,-0.50332034,-0.0070399577,-0.13311355,-0.3123568,0.09833154,-0.22652863,0.0062840125,0.09579917,-0.127367,-0.12773235,-0.36339152,-0.2537296,0.19916844,0.22853741,-0.07075162,0.04558543,-0.34823504,-0.16205694,-0.1610182,0.11667629,0.16995513,0.0785011,0.15521091,0.08826178,-0.24002399,0.21935488,0.05001985,0.04795563,0.15820609,0.0046915733,-0.023312364,-0.04274844,-0.08990065,-0.19820721,0.029435247,-0.2230435,-0.10019926,-0.18752028,-0.3015009,0.11089657,-0.15286371,-0.042650223,0.120139994,0.38703132,-0.31121308,-0.36357135,-0.24265158,0.024273342,0.071855515,-0.18953544,0.10944358,-0.056340463,-0.3576803,0.10339287,0.03575741,-0.22279944,0.027639396,0.1538455,0.13876705,0.099662684,-0.24714927,0.03612821,-0.45840347,-0.14553571,0.036508713,0.010925925,-0.29047817,0.228188,-0.0029093218,-0.1513171,0.1886694,0.047952898,-0.07199385,0.2164825,-0.3224865,-0.009970275,-0.15634331,0.05375631,-0.0685899,-0.056321725,-0.009725066,-0.3245202,-0.19722646,-0.08653327,-0.070620164,0.049708847,-0.0137669565,-0.062041428,0.121848285,0.07131706,-0.016209373,-0.23480219,0.2553811,0.011880664,0.13473544,0.07619271,0.06537064,0.26976648,0.04026965,-0.057175014,0.003578301,0.29737374,-0.30465606,-0.35961914,-0.1379481,-0.0017511457,0.045323554,-0.3000884,-0.064982146,0.18608157},
{ -0.016675152,-0.22238885,0.1524573,0.044204377,-0.056743227,0.07919825,-0.06575963,0.13905036,0.012015135,-0.030284371,-0.0897119,0.23480076,0.057324562,-0.24736176,-0.33669612,0.09719234,0.10415059,0.02734413,0.32868704,-0.18934585,0.09013391,-0.4248751,-0.036678508,0.07794684,-0.08494346,0.14410079,0.13416569,-0.14139378,0.16074243,0.115887426,-0.37426096,-0.28468144,-0.6367049,-0.08267502,0.07763189,-0.11874352,-0.43119806,-0.09485286,-0.2918337,-0.19017413,0.15335359,-0.31075644,-0.17888603,-0.0020220792,0.059204753,0.098399214,-0.23131548,-0.10535314,0.19860584,-0.043886762,-0.08871136,0.087239526,-0.43362242,-0.24953595,-0.1164415,-0.2196739,-0.27606976,-0.49471474,0.22561844,-0.1737032,0.02273883,0.0700741,0.076373294,0.12128206,-0.6777903,0.041067015,-0.039526124,-0.30432674,0.29163495,0.41899037,-0.3176985,-0.2446283,0.24056548,0.21678628,-0.30349985,-0.48818964,-0.039767228,-0.5372252,0.05831808,-0.42671847,0.21154086,-0.16304436,0.15687186,0.39564976,-0.24409413,-0.03110823,-0.32390243,0.11461094,-0.04668638,-0.36207718,0.1491678,0.35476843,0.10392132,0.1599458,-0.17252736,0.15089257,0.068707295,0.017983446,-0.033384964,0.15296444,-0.34823748,-0.41323996,0.15481234,0.091121815,-0.032678716,0.16983137,0.06851876,-0.39170352,0.07574757,-0.42861518,0.44854918,-0.10928362,-0.23371668,-0.46797457,-0.35203132,0.035626728,-0.610215,-0.03069182,-0.037170287,-0.17383802,-0.08925281,-0.07871671,0.0428576,-0.02865862,-0.05648522,0.24366313,0.1761287,-0.26613313,-0.35030773,-0.35508862,0.2464312,0.090434,0.030611852,-0.18855509,0.038965493,0.12864071,-0.17952533,0.0036642957,-0.39314392,0.11312488,0.0278748,0.14380959,0.0035609824,0.11729454,-0.11913488,-0.28870726,0.5531504,-0.029213324,-0.50888467,-0.005268283,0.0660214,0.09719158,0.08262752,-0.31603396,-0.06595766,0.21958849,0.18339798,-0.08318825,-0.44648808,-0.123937115,-0.40627182,0.078394435,-0.22022726,0.011591045,0.22959122,0.55609524,0.09244362,0.057826407,-0.24068846,0.096568316,-0.13838771,-0.17123243,0.15973264,0.22538163,-0.044187095,-0.032867078,-0.030278893,0.18995419,-0.2244565,0.19718023,-0.05279643,0.100630656,-0.17603555,-0.46499488,-0.013680911,0.105769716,-0.40519947,-0.40685794,0.1607097,-0.20811485,0.039205715,-0.025753977,0.06756022,0.037098918,0.13097085,0.028441653,-0.25558725,-0.24403292,0.013746582,0.051238425,0.26422486,-0.21749867,0.15720385,-0.1020502,0.2640307,-0.03657807,-0.1431458,-0.036581986,0.23605093,0.1631645,-0.42586926,0.09528644,-0.08354876,0.0690101,-0.0351305,-0.5187744,0.18876253,-0.3116051,-0.4649973,0.10313442,-0.29177657,-0.12638815,0.137156,-0.20192945,0.08330117,0.031361964,-0.07576272,-0.108718336,-0.2249854,-0.3360978,0.105897814,-0.31091365,0.045877248,-0.024866207,0.15193543,0.21010506,-0.16226551,-0.13272008,-0.50995666,0.26254752,0.0049096504,-0.11222734,0.18373853,-0.095782414,-0.29871002,0.045106065,-0.35590547,-0.2709231,-0.18711503,0.17084716,-0.13912733,0.13031164,-0.4015501,0.20062506,-0.26516294,0.13365005,0.03540821,0.14014861,-0.083744265,-0.016229715,0.25320384,-0.006393722,0.2760129,-0.09668671,0.15843731,0.009146417,-0.11653901,0.120774396,-0.25695002,0.11831649,-0.11623956,-0.17390676,-0.18119672,-0.23510268,0.19757849,0.23081872,-0.32387874,0.064341746,0.024516687,-0.06425531,-0.09719481,-0.04801567,-0.11948788,-0.05313084,-0.33260617,-0.14309041,-0.19338676,-0.20433486,-0.48533797,0.05352843,-0.5546406,0.056398973,-0.08335477,0.17494592,0.13029365,0.0011968488,-0.18119556,0.17440754,-0.050404206,-0.19464484,-0.031236114,-0.103089735,-0.07687376,0.042894114,-0.04040288,0.091724366,-0.1614692,-0.36280474,-0.33888167,-0.2685387,0.07592869,0.30916432,-0.15601246,-0.042656492,0.1749079,0.04274071,0.13532394,0.06376637,-0.25272217,-0.5150372,-0.117377885,-0.045141373,0.13311028,-0.014255546,-0.35111013,-0.15355828,0.109680235,-0.1957774,0.052171588,0.05777953,-0.04554135,-0.081529446,-0.019280734,0.2314438,0.043883715,-0.2501643,-0.3144216,-0.74013555,0.20338172,-0.071435586,0.031555768,-0.0026412054,0.07714207,0.3127044,0.0821518,-0.12823538,-0.23971415,-0.3579372,-0.09852879,-0.43854055,-0.007345039,-0.088696636,-0.24672,-0.26915488,0.10323114,-0.18120712,-0.6095494,-0.3034411,0.075151145,-0.2032985,0.058340315,0.012444529,-0.016096754,-0.44131652,-0.13056898,-0.044837434,0.009850395,-0.008123861,-0.11872692,-0.1961711,0.16118187,0.096683845,-0.03640235,0.15256253,0.076045185,-0.29192266,-0.06960529,-0.21811922,0.13634573,-0.37712535,0.13899885,-0.13364707,-0.043519028,-0.23446439,-0.16194251,0.06774592,0.07660354,0.08404398,0.14278796,-0.201948,-0.3452646,-0.48337662,-0.10872585,-0.14731684,0.00664659,0.0669012,-0.21413028,-0.017838452,-0.174212,0.2191996,0.08259981,0.11947953,0.083574474,-0.52437127,0.11089267,0.273794,-0.13184822,-0.0803319,0.0039013345,0.028080618,-0.06745848,-0.014317347,0.31435445,-0.11557158,-0.049753815,0.34648684,-0.1289846,-0.4327094,0.16198331,0.10010178,-0.010543673,-0.3303657,-0.16600612,0.06223472,-0.07368249,-0.17944118,-0.41193113,-0.22484553,-0.25100258,-0.18611546,-0.4163767,0.024019582,-0.3659937,-0.0010027435,0.19899566,0.19594136,0.03533123,-0.074543774,0.041144498,-0.24156605,0.10168044,-0.33958375,-0.019499196,0.08258889,-0.36462328,-0.13728033,0.20185602,0.19622266,-0.13680501,-0.0025102207,0.001965028,0.26201022,0.16572966,-0.17537574,-0.5802087,-0.25820714,0.014108283,-0.007592091,-0.68795884,0.41398633,-0.045926623,-0.17690788,-0.6091901,-0.48441553,0.091333866,0.08038846,0.012371522,-0.19411477,0.5413434,-0.12053216,0.10430918,0.16547081,-0.2587935,0.08469369,-0.1878651,-0.17864871,0.12431911,-0.31981242,0.26790172,-0.03244504,0.09472413,0.31194592,0.123280354,0.035001125,-0.021784501,0.004821751,0.0984251,0.15700027,0.12695391,0.11179168,-0.14400637,0.06428037,-0.20551166,-0.16132736,-0.11927962,-0.6143404,-0.3559866,0.038489886,0.012773103,-0.07005402,0.11120717,0.061846275,-0.2364402,-0.2868593,-0.11010848,0.1888125,0.32505694,-0.14473727,-0.06432818,0.013166726,-0.09866663,-0.11128706},
{ -0.076917745,0.29841834,0.12681931,-0.3173657,0.058206044,0.23417735,0.17909089,-0.1059602,0.1366402,-0.17655139,0.28883973,0.1126105,-0.33540028,0.09154382,0.034763753,0.07196233,0.02565339,0.16241549,0.18550874,-0.0782539,-0.46682826,-0.24046187,-0.2755446,0.018327301,0.07474995,-0.2862814,-0.09930818,0.09480793,-0.2852679,0.1934866,-0.10617409,0.26240113,-0.370272,0.18786395,-0.21160689,-0.10755508,-0.30434275,0.090854086,0.17027806,-0.09946159,-0.11553601,-0.1862859,0.064659566,-0.0066834395,-0.284447,-0.008914822,0.23880799,0.15573384,-0.34551316,-0.23939969,-0.07256436,0.029297547,0.16683479,-0.11132539,0.205651,-0.37667632,0.27557063,-0.37103343,0.027965246,-0.31597856,-0.101580806,0.0827866,-0.069717005,-0.15067536,0.056027737,0.10854667,-0.17965066,0.19190161,-0.1482269,-0.39651355,-0.08481998,0.16363306,-0.019817468,-0.29641914,0.09568054,0.31416014,0.06644298,-0.003500377,-0.089823194,0.09977481,-0.032803424,-0.13665028,0.108041085,-0.34243694,-0.054842085,-0.053560548,0.1551162,-0.05938651,0.072384894,-0.09178718,0.20117629,-0.27192914,0.074276134,0.030072203,0.13062356,-0.07739145,-0.09943206,-0.099154025,0.14623408,-0.011874121,-0.30310136,0.35624328,-0.15409973,0.004351587,0.26087737,-0.12436793,0.05777738,-0.33065954,0.054955885,-0.018283455,0.031107964,-0.038152337,0.32894036,0.005566003,-0.11192881,-0.19084209,-0.17731768,-0.21292919,-0.048886497,0.15935141,0.08981014,0.0038706074,0.08697008,-0.30978855,0.0130139515,-0.34745964,0.1563339,-0.03479519,0.07281787,0.19118738,-0.18384458,0.103040196,-0.16688243,-0.23616202,-0.00036601303,-0.5301587,-0.089079626,-0.27962616,-0.2542785,0.15655786,-0.035931896,0.06955356,0.02168521,-0.111936174,-0.38720146,-0.4142193,0.09498964,0.08511788,0.00455077,0.18130197,0.06955809,0.20553556,-0.12329981,0.06503428,-0.041197646,-0.019790743,0.11390548,0.12733263,0.37779996,-0.0034191913,0.459547,0.04827905,0.30648512,-0.021508522,0.17859179,-0.08744893,-0.12442149,0.04042062,0.26024103,-0.11475604,-0.0823075,0.43041292,0.13619201,0.011200702,0.024232082,0.20153363,-0.015053079,-0.3463102,0.07782605,-0.26046288,0.28903618,0.21877,0.031076739,0.36624584,0.1724236,0.10793059,-0.007967966,0.34159985,-0.1402446,0.13841058,-0.028888231,0.041295625,-0.19046806,-0.36357042,-0.22379036,0.022022925,0.0875115,0.23831208,-0.062319342,-0.14603624,-0.049579695,-0.07795243,0.2638493,0.103849284,-0.23359625,-0.059923828,-0.31865412,0.0078337155,0.033443645,-0.059263945,-0.36248818,-0.3080161,0.18697587,-0.07551611,0.032798007,0.02971204,0.14999889,0.11068288,-0.23195413,-0.31252187,0.065507695,-0.03190751,-0.06369598,-0.048835892,-0.00019513366,-0.172734,0.098373644,-0.37521625,0.103041485,0.2918805,0.09825609,0.19777168,0.14818121,-0.25376987,-0.37057772,0.075686805,-0.1963958,-0.33607963,0.122203104,0.2344598,0.011797251,-0.41740867,0.3752626,-0.19630452,0.20057195,-0.06940921,0.17119277,-0.30087876,-0.231707,0.19368836,0.0053665475,0.013037093,-0.24177046,-0.20977166,-0.28008327,0.11543841,0.07700574,0.090567745,0.05759267,-0.33438563,0.080256164,-0.33997357,0.16640851,0.026796386,0.036325492,0.08756809,0.27542228,-0.03523597,0.22283395,-0.033976883,0.035537563,-0.05625902,0.10307874,0.084582016,-0.55753505,-0.047635112,-0.14148198,-0.36405832,-0.10869876,0.09646779,-0.02286354,0.04425163,-0.16844472,-0.30874723,0.23969863,-0.34353915,0.26485363,-0.044473544,0.660339,-0.17710467,-0.22349752,0.21377702,0.0030782754,-0.29953507,-0.098637134,-0.047717724,0.057137717,-0.15799981,0.080457956,0.087481946,0.14033148,0.15524396,0.054148216,-0.05223535,0.014839498,0.20633392,0.02919552,0.17671064,0.32385916,0.16520588,-0.04083668,-0.30511126,-0.08808139,-0.41159925,0.16048083,-0.17896293,-0.31729594,-0.12714373,0.10958631,0.1429699,-0.007102231,-0.22073579,0.077680305,-0.14440157,0.013082972,0.12210576,-0.005560271,0.10404329,-0.0013907164,0.1706438,0.13322115,0.04259824,0.14869136,0.2507674,0.0044263606,-0.16313986,0.054639846,-0.10910984,-0.38171563,-0.280386,-0.030365603,-0.15972675,-0.08401328,-0.8179314,0.020963024,0.1282439,0.1355512,-0.24456456,-0.0687643,-0.06964507,0.07179526,-0.22595,0.13095845,0.1793264,-0.1414045,-0.03636067,-0.038866676,-0.19362992,0.03625642,-0.024904039,0.021788253,0.00015773009,0.037028596,0.22074105,-0.28083873,-0.6752401,-0.26191133,0.22986454,0.15248993,-0.28236654,0.11773648,-0.011209527,0.026494803,-0.6214694,-0.16700096,0.16152187,0.017357893,0.15853868,-0.086002596,0.20893024,0.12644994,-0.30852485,0.025608076,-0.23764654,0.05280349,-0.10928675,-0.0572553,0.26910332,0.20552903,-0.2014598,0.14947948,0.1388464,0.063442186,0.028810794,0.16421682,-0.19539396,0.19964233,0.06142108,0.07667896,-0.049031038,-0.33127138,-0.0657113,-0.05510968,0.03148344,0.07480118,-0.17938247,0.020972926,-0.16612881,0.010247723,-0.19100209,0.10443921,0.0556219,0.0015638674,0.074768335,0.0086771855,-0.1561956,0.03838019,0.11166199,-0.15164813,-0.005445563,0.13821813,0.17673115,-0.14895606,0.01646644,-0.442956,0.0759664,0.43614072,0.10023585,0.11337109,-0.008407869,-0.31283465,0.08099534,0.1296653,0.119891234,0.13978578,0.05721344,0.18443578,-0.34996286,-0.18369916,0.09805372,-0.40873945,-0.26082125,-0.08000245,0.12488722,-0.23896776,-0.30846393,0.10849377,-0.3201085,0.04627267,-0.03848597,-0.0068953214,-0.0016304101,-0.53488517,-0.10260104,0.4014333,0.13306715,0.097379,-0.1102621,0.0756863,-0.65587705,0.039123397,0.059329234,0.48464328,0.20768452,0.121865876,0.054944694,-0.009316183,-0.10738261,-0.07428069,0.11758105,0.14122555,0.014289481,-0.10666512,0.038395174,0.10382823,0.19947103,-0.1282795,0.08773994,0.019567614,0.02365776,-0.055172753,0.090562366,-0.5498198,-0.46364063,-0.076548144,-0.33836192,0.10057765,-0.19864719,-0.27087373,0.0394676,-0.14543635,-0.20902307,0.0979236,0.14483647,0.1547255,0.055733774,-0.10615935,-0.20957103,-0.0045030885,0.3219004,-0.07294705,0.16908568,-0.039815225,0.37700152,0.14884293,0.07739345,-0.037479106,0.12703142,-0.044180274,0.14496256,0.05858575,-0.021159379},
{ -0.21227287,0.39701375,-0.35295427,-0.24892364,0.15571411,0.070981055,-0.013179312,0.098303616,0.16074306,-0.037951916,-0.19831891,-0.70340794,0.038126558,-0.16605598,-0.08815287,0.08800136,-0.2675349,-0.24195981,0.12967137,0.002448213,0.12931745,0.033969473,0.10026523,0.017826853,0.08676618,-0.1367579,0.09557774,-0.2650969,-0.22907133,0.063617155,0.16566332,0.20807667,-0.15796992,0.12421334,-0.12871616,-0.12035662,-0.3752574,0.11238345,-0.38877857,0.15118235,0.08647181,0.2151334,-0.12723999,-0.031167157,0.133258,-0.010460164,0.3208492,0.18708429,-0.53730404,-0.02140251,0.029329302,-0.25848544,0.1704945,-0.2437481,-0.14401448,-0.52076614,-0.16754536,-0.15319574,-0.036217827,-0.031090382,-0.013317552,-0.36985046,-0.113661245,-0.31521598,-0.23895405,0.15470447,0.16320623,-0.18692662,-0.17662497,0.31403026,0.23420335,-0.28242648,0.0547985,0.14100578,0.030224599,0.17371124,-0.043874834,-0.13040416,-0.08895278,-0.37318078,-0.2542632,-0.13625218,0.1948185,-0.16721511,0.09075888,-0.03272746,-0.3157424,-0.51970786,0.12943234,-0.053461976,-0.025227182,0.3288426,-0.10997674,-0.16457658,-0.10126753,0.102657765,-0.008074261,-0.122673884,-0.022318082,-0.08812082,-0.036001336,-0.2192366,0.03425263,-0.047646448,0.19448875,-0.1833215,-0.061890528,-0.2969903,-0.24565788,0.12891544,0.05909381,0.07435427,-0.2781558,0.06681947,-0.26110095,-0.2480681,-0.037372082,-0.36868516,0.09215224,0.15633449,-0.15938254,0.07473518,0.15680093,0.013360913,0.07002558,-0.11814253,-0.30299592,0.106873,0.15092018,-0.15530626,-0.059448853,-0.47137856,-0.013666736,-0.017922247,6.181795e-05,-0.0063386364,-0.24417295,-0.31103918,0.21410933,0.2322849,-0.13201943,0.16962501,0.05916212,-0.20945078,-0.030363558,-0.15185815,0.27493283,-0.7969417,-0.072983265,-0.04093006,0.13073505,-0.42635256,-0.29618713,-0.07568336,0.22843379,-0.16566719,-0.6326035,0.041734274,0.3358247,0.08696929,0.0826068,-0.3903447,-0.38632086,0.13100648,-0.2895028,-0.1291501,0.20369247,0.057840206,-0.019801974,-0.15306626,0.1831838,-0.15953706,-0.2431012,0.13796638,0.05061526,-0.20180291,-0.010556837,0.0511306,-0.10849172,0.25356537,-0.0037566575,-0.2629395,0.04745095,-0.12362337,0.24529606,-0.4277637,-0.3136023,0.06698969,-0.101560965,-0.33771172,0.08471619,0.041192096,-0.18664692,0.20613892,0.17026846,0.11315122,0.10346321,0.18172435,-0.04512537,0.19324417,0.13526131,-0.37322643,-0.41225037,0.2207648,0.23305461,0.06827868,0.18813162,-0.2818722,0.13163783,0.13727716,-0.06677443,0.026125122,0.07486444,0.07257875,0.2517829,-0.00021594137,-0.19601007,0.06806352,-0.26599276,0.24338403,0.041777015,-0.02564513,-0.11743708,0.09110878,0.09227548,0.22433893,-0.103730954,-0.14244717,0.018791443,-0.30820093,-0.13845386,-0.35399175,-0.35366473,-0.32492003,0.15030752,-0.1688811,0.0023693738,-0.25866142,0.02626013,-0.11190264,0.012313994,0.25675154,-0.48316428,0.11233739,0.12536463,-0.0802821,0.17936957,-0.090160236,-0.23446828,0.043985233,-0.28458092,-0.086168505,-0.4348955,-0.2902425,-0.027076239,-0.036272064,-0.5320156,0.035730064,0.027662408,-0.21441483,-0.18595375,0.10600101,0.08286854,0.11685646,-0.3719627,-0.42111814,-0.29322708,-0.36505538,0.22330563,-0.21381521,0.011037767,-0.46421304,-0.2919436,0.092217736,0.23866002,0.061655346,-0.3132156,-0.23068045,-0.047188822,-0.036570057,0.010354041,-0.07187368,0.10001893,-0.051962756,0.04385331,-0.09978694,0.022600938,0.18444437,0.2630654,0.040089056,-0.115025535,0.08506843,-0.008754744,0.022192333,0.038289804,-0.016574258,-0.25609043,-0.35576826,0.027155677,-0.6134714,0.099021815,0.16674834,-0.0044410066,0.10275585,0.05832075,-0.3351373,0.027683822,0.075372994,0.115616396,0.07193311,0.01107782,-0.025843529,-0.1836534,-0.18997352,-0.023453686,-0.30494004,0.08546511,-0.014735686,0.083009,-0.15201114,-0.0031522727,-0.022003474,0.11622619,0.195673,-0.30330244,-0.31459525,0.23436747,0.089379795,0.03399888,-0.28188005,-0.13591057,-0.1806585,0.12118102,0.06224666,-0.058287397,-0.15992983,0.092987746,-0.06973434,-0.4943149,0.15830019,0.04562972,-0.12666619,0.10445462,-0.38250592,0.036312606,0.123025216,0.40854535,-0.07094827,-0.015488684,-0.072646774,-0.057493452,0.16654061,-0.2082863,0.07053322,0.1387664,-0.22719856,-0.13457383,0.11581491,-0.22972867,-0.08499373,0.060457207,0.061333176,0.055331923,-0.42393658,-0.10699564,-0.15369442,0.08436631,-0.09824268,-0.19961944,0.08290777,-0.50292677,0.10961781,-0.032822065,-0.15440543,-0.25776768,0.085789315,-0.0323481,-0.29914698,0.042572565,-0.45319942,0.10219133,-0.0873871,0.0139639415,-0.068805344,0.1404606,0.06556787,-0.19674271,-0.17190614,-0.58670264,-0.1402247,-0.058276728,-0.33715826,0.094181105,0.045111854,-0.19820169,-0.3075946,-0.22057322,0.07968781,-0.29302403,0.1697315,-0.25932965,-0.08307123,-0.051628374,0.33509132,0.073223166,0.3921241,-0.06455391,0.10088267,0.022250682,-0.0055642514,0.23949705,0.041139632,-0.37913653,0.10393867,-0.13383487,-0.267054,-0.079992436,-0.112579,0.007206113,0.10375156,-0.3248751,0.04418978,0.10047822,-0.06053226,-0.034440167,-0.30347854,0.13840356,-0.62816834,0.023044711,0.29387358,-0.22126813,0.070776135,0.145764,-0.0022711612,0.04444312,0.06539731,-0.1304083,-0.24213554,-0.0071721408,-0.018323207,0.13567804,-0.25928175,0.07791061,-0.121042475,-0.03393266,-0.4169695,-0.36426735,0.22052531,-0.38289312,-0.07446795,-0.4171252,0.02170494,-0.4937471,0.16779274,0.3752242,0.18417223,-0.65124416,-0.048434447,0.19177735,-0.30371338,0.04752109,0.07438987,0.16771895,0.23651314,0.13129064,0.11199707,-0.07961964,0.11334792,-0.098696694,-0.47308856,-0.5715286,-0.32034975,0.24340838,0.07359346,0.0612235,-0.4062054,0.024813568,0.065458156,-0.40215632,-0.28011405,0.08804871,-0.050452925,-0.16197588,-0.069755435,-0.07827589,0.19812466,-0.054736063,-0.095871724,-0.19446741,-0.36833057,-0.5525943,-0.06810675,0.23495996,0.023528459,-0.12703422,0.16607255,0.064084694,0.043334913,-0.100781456,-0.7070105,-0.23609644,0.028304217,0.08571028,-0.082549945,0.15965538,-0.27622744,0.23667654,0.13943423,-0.032979537,0.01697548,-0.0673915,-0.34242567},
{ 0.015068593,-0.13486074,-0.0012499684,0.08156422,-0.062495988,-0.014802042,0.1543424,0.059988435,-0.045576703,0.066652924,-0.40518105,-0.081121534,0.042521022,0.07413722,0.14235298,-0.02940519,-0.19004872,-0.11452929,0.291819,0.3140908,0.13449736,0.0652089,-0.2427281,-0.2734247,-0.3080793,0.15046674,-0.436064,0.049637515,0.07082747,0.0662009,0.030244194,-0.01894832,0.21555611,-0.061602872,-0.18098055,-0.12820363,0.32146955,0.0063223047,0.47579384,-0.25449532,0.13451873,-0.15330176,0.060808893,-0.17747769,0.23193902,-0.15585023,0.21271746,-0.41741297,0.08873585,0.011518841,0.27396637,-0.26858127,0.25835752,0.052110083,0.19432504,0.04060529,0.1449567,0.17226516,-0.11961267,0.056514617,0.043207183,-0.22988641,-0.4140524,0.25267807,0.092896596,-0.091964826,-0.054839894,-0.34770533,0.20234588,0.07983277,-0.4405097,0.21316555,-0.06974325,0.31969565,0.09027209,0.34253964,-0.07570026,-0.08871018,-0.04197766,-0.13889109,-0.17944369,-0.111412674,-0.1556963,0.009624748,-0.06884056,-0.13569506,-0.16930398,-0.017289553,-0.041849807,0.10541427,-0.0067013763,-0.19591467,0.013508256,0.1777481,0.1448619,0.36064228,-0.09108732,0.11871075,-0.34946653,-0.0022043264,0.48010045,0.24899839,0.044679776,0.021699402,-0.2195478,0.09325931,-0.015591045,0.1974192,-0.080152795,-0.033257086,-0.12936299,0.056073293,-0.16107902,-0.32250077,0.027927142,0.1057755,0.107503496,-0.05935855,-0.043385237,-0.43015867,-0.06323193,-0.12441751,0.083763026,0.017989758,-0.35671285,0.11713586,0.3696745,-0.24155183,-0.47279155,0.057823095,-0.31594452,-0.15787233,-0.18969546,-0.08513667,0.0621301,0.18045759,0.13679942,0.13800564,0.1662938,-0.28408206,-0.039480492,0.036311865,-0.20470102,0.35512152,-0.16000177,-0.07217525,-0.035615988,-0.45163476,0.08894427,-0.50020427,-0.4936914,-0.3240987,-0.20819046,-0.09240652,-0.042152084,0.18786262,-0.23261742,0.047776036,-0.2923492,-0.10415155,-0.053386655,0.12492476,0.2761513,-0.48945314,-0.20120671,0.098280944,0.05732781,-0.14894825,-0.115493126,0.10962695,-0.119292445,0.08911468,-0.16750184,-0.14861624,-0.030180514,-0.17203127,-0.004640541,-0.34557402,-0.15218796,0.0832049,-0.37646455,-0.22514285,-0.04287161,0.13019645,-0.37399036,-0.027328782,0.09686016,-0.086025454,0.23717338,-0.052192032,-0.32368904,-0.04672609,-0.11440864,0.07085067,0.2455099,-0.2949443,-0.18682353,-0.18917173,-0.04429041,0.11586003,0.32991165,0.107379206,-0.25866896,-0.017009297,-0.2330712,-0.203339,0.011085027,0.103153355,-0.2340919,-0.35016245,-0.023694452,0.16548954,0.023367403,-0.3573961,-0.3443059,-0.18601108,-0.093676366,-0.376715,0.003735907,-0.29955634,-0.020964757,0.028975077,-0.016813401,-0.04936459,-0.05646206,0.022505896,-0.29041955,-0.04134997,0.06462337,-0.3369592,0.3192924,0.13968651,0.1161315,0.07055675,0.109036446,-0.25629148,-0.00565807,0.004926857,0.3788296,0.04608807,-0.06051505,0.05781085,0.21636324,-0.20602849,0.03777034,-0.011260568,-0.15756978,0.16397594,-0.07960492,-0.09826912,0.051780242,-0.028072717,0.07218567,0.20019144,-0.13615172,-0.052300867,-0.4288405,0.08233505,-0.19568968,0.17857452,-0.20846057,0.06199868,0.18475893,-0.20522346,-0.046424568,0.16040425,0.26369065,0.24719176,0.11788875,0.03727819,-0.27760524,0.1787097,-0.090363726,-0.16513845,0.136444,-0.12543777,0.112432644,0.10870458,0.17510079,-0.32734174,-0.098686084,-0.2292785,-0.23307857,-0.029987289,-0.081346884,0.030477026,0.1565038,-0.0811216,0.26625448,0.0026705398,-0.007272422,0.08116944,-0.15372477,0.13602489,0.22392638,0.016895639,-0.16732794,-0.04629233,-0.07177859,0.13378654,-0.18381178,-0.14861162,-0.026114332,-0.19133025,-0.09368112,-0.20219584,0.075193584,-0.10771862,-0.21703665,0.15488987,0.13031533,-0.092521705,-0.0999242,0.05567516,-0.106605016,0.051861268,0.12802985,-0.087583795,-0.0098464005,-0.22777572,-0.06302944,0.062445454,-0.2173539,-0.11680966,-0.008847456,0.09840477,-0.20098464,-0.3371813,-0.10991311,0.042625215,-0.010979745,-0.00427508,-0.08043284,-0.25719476,-0.1068008,0.1639288,-0.112110786,-0.071864,-0.20360404,0.21235399,0.0014806478,0.03499169,0.2574832,0.17986792,-0.14576192,-0.2943063,-0.57563496,-0.35950786,0.14193828,-0.037181746,-0.33535942,-0.04100092,-0.116402775,-0.17564929,0.08207939,0.00057479506,0.24275774,0.031770688,0.3340516,-0.0633649,-0.12378168,0.011120354,-0.3956625,0.18164484,0.23239522,0.07741216,0.088689804,-0.018048577,0.23303026,-0.23569138,0.050821483,0.14968796,-0.10793308,0.027867036,0.015340121,0.2076694,0.17213418,0.20404787,-0.34463742,-0.091387294,-0.08451894,0.049811892,-0.30399597,0.06189724,-0.20437115,-0.12009982,0.34202188,0.19221498,-0.24418704,0.13215643,0.11696247,0.029903103,-0.1744084,-0.028661838,0.032947473,0.11955849,-0.36678857,-0.14029706,0.103724435,0.13123837,0.09791868,0.2465321,0.33882636,-0.32620364,0.039560348,-0.1677505,-0.13993739,0.12525557,-0.054012787,-0.040148277,-0.42520198,-0.25167066,0.10831089,0.023964383,0.12127784,-0.19953524,-0.22133975,0.189554,0.16258994,-0.10871727,-0.08797348,-0.23524895,0.09785377,0.041058667,-0.09239415,0.07447188,0.37182593,0.21284856,-0.1802164,0.044931013,0.013341067,-0.11939307,0.16391338,0.42144418,-0.43178123,0.14281349,-0.55383885,0.011983744,0.050125357,-0.19096561,-0.04747492,-0.1974172,-0.18999982,0.015260927,-0.46440086,0.2572804,0.28138542,0.25783265,0.2802226,-0.024285382,0.0704296,0.1440841,0.09671214,0.12453416,-0.017326986,-0.20876485,0.13284367,-0.105833635,-0.18528941,0.026000103,0.16364393,-0.21835314,0.13959669,0.058069054,0.16892223,0.035093103,0.0068661487,0.27236983,-0.03808204,-0.25549603,0.08837597,0.09770007,0.1722796,-0.16887997,-0.050809477,-0.124998555,-0.1751011,-0.3006993,0.03853614,0.1899213,0.38642845,-0.3739898,0.16505674,0.19434123,0.04933608,-0.044599783,-0.30391926,-0.27647394,-0.067347355,0.11160432,0.07743307,-0.009574977,0.06839707,0.44234225,-0.3466932,-0.19496065,0.11758909,-0.40436688,-0.33000374,-0.19011658,-0.116047435,-0.35263556,-0.12730351,-0.4059293,-0.029979698,0.15095963,-0.38218683,-0.07544558,0.014224719,-0.08927089,-0.09765711,-0.120479606},
{ 0.33658072,-0.31777745,-0.34390163,-0.010973716,-0.06353616,-0.038521077,-0.052074227,-0.16632,-0.11715497,-0.054804754,-0.45359793,-0.060766228,0.05560385,0.10852855,0.09579167,0.14032528,-0.25062448,0.017608384,-0.14848503,-0.074449636,-0.15936081,0.071727425,-0.010934423,0.1478985,0.040482122,-0.24262656,-0.064609885,0.12422093,-0.1332828,-0.007482891,0.2918336,0.19402525,-0.20386012,0.0016558454,-0.65154475,-0.2896165,-0.26309276,0.105398804,0.22677535,0.18469231,-0.36523652,-0.1608748,-0.009594033,0.109588586,-0.3330604,0.079310715,-0.17983413,0.1729051,-0.2218215,0.29122287,0.12692793,-0.43726674,-0.17500634,0.10443342,-0.5162742,-0.1947913,0.06367559,-0.49167195,-0.2511337,-0.12233381,-0.039283317,0.043940615,-0.076388516,-0.107286714,-0.31533402,0.1787149,0.08421854,-0.20142196,-0.15458658,-0.07807616,0.25626922,-0.32971293,-0.21050152,-0.2623292,0.11478978,-0.22668448,-0.19800285,0.123346515,0.00877905,0.24966243,-0.19791926,-0.015050118,-0.027912542,0.08382881,0.050431877,0.023415666,0.02043216,-0.0043177805,0.054048315,0.0639495,-0.0276408,-0.30890208,0.091854766,-0.33473867,-0.2794618,0.13684916,-0.49355772,0.1262308,0.20598085,0.14727649,-0.29412845,-0.32608643,-0.26209882,0.061496846,-0.23798504,-0.022393428,-0.019304972,0.002473193,0.046712633,-0.5819677,-0.05804456,0.060878616,-0.43978572,0.2729758,-0.005062919,0.11944955,-0.30568877,-0.22977233,-0.038027022,0.022651019,0.12744804,0.07131985,-0.027073644,-0.144852,-0.14965403,0.05429518,-0.24258828,0.14996342,-0.012916166,0.015609844,0.07398443,0.009915362,0.0069718007,0.1866507,0.21620315,-0.2241402,-0.014142687,-0.2292723,0.16562425,-0.07918535,0.07609902,0.07818578,0.060761455,-0.15664248,0.008531066,0.09606988,-0.121547855,0.16783564,-0.18372062,0.20164704,-0.038792815,-0.019122122,-0.17414533,-0.0644328,0.12583423,-0.49633142,-0.0042932536,0.18485264,0.05208615,-0.004429471,-0.07906662,0.029555036,-0.3555024,-0.0078801,-0.3459392,-0.32156983,-0.6047504,-0.10333067,-0.2473014,0.21922074,0.15247592,-0.40144697,0.26521236,0.17072415,0.06914921,-0.22368528,0.09458953,0.039607942,0.0067463657,0.51556796,0.04366939,0.1315821,0.08308551,-0.20334937,-0.06334321,0.0121946,-0.08548017,0.00796663,-0.52584815,-0.09588332,-0.052983303,0.0558016,0.00047727616,0.009936235,-0.47681284,-0.06414201,0.047654092,-0.23760705,0.024931148,-0.33892533,-0.15700571,0.07448084,-0.4157549,-0.094805986,-0.07441058,0.0077833137,-0.21181291,0.007368114,-0.31533894,0.054136217,-0.08634532,-0.15737855,-0.15201236,-0.016258651,-0.023651388,0.10417738,0.26444185,-0.025098326,0.058624268,0.036161985,0.19713898,0.13826476,-0.20527561,0.075130545,-0.10610185,-0.28495917,-0.06180442,-0.040146355,-0.09922102,-0.5129228,-0.35839397,-0.28553575,-0.3426488,0.03358659,-0.18473724,0.12151799,0.25064272,0.12577984,-0.5200426,-0.44333,0.11021322,-0.09388179,-0.23528057,0.27592024,0.1275992,0.018546807,0.13324898,-0.04401549,-0.4615709,0.047324605,0.02962601,-0.6607796,-0.14422739,-0.21148582,0.16514543,0.12833376,0.08593712,-0.5150896,-0.23961136,-0.02184818,0.07062121,0.1832539,0.016311277,0.027339691,0.08100481,-0.008559616,-0.39572868,0.088982366,-0.025188947,0.04158302,0.15646009,-0.057610642,-0.45327914,0.080176115,-0.22578824,-0.3855773,-0.15446228,-0.031509683,-0.060299087,0.068719424,-0.01971967,0.13860516,0.12334728,-0.1668525,0.0141960615,-0.54242903,-0.35340098,0.10462024,0.09150821,0.2288285,0.10675908,-0.27895635,0.0693762,-0.13934025,-0.09251347,0.019249495,0.020594101,-0.3672998,0.069096304,-0.0985085,0.07359847,-0.051615473,-0.013738889,-0.0055793216,-0.059084136,-0.013399771,0.04553675,0.01904821,0.04284983,0.019030448,-0.3632754,-0.43663505,-0.7884042,-0.00045840055,-0.25950906,0.10571417,-0.1618096,0.12266161,0.09530285,-0.1370995,0.056524977,0.1061843,0.21619436,-0.20026748,-0.12647471,0.11293161,-0.052707635,0.016530132,-0.02247399,0.09839441,0.094929844,0.08535855,0.23842825,-0.111434735,0.041066423,-0.2218923,0.021595145,-0.0019458001,0.15187518,-0.4025431,0.099451095,0.10083258,-0.079589844,-0.13625261,0.10578457,0.21119842,-0.15961649,0.20512891,0.07625369,0.087606296,0.31495357,-0.07100176,-0.47347972,0.21407346,-0.22978146,0.07635093,0.10104998,0.34688422,-0.12648243,0.03134461,0.12959126,0.00024339801,-0.006883744,-0.24550395,0.07597653,-0.12251686,-0.0019472424,-0.1831681,-0.22797903,0.12546316,-0.09795145,-0.2702718,0.07576838,-0.13137752,0.14884445,-0.3895124,0.06669465,-0.043809187,0.037771393,-0.39954126,-0.08572958,0.03741996,0.0049843206,0.19521073,0.03702541,0.1057424,-0.068838,-0.12400505,-0.18297483,0.15644574,0.027056344,-0.20479941,0.14239086,0.06856618,-0.013986019,0.23106629,-0.08184295,0.090057984,0.015370821,-0.09280183,-0.22501613,-0.3593169,-0.3581846,0.085251495,0.103917226,-0.03712552,0.039336946,0.037745096,0.18735091,0.08541472,-0.15282154,0.045027915,0.1850216,0.07785609,-0.0018663098,-0.15528278,0.06303347,0.09384419,-0.24424282,0.10471185,-0.14440481,0.030813148,-0.2477615,-0.032593723,0.20961154,-0.13604547,-0.2815046,-0.030066833,0.07540299,-0.31878522,0.17783158,-0.07923574,-0.21197574,-0.447528,-0.47173685,-0.16747724,0.16022,-0.18011291,-0.31115705,0.20119606,-0.123736925,-0.20927157,0.036504064,0.006613314,0.24072018,-0.09023938,-0.20894074,-0.50897926,-0.1125125,0.024919244,0.11282221,-0.18657857,0.10341548,-0.35108897,0.029239848,0.08280804,-0.24919464,0.28794196,-0.009078228,-0.007249749,0.016122663,-0.009101269,-0.044376954,-0.4626518,-0.4752053,-0.21454741,0.082784444,-0.49439943,-0.23189734,-0.22197856,-0.34370652,0.07866248,-0.53455806,-0.01954856,0.056464575,0.057970528,0.06762006,0.06944762,-0.026199365,0.050244194,-0.047350273,-0.5171828,-0.021533675,-0.037489757,0.2703137,0.23066778,0.095933616,0.13662788,0.11261851,-0.14282957,0.23615743,0.060496695,-0.03539888,-0.3959588,0.2691516,-0.028193275,0.070366815,-0.25768718,0.10875819,-0.3558573,0.12684591,-0.061977375,0.13219804,0.05557279,0.22958732,-0.1931316,0.06965366,-0.012232836,-0.0507767,0.15657935,0.03692226,-0.4765251},
{ -0.14781246,-0.27326545,0.19784053,0.06675097,-0.44988167,-0.0463362,-0.15333778,0.036584098,-0.311267,0.14789663,0.02895638,0.2324726,-0.07877522,0.011153522,-0.15109672,-0.4085104,0.03306131,-0.013009389,-0.50706357,0.028028648,-0.61918545,-0.17241178,-0.065419175,0.054906745,-0.13283554,0.13217854,-0.023142625,0.062346753,0.122186944,-0.3529084,-0.0078030005,-0.12870954,0.06397968,-0.38710415,-0.34946182,-0.2145083,0.1915403,-0.17388393,-0.22522993,0.2205516,0.23806436,0.07707265,0.026200008,-0.078938164,-0.15407018,0.10731468,-0.16378964,-0.07893922,0.37567014,-0.05614644,-0.22550195,0.23478176,-0.10901715,-0.05363581,-0.0768347,0.20624456,-0.36293578,-0.18764433,0.22360842,0.19320732,0.054531887,0.19095658,0.2356158,0.04553982,0.11066103,-0.16787489,0.032901905,0.017061695,0.162151,-0.5430951,-0.12642314,-0.118845075,-0.16197674,-0.42636386,0.08445631,-0.45630103,0.030079972,0.06164267,0.05884752,0.22152066,0.10587952,0.13549376,-0.100796856,-0.35111803,-0.14304426,-0.005979882,0.07692566,0.05620479,-0.34955335,0.05908394,-0.12401258,-0.508573,0.05822358,0.122709125,-0.085099526,-0.5634664,0.11600899,0.033971973,-0.027045613,0.13421848,-0.89085793,-0.15941072,0.048937246,0.07030813,-0.041586373,0.084242,0.050576877,0.014778991,0.12241377,-0.09238616,-0.4747586,0.06397798,-0.048851408,0.21316822,-0.09876537,0.15559496,-0.4121527,-0.17447485,-0.0349032,0.2456266,0.0835574,-0.032820154,0.17300409,0.27596968,-0.14230314,-0.059158247,-0.38721532,-0.35001236,-0.24846902,-0.13624127,-0.11042758,0.020107623,-0.20805398,0.13355768,-0.11969752,0.14276774,0.05955471,0.090400815,0.013441739,0.00748693,0.0666919,0.06603848,0.032206066,-0.22887522,0.2717138,-0.10096581,-0.3620985,0.40458313,-0.41094258,0.09715174,-0.36359602,0.21407758,0.10119321,-0.37514687,-0.11842667,0.21153882,0.14227156,-0.046889212,0.15901153,-0.105873816,-0.041896865,0.10182634,-0.52761143,-0.22173414,0.13693781,-0.3419424,-0.033864427,0.06385338,-0.15292601,-0.24152166,-0.43603247,-0.010981523,0.11144921,-0.18093511,-0.11235515,0.1546988,-0.0926251,0.013235654,0.017619682,-0.20345365,-0.3392472,0.12430009,0.10722191,0.06651386,0.33221352,0.12129666,-0.5393755,0.37469772,0.15242977,0.0726158,0.017238898,0.019292478,0.15369329,0.14388748,0.0868395,-0.051561076,-0.028916799,-0.03389939,0.068203345,0.10002891,-0.5610946,0.00046245256,0.23660348,-0.21903872,-0.22908497,-0.057043023,0.07364232,-0.06744642,-0.11317059,0.012985764,0.23468217,0.12366552,-0.44759646,-0.08863464,0.16181627,-0.06079865,0.013709852,-0.073241904,0.13275097,0.056378752,0.1250519,0.07110689,0.101115175,0.07061737,0.08662663,0.0721444,0.13774441,-0.056154866,0.053442102,0.023619996,-0.22352129,0.11409153,0.031523243,0.078870095,0.14741851,0.06252324,-0.15867457,-0.04282312,-0.3915305,-0.2721663,-0.012197205,-0.0066230833,0.2126894,-0.4480794,-0.08334498,0.0006203566,0.17256993,0.014156505,0.43889335,0.13614705,0.21186635,-0.1433688,0.019806756,0.06897784,0.06437251,0.12021295,-0.054716934,0.11311531,0.018185524,-0.43605363,0.11479575,0.030584782,-0.38198653,-0.20358321,-0.069395974,-0.288133,-0.9705808,-0.4200562,-0.18323103,0.0913786,-0.03923919,0.036967665,0.11291478,-0.06229584,-0.21308677,0.23775023,0.014063327,0.12503563,0.06618953,-0.22054328,-0.2417077,0.110214,-0.026519675,0.029064758,0.12871951,-0.33009756,-0.37987947,-0.11405275,-0.026707925,0.041857842,0.044618286,-0.15282255,-0.10665088,0.23836406,0.1676955,0.066003926,0.026246702,0.30626458,-0.35106367,0.093833074,-0.12645742,-0.064153194,-0.064862534,0.041693933,-0.27205077,0.23171245,-0.13116677,0.036830656,0.024721438,-0.004878924,-0.07402078,0.021837974,-0.17725512,0.17638561,0.23198603,0.09947231,0.039368212,0.10634418,0.04130417,0.1307784,-0.0066507887,-0.017512098,0.06842145,-0.3533293,0.07373449,0.123774454,-0.15315299,0.005598684,-0.049323022,-0.035776168,0.015527818,0.04547973,0.08721406,-0.15316308,0.05632492,-0.064799994,-0.30855006,0.16764951,0.13305762,-0.39892069,0.059434697,0.10936854,-0.06377965,-0.14299439,-0.07930913,-0.46863484,0.116778314,0.34905994,0.0048580253,-0.015018359,-0.5698321,0.10641023,0.17552389,-0.12307624,0.035062622,0.09085821,-0.110847436,-0.5321184,-0.09410391,-0.010700992,0.010486082,-0.031424187,0.086370684,0.06041615,-0.6022662,-0.07820257,-0.51470196,0.0833399,0.044513084,-0.10604089,0.03990145,0.01052024,-0.017401759,-0.17953944,0.107032835,-0.15348026,-0.11467331,0.057956424,0.21421237,0.23834273,0.030561069,0.14277631,-0.04636253,-0.03202453,0.04321158,0.11810214,-0.61939067,-0.051318027,0.101750016,-0.78431183,-0.10487682,0.23673928,0.0132132005,0.03179036,0.0687767,-0.4219256,0.13248548,-0.22640088,-0.1330588,-0.0727858,0.08235495,0.049838442,0.056229256,-0.65836924,0.021028113,-0.41008443,-0.08185253,0.04916877,0.10911273,0.042840946,0.18820442,0.11401552,-0.32613719,-0.5741128,-0.51892656,0.21168357,-0.013417246,-0.5295683,0.035690583,0.085897245,0.22115743,-0.22966851,0.08482577,0.00857602,0.15356153,-0.07794415,-0.27301314,-0.5956672,-0.029059337,-0.0023369717,-0.12626392,-0.12031122,-0.2786342,-0.30198103,-0.33236986,0.015573922,-0.0048762504,-0.0502188,-0.14930612,-0.07085099,0.15728106,0.076305635,0.08327167,0.06746137,-0.15912537,-0.51451814,-0.026094148,0.21985868,-0.17802118,0.07282069,-0.080447376,-0.2474736,0.07388627,0.05100833,-0.0484385,-0.1585226,0.112849675,-0.28085417,-0.2040801,-0.07321046,-0.1025022,-0.07501421,0.029980808,-0.3758893,0.03171655,-0.09494603,0.055652276,-0.46242604,-0.4125791,0.2246827,0.10448534,0.017950099,0.031326156,0.073660515,0.12536773,0.046108734,0.14912942,-0.07036913,0.22303344,0.0071728,-0.13446721,-0.36829683,-0.025517367,0.18596639,-0.12121854,-0.02313682,0.10345314,-0.16944383,0.13538633,0.0719582,0.06311972,0.09207413,-0.35090214,-0.41448015,-0.10832937,-0.16751093,0.1963701,-0.1251792,-0.026263893,0.15113327,0.12654233,0.044469908,-0.14638926,-0.5414896,0.010733229,0.043154594,-0.43414062,-0.30788472,-0.0007721962,-0.035795834,-0.045821805,0.21949549}
};
